svm_type c_svc
kernel_type rbf
gamma 0.3333333333333333
nr_class 2
total_sv 6912
rho -7.562978400610168
label 1 -1
nr_sv 3457 3455
SV
1.0 1:0.28514275 2:0.37889227 3:0.23556724 
1.0 1:0.29817306 2:0.41835201 3:0.30175987 
1.0 1:0.23700841 2:0.44988802 3:0.60084151 
1.0 1:0.35354449 2:0.46932089 3:0.44612529 
1.0 1:0.37010793 2:0.47167225 3:0.51808496 
1.0 1:0.45056618 2:0.52466913 3:0.68725556 
1.0 1:0.22060012 2:0.3810941 3:0.26689426 
1.0 1:0.21455532 2:0.38687724 3:0.28547539 
1.0 1:0.27355804 2:0.4027763 3:0.37006069 
1.0 1:0.24042625 2:0.43510204 3:0.65784411 
1.0 1:0.29332349 2:0.40278767 3:0.48374655 
1.0 1:0.23508344 2:0.39265306 3:0.59418178 
1.0 1:0.48372431 2:0.52034538 3:0.65958828 
1.0 1:0.42317548 2:0.4306345 3:0.59924144 
1.0 1:0.22364701 2:0.34587759 3:0.32760979 
1.0 1:0.28514275 2:0.45467072 3:0.61247483 
1.0 1:0.34193956 2:0.44040816 3:0.6631493 
1.0 1:0.31964297 2:0.41243351 3:0.2181057 
1.0 1:0.2865124 2:0.40554584 3:0.26904196 
1.0 1:0.25784204 2:0.37712692 3:0.23715472 
1.0 1:0.35688386 2:0.50445946 3:0.61930415 
1.0 1:0.28005092 2:0.44456693 3:0.63341414 
1.0 1:0.08042453 2:0.37587175 3:0.55838898 
1.0 1:0.13891294 2:0.31836735 3:0.50399347 
1.0 1:0.37903355 2:0.50202241 3:0.5481971 
1.0 1:0.27565794 2:0.46117012 3:0.65025579 
1.0 1:0.29903572 2:0.45827772 3:0.60298334 
1.0 1:0.23158602 2:0.37813043 3:0.60850339 
1.0 1:0.31338638 2:0.46288541 3:0.64835235 
1.0 1:0.34115294 2:0.47487831 3:0.59153552 
1.0 1:0.43976869 2:0.52109497 3:0.56299439 
1.0 1:0.40302426 2:0.48013272 3:0.31993399 
1.0 1:0.34115294 2:0.36878848 3:0.18321897 
1.0 1:0.37933919 2:0.48285714 3:0.6684545 
1.0 1:0.35940302 2:0.43485846 3:0.27907013 
1.0 1:0.19858156 2:0.43446314 3:0.58630069 
1.0 1:0.4071492 2:0.52918786 3:0.65991425 
1.0 1:0.36276464 2:0.47274965 3:0.60298334 
1.0 1:0.13747954 2:0.31826951 3:0.18321897 
1.0 1:0.20876523 2:0.36878848 3:0.26174138 
1.0 1:0.2842858 2:0.42927475 3:0.34891436 
1.0 1:0.35185733 2:0.48962242 3:0.53300767 
1.0 1:0.3207856 2:0.45972262 3:0.58630069 
1.0 1:0.24258147 2:0.41835201 3:0.39228783 
1.0 1:0.39924868 2:0.46264811 3:0.26655455 
1.0 1:0.37406531 2:0.51195111 3:0.65662923 
1.0 1:0.3576607 2:0.42249931 3:0.5305271 
1.0 1:0.50239267 2:0.51005513 3:0.26563646 
1.0 1:0.24445138 2:0.4561574 3:0.59565416 
1.0 1:0.43325295 2:0.43485846 3:0.63787459 
1.0 1:0.61291229 2:0.59570754 3:0.62837864 
1.0 1:0.16091649 2:0.3126816 3:0.19560351 
1.0 1:0.20919144 2:0.42397506 3:0.57095078 
1.0 1:0.34327216 2:0.42608109 3:0.45666819 
1.0 1:0.3360611 2:0.42435934 3:0.24080207 
1.0 1:0.24673862 2:0.41337568 3:0.38592043 
1.0 1:0.27767604 2:0.4158066 3:0.66790513 
1.0 1:0.26714028 2:0.42979592 3:0.67906489 
1.0 1:0.21844592 2:0.37094118 3:0.56090766 
1.0 1:0.25635603 2:0.36464608 3:0.20359092 
1.0 1:0.36197056 2:0.50283589 3:0.71630405 
1.0 1:0.20867599 2:0.40914013 3:0.57150868 
1.0 1:0.24667093 2:0.44047767 3:0.63502887 
1.0 1:0.3952977 2:0.40529609 3:0.53362077 
1.0 1:0.42988624 2:0.48249534 3:0.53362077 
1.0 1:0.3105738 2:0.43073994 3:0.27908103 
1.0 1:0.27767604 2:0.38679684 3:0.22263504 
1.0 1:0.10922296 2:0.39600478 3:0.7098212 
1.0 1:0.22757857 2:0.38289692 3:0.26987965 
1.0 1:0.30551009 2:0.37384037 3:0.29838517 
1.0 1:0.30551009 2:0.3233214 3:0.19368862 
1.0 1:0.32407897 2:0.49600838 3:0.69012573 
1.0 1:0.23156863 2:0.40088417 3:0.29973363 
1.0 1:0.31864462 2:0.47757362 3:0.66229317 
1.0 1:0.35262322 2:0.45688879 3:0.40397935 
1.0 1:0.63238701 2:0.56922917 3:0.36080151 
1.0 1:0.34735295 2:0.43552848 3:0.59946725 
1.0 1:0.4071492 2:0.36598039 3:0.54823646 
1.0 1:0.32233847 2:0.40097919 3:0.24056954 
1.0 1:0.26819415 2:0.39217693 3:0.21146325 
1.0 1:0.28089836 2:0.43613658 3:0.37672803 
1.0 1:0.4531733 2:0.42941124 3:0.58630069 
1.0 1:0.30322684 2:0.45772632 3:0.43252248 
1.0 1:0.29539974 2:0.46868079 3:0.56312366 
1.0 1:0.34315574 2:0.49686953 3:0.60298334 
1.0 1:0.28636382 2:0.45120261 3:0.56134498 
1.0 1:0.20589344 2:0.35697422 3:0.182872 
1.0 1:0.23168078 2:0.42573099 3:0.45042808 
1.0 1:0.39769396 2:0.51966467 3:0.61978818 
1.0 1:0.35354449 2:0.4408772 3:0.3222016 
1.0 1:0.24440807 2:0.35363279 3:0.25650655 
1.0 1:0.37177058 2:0.48553325 3:0.39093668 
1.0 1:0.25645467 2:0.41918367 3:0.38727919 
1.0 1:0.32001639 2:0.48317607 3:0.65780817 
1.0 1:0.19849667 2:0.38419256 3:0.32657639 
1.0 1:0.40765511 2:0.46637256 3:0.40178018 
1.0 1:0.3691434 2:0.43467547 3:0.61185906 
1.0 1:0.31717216 2:0.41741671 3:0.35823184 
1.0 1:0.2885115 2:0.39795918 3:0.35014283 
1.0 1:0.27495908 2:0.45972262 3:0.56012656 
1.0 1:0.21793839 2:0.4408772 3:0.57004899 
1.0 1:0.21371222 2:0.38204082 3:0.30239608 
1.0 1:0.51936716 2:0.42941124 3:0.61247483 
1.0 1:0.26962237 2:0.45345374 3:0.6178108 
1.0 1:0.26297968 2:0.41770573 3:0.53466724 
1.0 1:0.19834003 2:0.42064156 3:0.69210459 
1.0 1:0.41673883 2:0.37673469 3:0.54112983 
1.0 1:0.53664286 2:0.49283959 3:0.67774175 
1.0 1:0.28193081 2:0.45670299 3:0.6722981 
1.0 1:0.23412428 2:0.43907721 3:0.5102756 
1.0 1:0.51885989 2:0.53549331 3:0.76415372 
1.0 1:0.29501357 2:0.45577319 3:0.54980445 
1.0 1:0.38614529 2:0.41752926 3:0.33356025 
1.0 1:0.33256075 2:0.41867537 3:0.33305462 
1.0 1:0.21648258 2:0.36830886 3:0.65757625 
1.0 1:0.226194 2:0.41049152 3:0.42640613 
1.0 1:0.42649356 2:0.49686953 3:0.58321339 
1.0 1:0.58200915 2:0.51131564 3:0.50772995 
1.0 1:0.24137474 2:0.4027763 3:0.37006069 
1.0 1:0.29531472 2:0.39603765 3:0.64170584 
1.0 1:0.26578325 2:0.46365384 3:0.67652709 
1.0 1:0.14875502 2:0.40130172 3:0.60498653 
1.0 1:0.35023559 2:0.50138718 3:0.77416249 
1.0 1:0.25459174 2:0.35868468 3:0.19892345 
1.0 1:0.36865358 2:0.44040816 3:0.30770128 
1.0 1:0.3486524 2:0.35507911 3:0.28018881 
1.0 1:0.44712948 2:0.48062887 3:0.25561245 
1.0 1:0.24440807 2:0.41930745 3:0.58106587 
1.0 1:0.28514275 2:0.41425555 3:0.27744586 
1.0 1:0.16612532 2:0.40583336 3:0.50294287 
1.0 1:0.42494502 2:0.50179516 3:0.56788999 
1.0 1:0.26093644 2:0.35271853 3:0.22923618 
1.0 1:0.24388123 2:0.45777305 3:0.64146201 
1.0 1:0.32986304 2:0.49283959 3:0.65780817 
1.0 1:0.26283027 2:0.32328098 3:0.26961564 
1.0 1:0.20137915 2:0.36830886 3:0.63303982 
1.0 1:0.29501357 2:0.32328098 3:0.44935941 
1.0 1:0.41848297 2:0.41553142 3:0.57807384 
1.0 1:0.38894299 2:0.51699839 3:0.7275757 
1.0 1:0.32056833 2:0.39265306 3:0.53051944 
1.0 1:0.60261124 2:0.49145872 3:0.61832459 
1.0 1:0.27086675 2:0.45462368 3:0.47173507 
1.0 1:0.35881843 2:0.45772632 3:0.36211185 
1.0 1:0.23752769 2:0.41343022 3:0.33193586 
1.0 1:0.22550234 2:0.35697422 3:0.17792951 
1.0 1:0.26420467 2:0.42255974 3:0.32329685 
1.0 1:0.31569376 2:0.38394417 3:0.20939311 
1.0 1:0.50878494 2:0.5404061 3:0.67654374 
1.0 1:0.25111186 2:0.3555102 3:0.48277269 
1.0 1:0.54633223 2:0.48780247 3:0.55713996 
1.0 1:0.16800152 2:0.36669646 3:0.55809878 
1.0 1:0.21385706 2:0.30816571 3:0.17274931 
1.0 1:0.30551009 2:0.41425555 3:0.63341414 
1.0 1:0.18723936 2:0.36091575 3:0.61550929 
1.0 1:0.29723039 2:0.39103593 3:0.25899418 
1.0 1:0.41299617 2:0.50988712 3:0.67564212 
1.0 1:0.41344061 2:0.52161057 3:0.72627173 
1.0 1:0.47329949 2:0.5363609 3:0.59565416 
1.0 1:0.26640627 2:0.39565448 3:0.22843186 
1.0 1:0.28514275 2:0.38899606 3:0.19892345 
1.0 1:0.11475927 2:0.36728067 3:0.57995645 
1.0 1:0.28555308 2:0.39620438 3:0.29900371 
1.0 1:0.40776216 2:0.46027442 3:0.2794127 
1.0 1:0.43805017 2:0.50712138 3:0.51734425 
1.0 1:0.40851869 2:0.42984574 3:0.61185906 
1.0 1:0.24576906 2:0.40857143 3:0.56235061 
1.0 1:0.40734679 2:0.45972262 3:0.62294449 
1.0 1:0.5089324 2:0.49776196 3:0.64761804 
1.0 1:0.43293266 2:0.40088417 3:0.56390564 
1.0 1:0.21657116 2:0.37622739 3:0.23033254 
1.0 1:0.24576906 2:0.43510204 3:0.61540255 
1.0 1:0.49337891 2:0.52545398 3:0.56924511 
1.0 1:0.38894299 2:0.49767135 3:0.68272514 
1.0 1:0.21741373 2:0.34257169 3:0.17624172 
1.0 1:0.23931624 2:0.34352899 3:0.18321897 
1.0 1:0.34180427 2:0.45005697 3:0.37056723 
1.0 1:0.31569376 2:0.44961883 3:0.57583104 
1.0 1:0.17631258 2:0.33428571 3:0.19629219 
1.0 1:0.26005466 2:0.41605565 3:0.61550929 
1.0 1:0.38762575 2:0.32664636 3:0.17272785 
1.0 1:0.22439783 2:0.38734694 3:0.34483764 
1.0 1:0.18887993 2:0.40769289 3:0.50560867 
1.0 1:0.29723039 2:0.28708967 3:0.14219288 
1.0 1:0.29539974 2:0.41553142 3:0.25415316 
1.0 1:0.39796049 2:0.50110383 3:0.73981761 
1.0 1:0.42340629 2:0.51699839 3:0.67774175 
1.0 1:0.38484378 2:0.45136762 3:0.24357379 
1.0 1:0.44294502 2:0.49145872 3:0.3971353 
1.0 1:0.20836942 2:0.40326531 3:0.62601294 
1.0 1:0.18165539 2:0.37142857 3:0.49868828 
1.0 1:0.20919144 2:0.37627786 3:0.37006069 
1.0 1:0.23173895 2:0.38113628 3:0.29962072 
1.0 1:0.3207856 2:0.45972262 3:0.3978469 
1.0 1:0.26682737 2:0.3241118 3:0.54470868 
1.0 1:0.29369657 2:0.46128779 3:0.62415783 
1.0 1:0.3164691 2:0.46637256 3:0.54980445 
1.0 1:0.30485154 2:0.3923769 3:0.60554014 
1.0 1:0.25673914 2:0.44542686 3:0.61470795 
1.0 1:0.28204616 2:0.38612811 3:0.28151755 
1.0 1:0.21657116 2:0.44553244 3:0.61422011 
1.0 1:0.26466223 2:0.45903527 3:0.59702246 
1.0 1:0.35262517 2:0.50408163 3:0.67375969 
1.0 1:0.26698615 2:0.44215044 3:0.64247319 
1.0 1:0.374173 2:0.50250311 3:0.71760891 
1.0 1:0.44803496 2:0.53451223 3:0.71123233 
1.0 1:0.3068645 2:0.48122099 3:0.69492985 
1.0 1:0.4528159 2:0.46365384 3:0.61185906 
1.0 1:0.23660273 2:0.3513923 3:0.19812901 
1.0 1:0.61102019 2:0.42941124 3:0.48160414 
1.0 1:0.28301172 2:0.43803917 3:0.39228783 
1.0 1:0.41753046 2:0.45972262 3:0.32455931 
1.0 1:0.40765511 2:0.51936945 3:0.73483479 
1.0 1:0.1357164 2:0.37587175 3:0.55331272 
1.0 1:0.07877326 2:0.36721381 3:0.5182731 
1.0 1:0.25792238 2:0.40776036 3:0.33607655 
1.0 1:0.25448291 2:0.34926597 3:0.47965907 
1.0 1:0.29520018 2:0.4690143 3:0.56130317 
1.0 1:0.23064697 2:0.43457443 3:0.58681052 
1.0 1:0.37933919 2:0.51469388 3:0.65784411 
1.0 1:0.26928553 2:0.42759021 3:0.68764727 
1.0 1:0.30141449 2:0.48249534 3:0.65111525 
1.0 1:0.32672467 2:0.47478537 3:0.64468546 
1.0 1:0.47202171 2:0.34447973 3:0.38592043 
1.0 1:0.20919144 2:0.40807599 3:0.59738368 
1.0 1:0.2707831 2:0.39620438 3:0.24418636 
1.0 1:0.26152606 2:0.42191474 3:0.3321155 
1.0 1:0.39172156 2:0.26592283 3:0.50818869 
1.0 1:0.30028984 2:0.47899332 3:0.58171419 
1.0 1:0.37279744 2:0.47023308 3:0.43673529 
1.0 1:1.21705583 2:0.84213674 3:0.84384339 
1.0 1:0.23601085 2:0.38687724 3:0.54451787 
1.0 1:0.29977068 2:0.47286447 3:0.59527675 
1.0 1:0.24179878 2:0.39302261 3:0.28716605 
1.0 1:0.45773781 2:0.52644029 3:0.65662923 
1.0 1:0.36565037 2:0.4873203 3:0.45039551 
1.0 1:0.28316869 2:0.40857143 3:0.27056492 
1.0 1:0.23612456 2:0.3923501 3:0.26563646 
1.0 1:0.27070516 2:0.39603765 3:0.24374873 
1.0 1:0.28547089 2:0.40086738 3:0.30841676 
1.0 1:0.20382756 2:0.37097818 3:0.30133513 
1.0 1:0.10402187 2:0.3759539 3:0.52616117 
1.0 1:0.2322374 2:0.36187151 3:0.42102189 
1.0 1:0.2340492 2:0.36592846 3:0.28789951 
1.0 1:0.34926733 2:0.42527236 3:0.66694992 
1.0 1:0.36568716 2:0.48649449 3:0.41724342 
1.0 1:0.54688326 2:0.53568905 3:0.72057245 
1.0 1:0.18330606 2:0.34858089 3:0.26174138 
1.0 1:0.35887544 2:0.35089031 3:0.43681305 
1.0 1:0.51382241 2:0.56005723 3:0.62300431 
1.0 1:0.18773591 2:0.39747662 3:0.58681052 
1.0 1:0.32587743 2:0.3334252 3:0.23556724 
1.0 1:0.15784688 2:0.34858089 3:0.25127173 
1.0 1:0.17115942 2:0.41078255 3:0.58422656 
1.0 1:0.40568528 2:0.49625915 3:0.645292 
1.0 1:0.33825352 2:0.4631017 3:0.56838593 
1.0 1:0.28547089 2:0.44916465 3:0.62180799 
1.0 1:0.44838359 2:0.51011862 3:0.49987471 
1.0 1:0.42820634 2:0.45882411 3:0.21887641 
1.0 1:0.24042625 2:0.45102041 3:0.64192853 
1.0 1:0.3293092 2:0.43977028 3:0.28514525 
1.0 1:0.21247251 2:0.40529609 3:0.34269224 
1.0 1:0.29385431 2:0.43510204 3:0.68437008 
1.0 1:0.25189016 2:0.361337 3:0.1472712 
1.0 1:0.35264623 2:0.37618646 3:0.56877154 
1.0 1:0.21905503 2:0.36081633 3:0.41911036 
1.0 1:0.52944028 2:0.55958122 3:0.66723566 
1.0 1:0.1960348 2:0.33630631 3:0.20305054 
1.0 1:0.297211 2:0.40776096 3:0.33583826 
1.0 1:0.28164961 2:0.40047113 3:0.23498896 
1.0 1:0.43322282 2:0.45197601 3:0.55486321 
1.0 1:0.17683717 2:0.41605565 3:0.57579902 
1.0 1:0.37699 2:0.4154372 3:0.18782175 
1.0 1:0.17164426 2:0.42397506 3:0.63438975 
1.0 1:0.34549841 2:0.4477121 3:0.61580353 
1.0 1:0.16183365 2:0.34808811 3:0.41245758 
1.0 1:0.2885115 2:0.39795918 3:0.31831167 
1.0 1:0.38614529 2:0.49801683 3:0.77488611 
1.0 1:0.34549841 2:0.44268163 3:0.57988166 
1.0 1:0.41803271 2:0.5247382 3:0.70635313 
1.0 1:0.29919711 2:0.39795918 3:0.24934414 
1.0 1:0.56096966 2:0.59553639 3:0.61860774 
1.0 1:0.24042625 2:0.45102041 3:0.63662333 
1.0 1:0.52172267 2:0.4926322 3:0.58201228 
1.0 1:0.3052464 2:0.4058679 3:0.22425278 
1.0 1:0.16028417 2:0.37673469 3:0.61009736 
1.0 1:0.53156649 2:0.55058893 3:0.68647602 
1.0 1:0.24042625 2:0.37142857 3:0.21751297 
1.0 1:0.23601085 2:0.39747662 3:0.31190829 
1.0 1:0.41309987 2:0.40588539 3:0.53830163 
1.0 1:0.2885115 2:0.41918367 3:0.30239608 
1.0 1:0.45826514 2:0.490034 3:0.6438838 
1.0 1:0.46129394 2:0.46637256 3:0.58681052 
1.0 1:0.43976869 2:0.53074488 3:0.63153283 
1.0 1:0.46839809 2:0.5247382 3:0.70635313 
1.0 1:0.12585252 2:0.38108742 3:0.49786263 
1.0 1:0.4825472 2:0.5192965 3:0.68021931 
1.0 1:0.30453992 2:0.44571429 3:0.49338308 
1.0 1:0.26477541 2:0.44456693 3:0.52348276 
1.0 1:0.29919711 2:0.45632653 3:0.41380517 
1.0 1:0.29919711 2:0.40326531 3:0.33953244 
1.0 1:0.26714028 2:0.42979592 3:0.35014283 
1.0 1:0.47343463 2:0.49503604 3:0.69611613 
1.0 1:0.17631258 2:0.38734694 3:0.34483764 
1.0 1:0.34257062 2:0.35143735 3:0.21328933 
1.0 1:0.40935624 2:0.47741347 3:0.3067892 
1.0 1:0.42649356 2:0.49686953 3:0.62275328 
1.0 1:0.54760802 2:0.53948138 3:0.3408166 
1.0 1:0.17821422 2:0.39909986 3:0.54442207 
1.0 1:0.43264397 2:0.53117256 3:0.70881111 
1.0 1:0.30453992 2:0.40326531 3:0.572961 
1.0 1:0.20136403 2:0.42068092 3:0.64518933 
1.0 1:0.27850536 2:0.39184662 3:0.27909496 
1.0 1:0.44309961 2:0.50733487 3:0.67774175 
1.0 1:0.29919711 2:0.39795918 3:0.3766688 
1.0 1:0.25182693 2:0.43068135 3:0.58350911 
1.0 1:0.47250355 2:0.56024839 3:0.74119512 
1.0 1:0.26283027 2:0.41867537 3:0.35420094 
1.0 1:0.3821156 2:0.39306006 3:0.45683817 
1.0 1:0.38894299 2:0.4541855 3:0.25415316 
1.0 1:0.32672467 2:0.48962242 3:0.6396092 
1.0 1:0.47016689 2:0.3555102 3:0.381974 
1.0 1:0.33860331 2:0.41835201 3:0.3067892 
1.0 1:0.38201653 2:0.3907088 3:0.55838898 
1.0 1:0.21905503 2:0.28122449 3:0.25995453 
1.0 1:0.37909633 2:0.44935374 3:0.58804063 
1.0 1:0.3486524 2:0.31798129 3:0.53394471 
1.0 1:0.2342244 2:0.43951503 3:0.57059621 
1.0 1:0.54459344 2:0.56381506 3:0.51537836 
1.0 1:0.23040457 2:0.44862977 3:0.62769577 
1.0 1:0.61102019 2:0.44961883 3:0.54442207 
1.0 1:0.40717266 2:0.50394089 3:0.52048112 
1.0 1:0.54080496 2:0.58577908 3:0.75405437 
1.0 1:0.3053795 2:0.46402478 3:0.70418033 
1.0 1:0.36331078 2:0.41918367 3:0.45094153 
1.0 1:0.50918349 2:0.41425555 3:0.55489173 
1.0 1:0.20382756 2:0.43987412 3:0.66082266 
1.0 1:0.26477541 2:0.39404796 3:0.26697621 
1.0 1:0.27248308 2:0.32367347 3:0.51460386 
1.0 1:0.26986725 2:0.39909986 3:0.26174138 
1.0 1:0.34728236 2:0.4722449 3:0.38727919 
1.0 1:0.19846367 2:0.32328098 3:0.20617667 
1.0 1:0.70047119 2:0.51627987 3:0.52783806 
1.0 1:0.35133661 2:0.44961883 3:0.47113449 
1.0 1:0.34624477 2:0.38394417 3:0.19368862 
1.0 1:0.49861732 2:0.41583027 3:0.58862761 
1.0 1:0.32233847 2:0.4752346 3:0.68587912 
1.0 1:0.42703377 2:0.50515075 3:0.44606878 
1.0 1:0.24114848 2:0.40215885 3:0.3408166 
1.0 1:0.45810316 2:0.42068092 3:0.61470795 
1.0 1:0.17164426 2:0.34447973 3:0.24318274 
1.0 1:0.21385706 2:0.38394417 3:0.32455931 
1.0 1:0.44520229 2:0.4504735 3:0.57095078 
1.0 1:0.23508344 2:0.42979592 3:0.4721623 
1.0 1:0.20302661 2:0.3077551 3:0.43502594 
1.0 1:0.39709613 2:0.44016561 3:0.62945667 
1.0 1:0.3848809 2:0.3759539 3:0.60061794 
1.0 1:0.22439783 2:0.41387755 3:0.59418178 
1.0 1:0.2694348 2:0.37211331 3:0.23198258 
1.0 1:0.28005092 2:0.46982642 3:0.60724 
1.0 1:0.16183365 2:0.40278767 3:0.57540379 
1.0 1:0.49399367 2:0.54517073 3:0.52543646 
1.0 1:0.29919711 2:0.36081633 3:0.24403894 
1.0 1:0.25101751 2:0.42018629 3:0.4128805 
1.0 1:0.33227559 2:0.48125691 3:0.60359611 
1.0 1:0.15750118 2:0.34774038 3:0.48749746 
1.0 1:0.27086675 2:0.41673838 3:0.33269736 
1.0 1:0.25746639 2:0.42397506 3:0.62381659 
1.0 1:0.46021444 2:0.51218679 3:0.64669275 
1.0 1:0.26005466 2:0.38597934 3:0.28789951 
1.0 1:0.35367434 2:0.44613196 3:0.52616117 
1.0 1:0.42028991 2:0.52576888 3:0.60893446 
1.0 1:0.28005092 2:0.40415176 3:0.26174138 
1.0 1:0.46665783 2:0.5405682 3:0.65024949 
1.0 1:0.21905503 2:0.40326531 3:0.43502594 
1.0 1:0.31129693 2:0.37634637 3:0.53362077 
1.0 1:0.26693655 2:0.43068135 3:0.49649459 
1.0 1:0.15112424 2:0.41267375 3:0.63273875 
1.0 1:0.5388696 2:0.53159045 3:0.72977853 
1.0 1:0.37909633 2:0.51216663 3:0.55814026 
1.0 1:0.47354064 2:0.52539728 3:0.45543 
1.0 1:0.29501357 2:0.46107287 3:0.66082266 
1.0 1:0.34945575 2:0.42018629 3:0.25369766 
1.0 1:0.62799084 2:0.55909889 3:0.41098472 
1.0 1:0.33717805 2:0.44481636 3:0.65822535 
1.0 1:0.32587743 2:0.490034 3:0.68052759 
1.0 1:0.66315833 2:0.54929014 3:0.30573253 
1.0 1:0.24673862 2:0.38157755 3:0.52337154 
1.0 1:0.2842858 2:0.34447973 3:0.48107889 
1.0 1:0.37679451 2:0.45610699 3:0.39594869 
1.0 1:0.24673862 2:0.36567849 3:0.21146325 
1.0 1:0.14875502 2:0.38679684 3:0.54690783 
1.0 1:0.29520018 2:0.38419256 3:0.29085709 
1.0 1:0.34945575 2:0.34291065 3:0.18405516 
1.0 1:0.17700814 2:0.30738192 3:0.41235334 
1.0 1:0.4378978 2:0.51529349 3:0.65435345 
1.0 1:0.21371222 2:0.39795918 3:0.41911036 
1.0 1:0.29903572 2:0.43898182 3:0.33114659 
1.0 1:0.22913257 2:0.44961883 3:0.60724 
1.0 1:0.35906841 2:0.49229604 3:0.61614034 
1.0 1:0.3207856 2:0.38394417 3:0.34549862 
1.0 1:0.23692408 2:0.45174488 3:0.66356785 
1.0 1:0.69990753 2:0.53591837 3:0.58887658 
1.0 1:0.26477541 2:0.39404796 3:0.22509759 
1.0 1:0.37252345 2:0.43552848 3:0.51310333 
1.0 1:0.27248308 2:0.40857143 3:0.58357139 
1.0 1:0.19764155 2:0.41104293 3:0.64032822 
1.0 1:0.40568528 2:0.48122099 3:0.66514714 
1.0 1:0.34248463 2:0.4999864 3:0.67564212 
1.0 1:0.32721655 2:0.49491873 3:0.67059049 
1.0 1:0.26137973 2:0.38576312 3:0.19797428 
1.0 1:0.66450129 2:0.38603661 3:0.51310333 
1.0 1:0.3297681 2:0.39120792 3:0.44770175 
1.0 1:0.39186629 2:0.43158511 3:0.19045633 
1.0 1:0.29255155 2:0.46899117 3:0.69694449 
1.0 1:0.22236635 2:0.42819559 3:0.59849041 
1.0 1:0.23799549 2:0.41168695 3:0.54296656 
1.0 1:0.41204188 2:0.44181642 3:0.6032435 
1.0 1:0.35701206 2:0.4399814 3:0.64370567 
1.0 1:0.24163683 2:0.45532523 3:0.64518933 
1.0 1:0.2199192 2:0.37627786 3:0.31190829 
1.0 1:0.33096927 2:0.38899606 3:0.21462793 
1.0 1:0.30574133 2:0.46107287 3:0.60795684 
1.0 1:0.26420467 2:0.42255974 3:0.62606692 
1.0 1:0.30722886 2:0.48018496 3:0.60910161 
1.0 1:0.52893775 2:0.53061224 3:0.63662333 
1.0 1:0.47859131 2:0.47023308 3:0.6754162 
1.0 1:0.39265985 2:0.49491873 3:0.69599164 
1.0 1:0.30722886 2:0.38612811 3:0.16891053 
1.0 1:0.18839789 2:0.41425555 3:0.64911863 
1.0 1:0.31338638 2:0.41565221 3:0.22766571 
1.0 1:0.37170395 2:0.36878848 3:0.58106587 
1.0 1:0.40795963 2:0.48018496 3:0.61422011 
1.0 1:0.3442778 2:0.43977028 3:0.68144883 
1.0 1:0.21371222 2:0.38204082 3:0.31300647 
1.0 1:0.36248246 2:0.44197064 3:0.67720539 
1.0 1:0.44298963 2:0.5001378 3:0.41355138 
1.0 1:0.18138232 2:0.42450989 3:0.57827091 
1.0 1:0.2569435 2:0.35704655 3:0.13218129 
1.0 1:0.30028984 2:0.3991611 3:0.209213 
1.0 1:0.27355804 2:0.43457443 3:0.35420094 
1.0 1:0.24445138 2:0.3759539 3:0.56587145 
1.0 1:0.1176534 2:0.36662218 3:0.43988129 
1.0 1:0.28555308 2:0.30923268 3:0.13953507 
1.0 1:0.3777404 2:0.4752346 3:0.57839061 
1.0 1:0.3619104 2:0.37092607 3:0.46701624 
1.0 1:0.33717805 2:0.35778708 3:0.17423612 
1.0 1:0.25200228 2:0.37634637 3:0.23009336 
1.0 1:0.5827755 2:0.56400326 3:0.35585262 
1.0 1:0.40359678 2:0.51195111 3:0.64668031 
1.0 1:0.48532026 2:0.5016935 3:0.31137664 
1.0 1:0.22364701 2:0.38597934 3:0.2581168 
1.0 1:0.3778106 2:0.37828427 3:0.56459765 
1.0 1:0.26283027 2:0.41337568 3:0.62381659 
1.0 1:0.24042625 2:0.45102041 3:0.58357139 
1.0 1:0.27712739 2:0.40264821 3:0.29866566 
1.0 1:0.3468308 2:0.4945681 3:0.59899909 
1.0 1:0.21454993 2:0.42527236 3:0.56545754 
1.0 1:0.28659083 2:0.34739665 3:0.23009336 
1.0 1:0.42314787 2:0.47162714 3:0.57433209 
1.0 1:0.27495908 2:0.40920365 3:0.26174138 
1.0 1:0.51187885 2:0.51195111 3:0.5919612 
1.0 1:0.30888777 2:0.43152729 3:0.55818993 
1.0 1:0.34463303 2:0.45901726 3:0.6279078 
1.0 1:0.29903572 2:0.35697422 3:0.14827459 
1.0 1:0.24296654 2:0.37712692 3:0.22747494 
1.0 1:0.36152028 2:0.490034 3:0.62817932 
1.0 1:0.31164507 2:0.39565448 3:0.28427076 
1.0 1:0.28547089 2:0.40086738 3:0.21887641 
1.0 1:0.33677773 2:0.35114335 3:0.24366065 
1.0 1:0.49874253 2:0.39103593 3:0.54337995 
1.0 1:0.24296654 2:0.42064156 3:0.59530675 
1.0 1:0.33417219 2:0.42665535 3:0.28254602 
1.0 1:0.52053941 2:0.53155314 3:0.55825576 
1.0 1:0.30141449 2:0.46802048 3:0.5825768 
1.0 1:0.36965257 2:0.50096846 3:0.61908337 
1.0 1:0.23122053 2:0.3907088 3:0.31472834 
1.0 1:0.49234482 2:0.51986388 3:0.46611681 
1.0 1:0.32672467 2:0.44016561 3:0.64468546 
1.0 1:0.25593942 2:0.3863782 3:0.27359551 
1.0 1:0.34624477 2:0.44456693 3:0.27744586 
1.0 1:0.23800804 2:0.35295212 3:0.16455634 
1.0 1:0.25101751 2:0.33808092 3:0.19897856 
1.0 1:0.35401628 2:0.41867537 3:0.59738368 
1.0 1:0.17700814 2:0.39217693 3:0.54980445 
1.0 1:0.45067232 2:0.53568905 3:0.62415783 
1.0 1:0.30988272 2:0.46163265 3:0.53582464 
1.0 1:0.3207856 2:0.47993021 3:0.56536138 
1.0 1:0.15102302 2:0.32664636 3:0.5080231 
1.0 1:0.28209858 2:0.44215044 3:0.61813708 
1.0 1:0.29153893 2:0.4154372 3:0.42132987 
1.0 1:0.27248308 2:0.39265306 3:0.30770128 
1.0 1:0.29919711 2:0.45632653 3:0.72150644 
1.0 1:0.41783036 2:0.52461385 3:0.61978818 
1.0 1:0.26626812 2:0.46101136 3:0.62148909 
1.0 1:0.21766078 2:0.39779572 3:0.31283483 
1.0 1:0.36751694 2:0.41741671 3:0.62322525 
1.0 1:0.27570642 2:0.4058679 3:0.3089705 
1.0 1:0.27484155 2:0.41911916 3:0.61233073 
1.0 1:0.39798646 2:0.47023308 3:0.66525957 
1.0 1:0.50450605 2:0.48623371 3:0.30279086 
1.0 1:0.4339196 2:0.52428858 3:0.51472248 
1.0 1:0.26819415 2:0.43987412 3:0.65553608 
1.0 1:0.33256075 2:0.31798129 3:0.43349966 
1.0 1:0.34115294 2:0.38899606 3:0.20939311 
1.0 1:0.45948128 2:0.4722449 3:0.572961 
1.0 1:0.24616645 2:0.43969022 3:0.56312366 
1.0 1:0.6436498 2:0.43493764 3:0.57512348 
1.0 1:0.51290933 2:0.49877551 3:0.51460386 
1.0 1:0.46758164 2:0.47331329 3:0.64170584 
1.0 1:0.47263958 2:0.51699839 3:0.67275835 
1.0 1:0.16623666 2:0.41267375 3:0.6668093 
1.0 1:0.3397097 2:0.50250311 3:0.66777496 
1.0 1:0.33221955 2:0.47866109 3:0.59046686 
1.0 1:0.31569376 2:0.3334252 3:0.17274931 
1.0 1:0.38284807 2:0.48636549 3:0.40397935 
1.0 1:0.39631526 2:0.45585687 3:0.26363823 
1.0 1:0.50637339 2:0.53568905 3:0.36028622 
1.0 1:0.19348973 2:0.35363279 3:0.2460369 
1.0 1:0.31479989 2:0.36502736 3:0.27263212 
1.0 1:0.2521025 2:0.37097818 3:0.27490223 
1.0 1:0.51143712 2:0.51088863 3:0.62923228 
1.0 1:0.52359494 2:0.38734694 3:0.54112983 
1.0 1:0.20836942 2:0.34489796 3:0.53051944 
1.0 1:0.35241351 2:0.45179221 3:0.68211267 
1.0 1:0.28148587 2:0.40554584 3:0.26904196 
1.0 1:0.30141449 2:0.43907076 3:0.56299439 
1.0 1:0.32724111 2:0.43214907 3:0.58396697 
1.0 1:0.16562697 2:0.39265306 3:0.572961 
1.0 1:0.20919144 2:0.42927475 3:0.68196898 
1.0 1:0.34879827 2:0.44478581 3:0.27908103 
1.0 1:0.36412571 2:0.36300617 3:0.20877483 
1.0 1:0.21225879 2:0.38882128 3:0.49287446 
1.0 1:0.34955636 2:0.49283959 3:0.66279156 
1.0 1:0.390082 2:0.39600478 3:0.61550929 
1.0 1:0.24845904 2:0.44478581 3:0.49940816 
1.0 1:0.62413119 2:0.55641177 3:0.65521957 
1.0 1:0.08582213 2:0.32328098 3:0.52865813 
1.0 1:0.32844907 2:0.49204555 3:0.60298334 
1.0 1:0.21321553 2:0.41097164 3:0.65338546 
1.0 1:0.27963708 2:0.44399213 3:0.46522993 
1.0 1:0.31569376 2:0.3283733 3:0.17798414 
1.0 1:0.44120024 2:0.3810941 3:0.12356216 
1.0 1:0.48268161 2:0.51813872 3:0.63633031 
1.0 1:0.38704306 2:0.39565448 3:0.25888944 
1.0 1:0.23530679 2:0.39556603 3:0.27183675 
1.0 1:0.39796049 2:0.3979354 3:0.45751879 
1.0 1:0.29501357 2:0.39747662 3:0.52337154 
1.0 1:0.23064697 2:0.33388036 3:0.20089009 
1.0 1:0.35133661 2:0.41930745 3:0.25127173 
1.0 1:0.52871067 2:0.44872067 3:0.52872516 
1.0 1:0.4976268 2:0.51435082 3:0.68021931 
1.0 1:0.38259165 2:0.37118905 3:0.22353016 
1.0 1:0.21157393 2:0.40776096 3:0.54026155 
1.0 1:0.16710322 2:0.3968067 3:0.61908337 
1.0 1:0.33125394 2:0.39795918 3:0.44033114 
1.0 1:0.30027066 2:0.43613658 3:0.41638361 
1.0 1:0.37447872 2:0.51631003 3:0.66514714 
1.0 1:0.28209858 2:0.43723766 3:0.6911454 
1.0 1:0.25945573 2:0.44460292 3:0.68144883 
1.0 1:0.30574133 2:0.43457443 3:0.45464599 
1.0 1:0.25635603 2:0.41200271 3:0.42704438 
1.0 1:0.39689021 2:0.52476825 3:0.64153712 
1.0 1:0.30206872 2:0.41741671 3:0.2699007 
1.0 1:0.35677834 2:0.46760874 3:0.38604186 
1.0 1:0.26477541 2:0.34352899 3:0.20415828 
1.0 1:0.55591588 2:0.56600566 3:0.47778646 
1.0 1:0.36053664 2:0.44678065 3:0.61832459 
1.0 1:0.33267169 2:0.34007908 3:0.25241198 
1.0 1:0.47859131 2:0.38608611 3:0.5586149 
1.0 1:0.33928827 2:0.430105 3:0.33830793 
1.0 1:0.27495908 2:0.41930745 3:0.42402104 
1.0 1:0.59282336 2:0.51005513 3:0.2856845 
1.0 1:0.31569376 2:0.42435934 3:0.32979414 
1.0 1:0.33335129 2:0.39074206 3:0.182872 
1.0 1:0.48105472 2:0.55552938 3:0.60386001 
1.0 1:0.23168078 2:0.40592955 3:0.5425611 
1.0 1:0.32230255 2:0.45448629 3:0.53238815 
1.0 1:0.3525577 2:0.42573099 3:0.25592505 
1.0 1:0.27565794 2:0.42106837 3:0.68996606 
1.0 1:0.26714028 2:0.44571429 3:0.45094153 
1.0 1:0.32233847 2:0.37127703 3:0.41459858 
1.0 1:0.24588777 2:0.43454549 3:0.48502695 
1.0 1:0.14425575 2:0.36081633 3:0.65784411 
1.0 1:0.20302661 2:0.40326531 3:0.46155192 
1.0 1:0.41243863 2:0.45972262 3:0.29315035 
1.0 1:0.40734679 2:0.5001378 3:0.67529276 
1.0 1:0.3139515 2:0.37200628 3:0.41103076 
1.0 1:0.13891294 2:0.39795918 3:0.5676558 
1.0 1:0.20151213 2:0.33658789 3:0.13711457 
1.0 1:0.23601085 2:0.39217693 3:0.51808496 
1.0 1:0.37170395 2:0.48498211 3:0.58630069 
1.0 1:0.34955636 2:0.36721381 3:0.39368822 
1.0 1:0.33227559 2:0.46161377 3:0.69683453 
1.0 1:0.29977068 2:0.42759021 3:0.30790176 
1.0 1:0.30037745 2:0.47697194 3:0.60795684 
1.0 1:0.50409165 2:0.53044918 3:0.68576242 
1.0 1:0.21454993 2:0.39144387 3:0.28997823 
1.0 1:0.3099324 2:0.43262068 3:0.60040844 
1.0 1:0.19632993 2:0.36129067 3:0.24385109 
1.0 1:0.24896209 2:0.42759021 3:0.61067183 
1.0 1:0.34549841 2:0.40243784 3:0.6568571 
1.0 1:0.25459174 2:0.40920365 3:0.3978469 
1.0 1:0.30635571 2:0.40529609 3:0.22519776 
1.0 1:0.19217746 2:0.35803349 3:0.23932724 
1.0 1:0.29311928 2:0.4232738 3:0.31684786 
1.0 1:0.49688092 2:0.47755102 3:0.64192853 
1.0 1:0.10403276 2:0.39347646 3:0.61515586 
1.0 1:0.27129204 2:0.43158511 3:0.36086463 
1.0 1:0.42234292 2:0.45174488 3:0.61329756 
1.0 1:0.40689135 2:0.48153026 3:0.42729748 
1.0 1:0.45953357 2:0.49214525 3:0.53362077 
1.0 1:0.51936716 2:0.50518969 3:0.40308173 
1.0 1:0.29468982 2:0.38231595 3:0.30790176 
1.0 1:0.3123438 2:0.45538361 3:0.65002461 
1.0 1:0.4378978 2:0.53044918 3:0.71717139 
1.0 1:0.34588548 2:0.45354562 3:0.35248344 
1.0 1:0.13598654 2:0.32672379 3:0.18938453 
1.0 1:0.33659675 2:0.43510204 3:0.27587011 
1.0 1:0.44210555 2:0.47572449 3:0.25060044 
1.0 1:0.41753046 2:0.52034538 3:0.69099725 
1.0 1:0.32890963 2:0.41673838 3:0.25324725 
1.0 1:0.19309979 2:0.41867537 3:0.50222522 
1.0 1:0.72662156 2:0.63673469 3:0.70559086 
1.0 1:0.2842858 2:0.41867537 3:0.54980445 
1.0 1:0.14875502 2:0.40613668 3:0.63402589 
1.0 1:0.54543509 2:0.52701069 3:0.72114395 
1.0 1:0.28923127 2:0.41968591 3:0.53378853 
1.0 1:0.2714328 2:0.37092607 3:0.30457581 
1.0 1:0.2216077 2:0.39107847 3:0.29175455 
1.0 1:0.26714028 2:0.44571429 3:0.64192853 
1.0 1:0.29715578 2:0.47028424 3:0.5476796 
1.0 1:0.29501357 2:0.42927475 3:0.56037761 
1.0 1:0.22974064 2:0.38204082 3:0.2864805 
1.0 1:0.27645933 2:0.45994833 3:0.58884656 
1.0 1:0.16795872 2:0.41412965 3:0.60212521 
1.0 1:0.42494502 2:0.43907076 3:0.59236801 
1.0 1:0.24440807 2:0.35868468 3:0.22509759 
1.0 1:0.18960227 2:0.32861955 3:0.49296298 
1.0 1:0.49884112 2:0.36567849 3:0.44935941 
1.0 1:0.20639813 2:0.35634149 3:0.19304878 
1.0 1:0.26693655 2:0.39107847 3:0.21497704 
1.0 1:0.40023892 2:0.46802048 3:0.60215921 
1.0 1:0.49390798 2:0.490034 3:0.65435345 
1.0 1:0.30888777 2:0.45136762 3:0.60386001 
1.0 1:0.41012136 2:0.51627002 3:0.5825768 
1.0 1:0.29977068 2:0.4477121 3:0.6517254 
1.0 1:0.42793069 2:0.51563241 3:0.56924511 
1.0 1:0.31623816 2:0.41977095 3:0.62663723 
1.0 1:0.2420746 2:0.43188797 3:0.5680543 
1.0 1:0.50896583 2:0.53387798 3:0.5102756 
1.0 1:0.23064697 2:0.36567849 3:0.44407283 
1.0 1:0.32407272 2:0.41200271 3:0.29297231 
1.0 1:0.27204138 2:0.45538361 3:0.52306668 
1.0 1:0.26698615 2:0.41267375 3:0.54512877 
1.0 1:0.27689633 2:0.45179221 3:0.59378154 
1.0 1:0.34665095 2:0.38744572 3:0.14534825 
1.0 1:0.37399639 2:0.37142857 3:0.50929866 
1.0 1:0.30041826 2:0.48498211 3:0.65435345 
1.0 1:0.28694374 2:0.33159555 3:0.16764762 
1.0 1:0.30037745 2:0.40807599 3:0.63438975 
1.0 1:0.24673862 2:0.39217693 3:0.32776804 
1.0 1:0.2842858 2:0.46107287 3:0.70311531 
1.0 1:0.50032429 2:0.55616209 3:0.70410637 
1.0 1:0.37547181 2:0.47697194 3:0.53394471 
1.0 1:0.34342035 2:0.478302 3:0.6306353 
1.0 1:0.18165539 2:0.41918367 3:0.59418178 
1.0 1:0.23168078 2:0.38117775 3:0.23033254 
1.0 1:0.29919711 2:0.45632653 3:0.63662333 
1.0 1:0.4378978 2:0.40415176 3:0.55489173 
1.0 1:0.36245525 2:0.46522361 3:0.67567072 
1.0 1:0.36331078 2:0.3077551 3:0.43502594 
1.0 1:0.30551009 2:0.37384037 3:0.20415828 
1.0 1:0.18699819 2:0.41387755 3:0.59418178 
1.0 1:0.40198244 2:0.42933386 3:0.56838593 
1.0 1:0.2844034 2:0.430105 3:0.55095863 
1.0 1:0.25968358 2:0.40415176 3:0.27221104 
1.0 1:0.33225065 2:0.49986792 3:0.67567072 
1.0 1:0.25691121 2:0.46180157 3:0.71548151 
1.0 1:0.3920696 2:0.45005697 3:0.6396092 
1.0 1:0.32117938 2:0.40529609 3:0.57278559 
1.0 1:0.39769396 2:0.42068092 3:0.28957316 
1.0 1:0.35238705 2:0.40088417 3:0.23877086 
1.0 1:0.41154958 2:0.42255974 3:0.29250668 
1.0 1:0.40964142 2:0.49726873 3:0.6721531 
1.0 1:0.31226539 2:0.48513532 3:0.67564212 
1.0 1:0.47032904 2:0.53705023 3:0.56521965 
1.0 1:0.24020902 2:0.36662218 3:0.20264194 
1.0 1:0.30635571 2:0.41977095 3:0.31821422 
1.0 1:0.26477541 2:0.39909986 3:0.25127173 
1.0 1:0.19204367 2:0.41343022 3:0.59346108 
1.0 1:0.30041826 2:0.42435934 3:0.28268069 
1.0 1:0.27944725 2:0.45274258 3:0.67738388 
1.0 1:0.24042625 2:0.42979592 3:0.62070775 
1.0 1:0.39630701 2:0.48292541 3:0.61580353 
1.0 1:0.3287246 2:0.46245992 3:0.39718138 
1.0 1:0.43276725 2:0.51469388 3:0.59418178 
1.0 1:0.24042625 2:0.40326531 3:0.30770128 
1.0 1:0.3022682 2:0.35638717 3:0.17266279 
1.0 1:0.64477047 2:0.44916465 3:0.56708888 
1.0 1:0.24965248 2:0.39099206 3:0.57579902 
1.0 1:0.36775964 2:0.46528325 3:0.62463303 
1.0 1:0.3486524 2:0.4027763 3:0.24318274 
1.0 1:0.33927017 2:0.47616804 3:0.50744539 
1.0 1:0.3123438 2:0.33658789 3:0.16250615 
1.0 1:0.38614529 2:0.45274258 3:0.61067183 
1.0 1:0.31060193 2:0.44961883 3:0.67005794 
1.0 1:0.41848297 2:0.51699839 3:0.59800742 
1.0 1:0.3952977 2:0.4245959 3:0.54341197 
1.0 1:0.69419011 2:0.61403998 3:0.82278168 
1.0 1:0.24175385 2:0.37622739 3:0.19450304 
1.0 1:0.39292302 2:0.47653992 3:0.67654374 
1.0 1:0.23064697 2:0.33918005 3:0.42821308 
1.0 1:0.41441002 2:0.45280453 3:0.21123191 
1.0 1:0.44802294 2:0.43485846 3:0.60797421 
1.0 1:0.42244164 2:0.49396187 3:0.57150868 
1.0 1:0.26477541 2:0.38899606 3:0.29315035 
1.0 1:0.28923127 2:0.46792567 3:0.57332842 
1.0 1:0.52029666 2:0.56706664 3:0.57623736 
1.0 1:0.42208164 2:0.46163265 3:0.65253891 
1.0 1:0.25692797 2:0.39598575 3:0.25391586 
1.0 1:0.18773591 2:0.32328098 3:0.5920971 
1.0 1:0.24124312 2:0.38654085 3:0.23920297 
1.0 1:0.51490824 2:0.43610653 3:0.62047308 
1.0 1:0.32117938 2:0.46802048 3:0.66090646 
1.0 1:0.23676131 2:0.33406922 3:0.58893376 
1.0 1:0.27892192 2:0.43987412 3:0.41235334 
1.0 1:0.4578696 2:0.48800783 3:0.60797421 
1.0 1:0.45813756 2:0.53527555 3:0.65266896 
1.0 1:0.40765511 2:0.37627786 3:0.58681052 
1.0 1:0.40605322 2:0.49877551 3:0.60479216 
1.0 1:0.3691434 2:0.4395052 3:0.32334015 
1.0 1:0.30661853 2:0.46489401 3:0.63453294 
1.0 1:0.16710322 2:0.41664704 3:0.58356219 
1.0 1:0.32726105 2:0.4399814 3:0.33879246 
1.0 1:0.27129204 2:0.38254134 3:0.21050437 
1.0 1:0.2694348 2:0.46393348 3:0.65728398 
1.0 1:0.34193956 2:0.45102041 3:0.67906489 
1.0 1:0.27645933 2:0.44016561 3:0.38071976 
1.0 1:0.27495908 2:0.42941124 3:0.59153552 
1.0 1:0.31226539 2:0.47028424 3:0.5630351 
1.0 1:0.42262229 2:0.53044918 3:0.67529276 
1.0 1:0.30041826 2:0.47487831 3:0.60724 
1.0 1:0.26698615 2:0.42741209 3:0.35530714 
1.0 1:0.19118677 2:0.40039001 3:0.58321339 
1.0 1:0.59784728 2:0.57381202 3:0.60144105 
1.0 1:0.34735295 2:0.41573173 3:0.30989409 
1.0 1:0.35881843 2:0.48233526 3:0.53813844 
1.0 1:0.22647313 2:0.44452198 3:0.57807384 
1.0 1:0.20302661 2:0.40857143 3:0.572961 
1.0 1:0.12822733 2:0.37673469 3:0.40849997 
1.0 1:0.25459174 2:0.39404796 3:0.29315035 
1.0 1:0.37397977 2:0.51678778 3:0.63369573 
1.0 1:0.48362912 2:0.53953058 3:0.63986798 
1.0 1:0.30041826 2:0.46477452 3:0.58106587 
1.0 1:0.28164961 2:0.4245959 3:0.5825768 
1.0 1:0.19244045 2:0.43109381 3:0.62543686 
1.0 1:0.35446137 2:0.47616804 3:0.67490236 
1.0 1:0.25200228 2:0.45354562 3:0.62663723 
1.0 1:0.19340701 2:0.36423451 3:0.26024056 
1.0 1:0.21657116 2:0.38612811 3:0.28663605 
1.0 1:0.3261206 2:0.43907076 3:0.64621965 
1.0 1:0.33335129 2:0.3810941 3:0.23229686 
1.0 1:0.35376465 2:0.4675699 3:0.38222917 
1.0 1:0.26283027 2:0.36567849 3:0.56037761 
1.0 1:0.41413127 2:0.43977028 3:0.61378724 
1.0 1:0.26444527 2:0.42527236 3:0.53162675 
1.0 1:0.49370472 2:0.49993201 3:0.69065115 
1.0 1:0.34945575 2:0.42018629 3:0.25369766 
1.0 1:0.23752769 2:0.43803917 3:0.57334376 
1.0 1:0.43447453 2:0.41867537 3:0.48636548 
1.0 1:0.32745721 2:0.38608611 3:0.25391586 
1.0 1:0.51473361 2:0.48722158 3:0.31631913 
1.0 1:0.18237202 2:0.29678254 3:0.17445718 
1.0 1:0.28190964 2:0.45037605 3:0.62486841 
1.0 1:0.29311928 2:0.40850844 3:0.25649589 
1.0 1:0.29531472 2:0.45882411 3:0.67155263 
1.0 1:0.70334974 2:0.63266453 3:0.41599673 
1.0 1:0.35566013 2:0.49298636 3:0.523433 
1.0 1:0.31738161 2:0.42073486 3:0.24883755 
1.0 1:0.29332349 2:0.44256917 3:0.59577206 
1.0 1:0.26177324 2:0.40088417 3:0.26925224 
1.0 1:0.36693693 2:0.44016561 3:0.5837703 
1.0 1:0.21662554 2:0.37618646 3:0.22852428 
1.0 1:0.0961705 2:0.3555102 3:0.52521425 
1.0 1:0.23064697 2:0.37627786 3:0.48636548 
1.0 1:0.36053664 2:0.50635141 3:0.5680543 
1.0 1:0.26602985 2:0.44041669 3:0.4767007 
1.0 1:0.36276464 2:0.44380579 3:0.24712432 
1.0 1:0.25673914 2:0.44047767 3:0.63502887 
1.0 1:0.28547089 2:0.47814302 3:0.65165477 
1.0 1:0.26819415 2:0.4027763 3:0.54451787 
1.0 1:0.23921394 2:0.3991611 3:0.31126812 
1.0 1:0.16562697 2:0.36081633 3:0.51460386 
1.0 1:0.28894876 2:0.43283686 3:0.32828359 
1.0 1:0.19309979 2:0.42927475 3:0.53923129 
1.0 1:0.29126122 2:0.43610653 3:0.34250114 
1.0 1:0.22235495 2:0.37634637 3:0.23009336 
1.0 1:0.18773591 2:0.3603788 3:0.26961564 
1.0 1:0.3775859 2:0.45179221 3:0.72627824 
1.0 1:0.22655154 2:0.40268436 3:0.31406627 
1.0 1:0.37364064 2:0.42802756 3:0.25968702 
1.0 1:0.23450807 2:0.37694595 3:0.28997823 
1.0 1:0.2626767 2:0.43188797 3:0.60827053 
1.0 1:0.37059159 2:0.47767039 3:0.60215921 
1.0 1:0.29505128 2:0.3883244 3:0.20359092 
1.0 1:0.48881615 2:0.48498211 3:0.30362 
1.0 1:0.22974064 2:0.37142857 3:0.2811753 
1.0 1:0.45337272 2:0.52566775 3:0.61813708 
1.0 1:0.2842858 2:0.44517381 3:0.68725556 
1.0 1:0.38188762 2:0.41425555 3:0.15704483 
1.0 1:0.44298963 2:0.43951503 3:0.51824794 
1.0 1:0.28606013 2:0.38096662 3:0.51126982 
1.0 1:0.15268975 2:0.40415062 3:0.50007009 
1.0 1:0.31016973 2:0.46384902 3:0.64285798 
1.0 1:0.48041804 2:0.53063736 3:0.66229317 
1.0 1:0.12873319 2:0.39747662 3:0.53923129 
1.0 1:0.27184144 2:0.35634149 3:0.25401155 
1.0 1:0.15555261 2:0.35507911 3:0.29604855 
1.0 1:0.43228186 2:0.48962242 3:0.59899909 
1.0 1:0.30828062 2:0.37897771 3:0.14082127 
1.0 1:0.31164507 2:0.47478537 3:0.54823646 
1.0 1:0.28204616 2:0.42078063 3:0.29175455 
1.0 1:0.3317512 2:0.41049152 3:0.24873691 
1.0 1:0.32233847 2:0.41087991 3:0.19450304 
1.0 1:0.33993455 2:0.42195951 3:0.64345973 
1.0 1:0.2342244 2:0.44456693 3:0.59153552 
1.0 1:0.45839659 2:0.46167334 3:0.70881111 
1.0 1:0.40659706 2:0.51734077 3:0.71146416 
1.0 1:0.36568716 2:0.48649449 3:0.72891923 
1.0 1:0.28085904 2:0.38597934 3:0.23826166 
1.0 1:0.16123389 2:0.39600478 3:0.63536443 
1.0 1:0.3566988 2:0.47082012 3:0.50621288 
1.0 1:0.85484889 2:0.60489796 3:0.61540255 
1.0 1:0.19131019 2:0.36830886 3:0.58887425 
1.0 1:0.42494502 2:0.38599627 3:0.1468681 
1.0 1:0.25108978 2:0.4541855 3:0.68272514 
1.0 1:0.27993121 2:0.3991611 3:0.29595985 
1.0 1:0.40229123 2:0.38157755 3:0.61853001 
1.0 1:0.2340492 2:0.42608109 3:0.60061794 
1.0 1:0.27941387 2:0.38661123 3:0.22231664 
1.0 1:0.17194825 2:0.41770573 3:0.55503551 
1.0 1:0.29532642 2:0.47487831 3:0.61770966 
1.0 1:0.3664554 2:0.37920305 3:0.27044607 
1.0 1:0.35642844 2:0.45467072 3:0.59677035 
1.0 1:0.39172156 2:0.45448629 3:0.24683451 
1.0 1:0.23064697 2:0.42397506 3:0.64496291 
1.0 1:0.43293266 2:0.42068092 3:0.58930679 
1.0 1:0.2342244 2:0.36878848 3:0.28268069 
1.0 1:0.33478637 2:0.46384902 3:0.36877124 
1.0 1:0.3965903 2:0.51627987 3:0.65854082 
1.0 1:0.57929937 2:0.5829657 3:0.55509103 
1.0 1:0.43169074 2:0.50127187 3:0.62543686 
1.0 1:1.15323486 2:0.80025292 3:0.79827377 
1.0 1:0.31623816 2:0.42942085 3:0.27904939 
1.0 1:0.24949991 2:0.34352899 3:0.18845379 
1.0 1:0.31738161 2:0.43558432 3:0.60431976 
1.0 1:0.30041826 2:0.40920365 3:0.61770966 
1.0 1:0.18237202 2:0.41867537 3:0.57095078 
1.0 1:0.22528309 2:0.39217693 3:0.47050573 
1.0 1:0.57220193 2:0.56544955 3:0.50744539 
1.0 1:0.3139515 2:0.44144746 3:0.36536068 
1.0 1:0.23530679 2:0.43898182 3:0.6178108 
1.0 1:0.43280596 2:0.31321761 3:0.47636931 
1.0 1:0.18165539 2:0.36612245 3:0.53582464 
1.0 1:0.39207129 2:0.38899606 3:0.52871759 
1.0 1:0.31730193 2:0.43068135 3:0.32246556 
1.0 1:0.28514275 2:0.28290623 3:0.11516621 
1.0 1:0.2865124 2:0.36598039 3:0.16244043 
1.0 1:0.41838288 2:0.44517381 3:0.44407283 
1.0 1:0.28452811 2:0.40243784 3:0.23605802 
1.0 1:0.43262095 2:0.45404576 3:0.45414529 
1.0 1:0.40003498 2:0.45632771 3:0.63938119 
1.0 1:0.28964968 2:0.4504735 3:0.60267026 
1.0 1:0.54459344 2:0.55383603 3:0.47965907 
1.0 1:0.36070915 2:0.45354562 3:0.56299439 
1.0 1:0.39207129 2:0.44456693 3:0.61770966 
1.0 1:0.36269817 2:0.40776096 3:0.67654374 
1.0 1:0.50918349 2:0.44456693 3:0.58630069 
1.0 1:0.34926733 2:0.5025946 3:0.67178289 
1.0 1:0.27782589 2:0.40857143 3:0.25464933 
1.0 1:0.25692797 2:0.38113628 3:0.20313269 
1.0 1:0.26283027 2:0.37627786 3:0.31190829 
1.0 1:0.83676576 2:0.69955884 3:0.78241403 
1.0 1:0.33659675 2:0.49877551 3:0.60479216 
1.0 1:0.17850603 2:0.39646676 3:0.55658761 
1.0 1:0.36766732 2:0.51483748 3:0.69099763 
1.0 1:0.25404295 2:0.40746832 3:0.38487721 
1.0 1:0.27670839 2:0.42942085 3:0.59726361 
1.0 1:0.40806207 2:0.49003236 3:0.61447639 
1.0 1:0.38047403 2:0.39082123 3:0.21540655 
1.0 1:0.31479989 2:0.4408772 3:0.51552256 
1.0 1:0.23412428 2:0.37920305 3:0.26534331 
1.0 1:0.29919711 2:0.42979592 3:0.40849997 
1.0 1:0.23064697 2:0.41867537 3:0.50222522 
1.0 1:0.5074166 2:0.50024637 3:0.53628494 
1.0 1:0.30032307 2:0.40103614 3:0.22425278 
1.0 1:0.17631258 2:0.39795918 3:0.52521425 
1.0 1:0.49899982 2:0.51024159 3:0.69099725 
1.0 1:0.25459174 2:0.36878848 3:0.2460369 
1.0 1:0.21455532 2:0.42397506 3:0.56037761 
1.0 1:0.41469873 2:0.52710485 3:0.56012758 
1.0 1:0.25825043 2:0.42656721 3:0.53789211 
1.0 1:0.28715479 2:0.44548397 3:0.54337995 
1.0 1:0.29532642 2:0.47993021 3:0.59677035 
1.0 1:0.22178113 2:0.42509885 3:0.50977322 
1.0 1:0.20649808 2:0.37622739 3:0.26616205 
1.0 1:0.2460956 2:0.37671874 3:0.27359551 
1.0 1:0.23660273 2:0.35634149 3:0.26925224 
1.0 1:0.18773591 2:0.39747662 3:0.39649359 
1.0 1:0.29751005 2:0.48349605 3:0.65338546 
1.0 1:0.43817886 2:0.4999864 3:0.66540512 
1.0 1:0.24114848 2:0.4119676 3:0.36086463 
1.0 1:0.36924968 2:0.48800783 3:0.61794101 
1.0 1:0.34193956 2:0.47755102 3:0.6631493 
1.0 1:0.87087731 2:0.70040816 3:0.73211683 
1.0 1:0.18842303 2:0.36262204 3:0.58078707 
0.49752261162278244 1:0.31213768 2:0.49107848 3:0.71155639 
1.0 1:0.32587743 2:0.36373658 3:0.16227966 
1.0 1:0.14425575 2:0.3555102 3:0.54112983 
1.0 1:0.33753282 2:0.45043379 3:0.34024726 
1.0 1:0.27355804 2:0.39747662 3:0.62910317 
1.0 1:0.48372431 2:0.5001378 3:0.37690759 
1.0 1:0.55919617 2:0.48013272 3:0.66018125 
1.0 1:0.43276725 2:0.43510204 3:0.36075322 
1.0 1:0.43548111 2:0.49104829 3:0.715498 
1.0 1:0.25746639 2:0.38157755 3:0.43349966 
1.0 1:0.46336155 2:0.45543316 3:0.65516812 
1.0 1:0.26698615 2:0.41758653 3:0.34070548 
1.0 1:0.30551009 2:0.47993021 3:0.59677035 
1.0 1:0.32844907 2:0.32320639 3:0.19275697 
1.0 1:0.26472014 2:0.32320639 3:0.10379221 
1.0 1:0.37967981 2:0.46618284 3:0.5807628 
1.0 1:0.26179747 2:0.44571429 3:0.73211683 
1.0 1:0.43779449 2:0.49642295 3:0.3971353 
1.0 1:0.3068645 2:0.48623371 3:0.66018336 
1.0 1:0.26698615 2:0.41267375 3:0.54999599 
1.0 1:0.25957257 2:0.46402478 3:0.59702246 
1.0 1:0.18026832 2:0.31274646 3:0.33681095 
1.0 1:0.30574133 2:0.39747662 3:0.25904248 
1.0 1:0.23717862 2:0.37634637 3:0.20561534 
1.0 1:0.22151706 2:0.37813043 3:0.28462256 
1.0 1:0.30708014 2:0.42068092 3:0.24893132 
1.0 1:0.30032307 2:0.41553142 3:0.26910334 
1.0 1:0.47224911 2:0.52476825 3:0.39594869 
1.0 1:0.40509871 2:0.49600838 3:0.55311547 
1.0 1:0.27570642 2:0.39137261 3:0.2043192 
1.0 1:0.22640795 2:0.39120792 3:0.43277836 
1.0 1:0.33660309 2:0.43158511 3:0.24558843 
1.0 1:0.13409708 2:0.3603788 3:0.58152394 
1.0 1:0.22668636 2:0.44706322 3:0.60840264 
1.0 1:1.1598438 2:0.79702227 3:0.97290179 
1.0 1:0.06945647 2:0.3555102 3:0.41911036 
1.0 1:0.31110522 2:0.34447973 3:0.12687795 
1.0 1:0.2885115 2:0.40857143 3:0.3766688 
0.2036186068091493 1:0.27795794 2:0.44788274 3:0.40737583 
1.0 1:0.29023459 2:0.44456693 3:0.55489173 
1.0 1:0.35296019 2:0.45345374 3:0.56838593 
1.0 1:0.28005092 2:0.44456693 3:0.5496569 
1.0 1:0.26682737 2:0.40759514 3:0.27971527 
1.0 1:0.90293414 2:0.71632653 3:0.84352591 
1.0 1:0.27670839 2:0.35704655 3:0.12728569 
1.0 1:0.39788655 2:0.45543316 3:0.5681536 
1.0 1:0.35262517 2:0.44040816 3:0.24934414 
1.0 1:0.43293266 2:0.51471548 3:0.65026956 
1.0 1:0.25593942 2:0.39603765 3:0.57703781 
1.0 1:0.36661211 2:0.46477452 3:0.3402638 
1.0 1:0.42820634 2:0.4395052 3:0.33826355 
1.0 1:0.23263587 2:0.39781498 3:0.28515586 
1.0 1:0.02681942 2:0.32328098 3:0.58152394 
1.0 1:0.31016973 2:0.35755029 3:0.15448525 
1.0 1:0.2569435 2:0.44872067 3:0.56299439 
1.0 1:0.31016973 2:0.46868079 3:0.67275835 
1.0 1:0.37170395 2:0.43951503 3:0.26697621 
1.0 1:0.21225879 2:0.43311738 3:0.60854907 
1.0 1:0.3261206 2:0.44389571 3:0.56299439 
1.0 1:0.47756291 2:0.51699839 3:0.34883766 
1.0 1:0.48619531 2:0.53061224 3:0.41911036 
1.0 1:0.40225496 2:0.45972262 3:0.37167276 
1.0 1:0.29539974 2:0.45901726 3:0.66279156 
1.0 1:0.31110522 2:0.38687724 3:0.41235334 
1.0 1:0.49906334 2:0.53074488 3:0.40633508 
1.0 1:0.31110522 2:0.41337568 3:0.26961564 
1.0 1:0.47343463 2:0.46038352 3:0.32246556 
1.0 1:0.23508344 2:0.4244898 3:0.59418178 
1.0 1:0.35793106 2:0.478302 3:0.46676944 
1.0 1:0.39867487 2:0.39120792 3:0.2337998 
1.0 1:0.28211698 2:0.39103593 3:0.26915082 
1.0 1:0.2288481 2:0.37094118 3:0.22833409 
1.0 1:0.35642844 2:0.42941124 3:0.32455931 
1.0 1:0.24137474 2:0.42927475 3:0.54451787 
1.0 1:0.31110522 2:0.4027763 3:0.20089009 
1.0 1:0.40935624 2:0.49710063 3:0.63369573 
1.0 1:0.22974064 2:0.42979592 3:0.49868828 
1.0 1:0.53400715 2:0.50983165 3:0.68049452 
1.0 1:0.31060193 2:0.40415176 3:0.58630069 
1.0 1:0.43312825 2:0.52644029 3:0.50739532 
1.0 1:0.27993121 2:0.45903527 3:0.69907758 
1.0 1:0.35838757 2:0.44561781 3:0.28254602 
1.0 1:0.18773591 2:0.39747662 3:0.52865813 
1.0 1:0.30661853 2:0.42038288 3:0.60407536 
1.0 1:0.42234292 2:0.41203105 3:0.517784 
1.0 1:0.45297959 2:0.45404576 3:0.26024056 
1.0 1:0.48619531 2:0.56244898 3:0.68437008 
1.0 1:0.47823957 2:0.41078255 3:0.53342425 
1.0 1:0.32056833 2:0.39795918 3:0.22281817 
1.0 1:0.26962237 2:0.3617982 3:0.31631913 
1.0 1:0.25912381 2:0.42255974 3:0.60040844 
1.0 1:0.22280429 2:0.38192645 3:0.34506286 
1.0 1:0.31734405 2:0.46899117 3:0.61950621 
1.0 1:0.46586352 2:0.54064913 3:0.65460455 
1.0 1:0.44712948 2:0.53948138 3:0.64654913 
1.0 1:0.30028984 2:0.42909819 3:0.34188466 
1.0 1:0.20919144 2:0.42397506 3:0.66610924 
1.0 1:0.41139603 2:0.45102041 3:0.50929866 
1.0 1:0.05034479 2:0.34375494 3:0.52017226 
1.0 1:0.2342244 2:0.36373658 3:0.19368862 
1.0 1:0.20734936 2:0.37295155 3:0.29534 
1.0 1:0.40229123 2:0.48757132 3:0.43349966 
1.0 1:0.23158602 2:0.38304122 3:0.2699007 
1.0 1:0.20302661 2:0.37673469 3:0.26525972 
1.0 1:0.42494502 2:0.37634637 3:0.1517637 
1.0 1:0.22664424 2:0.39107847 3:0.26616205 
1.0 1:0.2987603 2:0.40672687 3:0.28416942 
1.0 1:0.37256909 2:0.43898182 3:0.59309836 
1.0 1:0.18216317 2:0.34788677 3:0.2093026 
1.0 1:0.36661211 2:0.51024159 3:0.69623207 
1.0 1:0.29703424 2:0.47143534 3:0.68701996 
1.0 1:0.33860331 2:0.49710063 3:0.68398904 
1.0 1:0.23412486 2:0.37455647 3:0.22522329 
1.0 1:0.40359678 2:0.46848356 3:0.36811033 
1.0 1:0.24258147 2:0.34452519 3:0.12070395 
1.0 1:0.3375108 2:0.38810983 3:0.46238601 
1.0 1:0.32056833 2:0.40857143 3:0.32361686 
1.0 1:0.3566988 2:0.45610699 3:0.58640502 
1.0 1:0.21153462 2:0.35147559 3:0.26104355 
1.0 1:0.37747131 2:0.39556603 3:0.4349388 
1.0 1:0.53571261 2:0.58648809 3:0.63536443 
1.0 1:0.48532026 2:0.48722158 3:0.56344345 
1.0 1:0.48532026 2:0.52098941 3:0.67712063 
1.0 1:0.25111186 2:0.39265306 3:0.29178569 
1.0 1:0.5397345 2:0.45467072 3:0.61247483 
1.0 1:0.35881843 2:0.50202241 3:0.66890105 
1.0 1:0.37598357 2:0.4477121 3:0.24632141 
1.0 1:0.30453992 2:0.3555102 3:0.49868828 
1.0 1:0.41307292 2:0.50601662 3:0.71061429 
1.0 1:0.36922547 2:0.37211331 3:0.23198258 
1.0 1:0.2707831 2:0.45901726 3:0.5232565 
1.0 1:0.24812296 2:0.43152729 3:0.53789211 
1.0 1:0.1511341 2:0.41083521 3:0.62463303 
1.0 1:0.22439783 2:0.37142857 3:0.57826619 
1.0 1:0.26466223 2:0.40914013 3:0.54089214 
1.0 1:0.40302426 2:0.4306345 3:0.57384985 
1.0 1:0.23304954 2:0.38196188 3:0.61950621 
1.0 1:0.18773591 2:0.31798129 3:0.28547539 
1.0 1:0.40430246 2:0.48725705 3:0.33696519 
1.0 1:0.30635571 2:0.48249534 3:0.59236801 
1.0 1:0.43280596 2:0.5001378 3:0.34549862 
1.0 1:0.23139646 2:0.35271853 3:0.16943544 
1.0 1:0.27570642 2:0.41069966 3:0.6229244 
1.0 1:0.42703377 2:0.53948138 3:0.75681332 
1.0 1:0.32785036 2:0.48650202 3:0.53946875 
1.0 1:0.29357984 2:0.39713836 3:0.43232451 
1.0 1:0.32573813 2:0.49396187 3:0.60212521 
1.0 1:0.24706106 2:0.43424581 3:0.56788999 
1.0 1:0.18699819 2:0.4244898 3:0.64192853 
1.0 1:0.41355964 2:0.52666191 3:0.69269193 
1.0 1:0.40225496 2:0.490034 3:0.39261207 
1.0 1:0.43967892 2:0.5069442 3:0.59346108 
1.0 1:0.28005092 2:0.39909986 3:0.28791552 
1.0 1:0.34508507 2:0.44181642 3:0.38205422 
1.0 1:0.40568528 2:0.49124643 3:0.53112496 
1.0 1:0.29903572 2:0.43415784 3:0.53378853 
1.0 1:1.22296533 2:0.83205105 3:0.85113958 
1.0 1:0.41735198 2:0.51391992 3:0.68376931 
1.0 1:0.21741373 2:0.40047113 3:0.56788999 
1.0 1:0.29531472 2:0.44916465 3:0.54719103 
1.0 1:0.32737501 2:0.42078063 3:0.29687305 
1.0 1:0.23931624 2:0.30816571 3:0.13087069 
1.0 1:0.33221955 2:0.49316597 3:0.6872647 
1.0 1:0.25172393 2:0.45670299 3:0.66739082 
1.0 1:0.32719687 2:0.42927475 3:0.36477411 
1.0 1:0.37090271 2:0.49801683 3:0.67738388 
1.0 1:0.26177324 2:0.37613824 3:0.2133697 
1.0 1:0.22809104 2:0.3916318 3:0.59530675 
1.0 1:0.34728236 2:0.43510204 3:0.4721623 
1.0 1:0.44054485 2:0.53072896 3:0.48207312 
1.0 1:0.30028984 2:0.43907721 3:0.53068663 
1.0 1:0.28204616 2:0.47028424 3:0.69611613 
1.0 1:0.20804373 2:0.42608109 3:0.70485742 
1.0 1:0.30453992 2:0.48285714 3:0.72150644 
1.0 1:0.48372431 2:0.47487831 3:0.7014669 
1.0 1:0.24163683 2:0.38108742 3:0.24893132 
1.0 1:0.33157917 2:0.46591574 3:0.4560928 
1.0 1:0.27942682 2:0.40521398 3:0.55850096 
1.0 1:0.25945573 2:0.40110916 3:0.62828615 
1.0 1:0.53950378 2:0.40415062 3:0.209213 
1.0 1:0.31110522 2:0.4027763 3:0.5920971 
1.0 1:0.47727304 2:0.54438576 3:0.63652511 
1.0 1:0.32591114 2:0.45102041 3:0.36605842 
1.0 1:0.26680734 2:0.46027442 3:0.65026956 
1.0 1:0.28005092 2:0.34858089 3:0.17798414 
1.0 1:0.38941222 2:0.44754186 3:0.42264172 
1.0 1:0.36331078 2:0.40857143 3:0.48807789 
1.0 1:0.30485154 2:0.42759021 3:0.32842855 
1.0 1:0.27355804 2:0.32328098 3:0.28018881 
1.0 1:0.31226539 2:0.42078063 3:0.33270256 
1.0 1:0.40174083 2:0.46167334 3:0.26140552 
1.0 1:0.37010793 2:0.39217693 3:0.49165206 
1.0 1:0.30037745 2:0.37627786 3:0.2537559 
1.0 1:0.41243863 2:0.41425555 3:0.26697621 
1.0 1:0.27892192 2:0.4027763 3:0.63438975 
1.0 1:0.30382403 2:0.47120796 3:0.58356219 
1.0 1:0.46447479 2:0.53556983 3:0.5825768 
1.0 1:0.26525576 2:0.46117012 3:0.59565416 
1.0 1:0.2842858 2:0.35507911 3:0.23260958 
1.0 1:0.12288453 2:0.30244898 3:0.44563633 
1.0 1:0.4378978 2:0.490034 3:0.65435345 
1.0 1:0.23601085 2:0.35507911 3:0.26961564 
1.0 1:0.40302426 2:0.46528325 3:0.48244014 
1.0 1:0.34805796 2:0.46792567 3:0.41516886 
1.0 1:0.28054898 2:0.40569711 3:0.24374873 
1.0 1:0.41217573 2:0.50445946 3:0.6396092 
1.0 1:0.27689633 2:0.42723828 3:0.32388084 
1.0 1:0.15606884 2:0.40268436 3:0.62322525 
1.0 1:0.37188756 2:0.43514644 3:0.24683451 
1.0 1:0.29501357 2:0.39217693 3:0.22203641 
1.0 1:0.38791085 2:0.48508254 3:0.63478966 
1.0 1:0.36152028 2:0.50518969 3:0.61770966 
1.0 1:0.23064697 2:0.38687724 3:0.24846932 
1.0 1:0.31569376 2:0.41930745 3:0.26174138 
1.0 1:0.27712739 2:0.41669408 3:0.57285053 
1.0 1:0.2036734 2:0.37384037 3:0.2460369 
1.0 1:0.26700357 2:0.46528325 3:0.56877154 
1.0 1:0.37010793 2:0.50877007 3:0.74540796 
1.0 1:0.2322374 2:0.37634637 3:0.23009336 
1.0 1:0.52053941 2:0.58077103 3:0.6286664 
1.0 1:0.27782589 2:0.41918367 3:0.31831167 
1.0 1:0.19142404 2:0.39302261 3:0.58406654 
1.0 1:0.26119294 2:0.42147404 3:0.54125392 
1.0 1:0.60789514 2:0.60323827 3:0.55132096 
1.0 1:0.18699819 2:0.41387755 3:0.51460386 
1.0 1:0.29153205 2:0.4245959 3:0.34269224 
1.0 1:0.19768381 2:0.33428571 3:0.26525972 
1.0 1:0.32056833 2:0.41918367 3:0.31300647 
1.0 1:0.47550969 2:0.44571429 3:0.41380517 
1.0 1:0.30041826 2:0.46982642 3:0.63341414 
1.0 1:0.46941601 2:0.54039478 3:0.63642844 
1.0 1:0.31726669 2:0.48122099 3:0.68500228 
1.0 1:0.32001639 2:0.46384902 3:0.61794101 
1.0 1:0.18156622 2:0.40264821 3:0.48961584 
1.0 1:0.46129394 2:0.48757132 3:0.65553608 
1.0 1:0.18206286 2:0.41273305 3:0.50411482 
1.0 1:0.43325295 2:0.48800783 3:0.67774175 
1.0 1:0.53102442 2:0.31798129 3:0.47050573 
1.0 1:0.61870213 2:0.53159045 3:0.30447714 
1.0 1:0.26975189 2:0.44905624 3:0.55620041 
1.0 1:0.33417219 2:0.42665535 3:0.23297654 
1.0 1:0.32517498 2:0.49298636 3:0.73383254 
1.0 1:0.28005092 2:0.42941124 3:0.62294449 
1.0 1:0.42374676 2:0.41867537 3:0.22732299 
1.0 1:0.25746639 2:0.38687724 3:0.27490223 
1.0 1:0.36693693 2:0.45500265 3:0.32488086 
1.0 1:0.35241351 2:0.4223275 3:0.27971527 
1.0 1:0.25746639 2:0.38157755 3:0.26432906 
1.0 1:0.27782589 2:0.4244898 3:0.42972075 
1.0 1:0.50400456 2:0.54039478 3:0.67069766 
1.0 1:0.28190545 2:0.38392038 3:0.2594964 
1.0 1:0.2199192 2:0.39217693 3:0.28018881 
1.0 1:0.19340701 2:0.40914013 3:0.61743348 
1.0 1:0.16689095 2:0.41273305 3:0.61104827 
1.0 1:0.24845904 2:0.42605799 3:0.47003121 
1.0 1:0.18628454 2:0.40039001 3:0.55355847 
1.0 1:0.42679216 2:0.50807778 3:0.47724774 
1.0 1:0.41813767 2:0.44053415 3:0.61447639 
1.0 1:0.29647327 2:0.43907076 3:0.59726361 
1.0 1:0.53434251 2:0.53546134 3:0.36574399 
1.0 1:0.23158602 2:0.39286279 3:0.30915898 
1.0 1:0.20876523 2:0.39404796 3:0.31932449 
1.0 1:0.32183298 2:0.4027763 3:0.39649359 
1.0 1:0.25746639 2:0.39217693 3:0.33305462 
1.0 1:0.5923102 2:0.55102947 3:0.55297321 
1.0 1:0.34248463 2:0.46533388 3:0.61933861 
1.0 1:0.23168078 2:0.34652523 3:0.22521404 
1.0 1:0.3525577 2:0.48018496 3:0.64493112 
1.0 1:0.31730193 2:0.41583027 3:0.27128055 
1.0 1:0.2627966 2:0.46264811 3:0.59849041 
1.0 1:0.34254827 2:0.42249931 3:0.65220763 
1.0 1:0.22664424 2:0.35147559 3:0.5425611 
1.0 1:0.21079567 2:0.31838242 3:0.18781448 
1.0 1:0.3164691 2:0.40807599 3:0.26961564 
1.0 1:0.23412428 2:0.42909819 3:0.56640592 
1.0 1:0.21371222 2:0.36081633 3:0.4721623 
1.0 1:0.30485154 2:0.42759021 3:0.59014505 
1.0 1:0.44789399 2:0.51678084 3:0.38800818 
1.0 1:0.46844881 2:0.38899606 3:0.25127173 
1.0 1:0.22757857 2:0.43759648 3:0.52957517 
1.0 1:0.26525576 2:0.41104293 3:0.49637846 
1.0 1:0.31717216 2:0.4861677 3:0.55452325 
1.0 1:0.36924968 2:0.45901726 3:0.29900371 
1.0 1:0.3360611 2:0.490034 3:0.61770966 
1.0 1:0.39878965 2:0.46384902 3:0.59302403 
1.0 1:0.24679039 2:0.41087991 3:0.35317656 
1.0 1:0.37775987 2:0.46932089 3:0.51552256 
1.0 1:0.41012136 2:0.46802048 3:0.60215921 
1.0 1:0.22252127 2:0.42765111 3:0.54994344 
1.0 1:0.40272806 2:0.38603661 3:0.26925224 
1.0 1:0.3123438 2:0.33163806 3:0.22852428 
1.0 1:0.25774282 2:0.46264811 3:0.64878372 
1.0 1:0.24679039 2:0.38117775 3:0.26616205 
1.0 1:0.55784384 2:0.56706664 3:0.65553608 
1.0 1:0.24020902 2:0.3810941 3:0.21252691 
1.0 1:0.39375296 2:0.49746193 3:0.66657816 
1.0 1:0.36152028 2:0.41930745 3:0.31932449 
1.0 1:0.27942682 2:0.4631017 3:0.5090761 
1.0 1:0.63905836 2:0.62380414 3:0.60539149 
1.0 1:0.22668636 2:0.42249931 3:0.67167652 
1.0 1:0.18628454 2:0.36662218 3:0.26195178 
1.0 1:0.20099122 2:0.37144615 3:0.5090761 
1.0 1:0.3941949 2:0.38882128 3:0.19614392 
1.0 1:0.30485154 2:0.46783399 3:0.75435932 
1.0 1:0.28209858 2:0.34389479 3:0.52079266 
1.0 1:0.33106182 2:0.3522216 3:0.17134612 
1.0 1:0.13946096 2:0.34977942 3:0.61853001 
1.0 1:0.28960897 2:0.41752926 3:0.27711159 
1.0 1:0.18776641 2:0.40529609 3:0.52382956 
1.0 1:0.37291679 2:0.44561781 3:0.50560867 
1.0 1:0.25645467 2:0.36612245 3:0.27587011 
1.0 1:0.35642844 2:0.48498211 3:0.59153552 
1.0 1:0.25111186 2:0.32897959 3:0.42972075 
1.0 1:0.42328443 2:0.4926322 3:0.37308479 
1.0 1:0.39207129 2:0.40920365 3:0.55489173 
1.0 1:0.20087041 2:0.42692374 3:0.65351379 
1.0 1:0.32302904 2:0.44399213 3:0.51967173 
1.0 1:0.30101768 2:0.39796625 3:0.23011944 
1.0 1:0.34248463 2:0.4752346 3:0.5527981 
1.0 1:0.39536761 2:0.50938776 3:0.76925319 
1.0 1:0.44788993 2:0.53886749 3:0.60722797 
1.0 1:0.62120386 2:0.44456693 3:0.5496569 
1.0 1:0.50918349 2:0.46982642 3:0.52871759 
1.0 1:0.18635193 2:0.38612811 3:0.62445711 
1.0 1:0.23931624 2:0.38394417 3:0.24080207 
1.0 1:0.30511374 2:0.41243351 3:0.44116835 
1.0 1:0.31650739 2:0.43648948 3:0.30072053 
1.0 1:0.25101751 2:0.3332512 3:0.14425945 
1.0 1:0.25318669 2:0.38688654 3:0.27909496 
1.0 1:0.25001347 2:0.39074206 3:0.28172172 
1.0 1:0.36136574 2:0.48897235 3:0.58681695 
1.0 1:0.42725533 2:0.44511129 3:0.60407536 
1.0 1:0.25318669 2:0.43152729 3:0.40595631 
1.0 1:0.36775964 2:0.49498219 3:0.6449463 
1.0 1:0.27186185 2:0.46161377 3:0.63303982 
1.0 1:0.37010793 2:0.42927475 3:0.35420094 
1.0 1:0.3360611 2:0.5001378 3:0.7014669 
1.0 1:0.31501326 2:0.41752926 3:0.3900089 
1.0 1:0.15867202 2:0.38679684 3:0.5614275 
1.0 1:0.38684236 2:0.50515075 3:0.46110481 
1.0 1:0.5923102 2:0.55102947 3:0.67362191 
1.0 1:0.62369167 2:0.49292932 3:0.70561368 
1.0 1:0.2694348 2:0.430105 3:0.61378724 
1.0 1:0.06945647 2:0.3555102 3:0.50399347 
1.0 1:0.4447327 2:0.4675699 3:0.26655455 
1.0 1:0.29501357 2:0.38687724 3:0.25904248 
1.0 1:0.3777404 2:0.43563171 3:0.29687305 
1.0 1:0.32844907 2:0.32320639 3:0.08402227 
1.0 1:0.29153893 2:0.47973105 3:0.71067689 
1.0 1:0.31338638 2:0.46760874 3:0.54936726 
1.0 1:0.4674676 2:0.39565448 3:0.24366065 
1.0 1:0.16689095 2:0.40278767 3:0.43282586 
1.0 1:0.33096927 2:0.38899606 3:0.28791552 
1.0 1:0.53055958 2:0.44965132 3:0.26135418 
1.0 1:0.42643107 2:0.44965132 3:0.65338546 
1.0 1:0.30988272 2:0.40857143 3:0.48277269 
1.0 1:0.33858344 2:0.45462368 3:0.4618038 
1.0 1:0.5086904 2:0.44553244 3:0.5476796 
1.0 1:0.47538634 2:0.5469956 3:0.62632448 
1.0 1:0.41753046 2:0.46982642 3:0.30885483 
1.0 1:0.43462514 2:0.47741347 3:0.27158388 
1.0 1:0.19646151 2:0.40284818 3:0.42831546 
1.0 1:0.2288481 2:0.41605565 3:0.3871752 
1.0 1:0.35264623 2:0.49993201 3:0.66018125 
1.0 1:0.34737903 2:0.43214907 3:0.62813254 
1.0 1:0.31226539 2:0.46038352 3:0.63469412 
1.0 1:0.35238705 2:0.49491873 3:0.6401091 
1.0 1:0.28960897 2:0.40746832 3:0.34382364 
1.0 1:0.28636382 2:0.3923501 3:0.30072053 
1.0 1:0.33744809 2:0.40592955 3:0.5681536 
1.0 1:0.43482746 2:0.44872067 3:0.55320318 
1.0 1:0.68501962 2:0.51627987 3:0.61329756 
1.0 1:0.21657116 2:0.35147559 3:0.24568804 
1.0 1:0.26190001 2:0.41087991 3:0.58350911 
1.0 1:0.15784688 2:0.35363279 3:0.27221104 
1.0 1:0.41309987 2:0.53458076 3:0.73635601 
1.0 1:0.56136047 2:0.52710485 3:0.5244831 
1.0 1:0.26680734 2:0.3909858 3:0.2133697 
1.0 1:0.30101768 2:0.44946777 3:0.36721188 
1.0 1:0.32241941 2:0.36628682 3:0.20313269 
1.0 1:0.22439783 2:0.38734694 3:0.48277269 
1.0 1:0.27707918 2:0.40093557 3:0.22344596 
1.0 1:0.41673883 2:0.44571429 3:0.24403894 
1.0 1:0.35642844 2:0.46982642 3:0.56012656 
1.0 1:0.39788655 2:0.44553244 3:0.61422011 
1.0 1:0.27271754 2:0.38679684 3:0.29523343 
1.0 1:0.32587743 2:0.45467072 3:0.61247483 
1.0 1:0.50815127 2:0.53383213 3:0.3919804 
1.0 1:0.0898116 2:0.38177859 3:0.60895427 
1.0 1:0.24668945 2:0.39777357 3:0.29443713 
1.0 1:0.50767986 2:0.48962242 3:0.60915162 
1.0 1:0.43447453 2:0.45577319 3:0.65553608 
1.0 1:0.44803496 2:0.46027442 3:0.61978818 
1.0 1:0.39207129 2:0.42941124 3:0.33502897 
1.0 1:0.39692735 2:0.42397506 3:0.61324343 
1.0 1:0.22404073 2:0.38394417 3:0.27221104 
1.0 1:0.25945573 2:0.4542682 3:0.57512348 
1.0 1:0.45080861 2:0.53263277 3:0.49798332 
1.0 1:0.26179289 2:0.46161377 3:0.65757625 
1.0 1:0.35447969 2:0.48317607 3:0.69269193 
1.0 1:0.41838288 2:0.47167225 3:0.57623736 
1.0 1:0.3808357 2:0.44517381 3:0.61324343 
1.0 1:0.4275313 2:0.47899332 3:0.56130317 
1.0 1:0.44838359 2:0.51956526 3:0.49492546 
1.0 1:0.20149898 2:0.40284818 3:0.506191 
1.0 1:0.25108978 2:0.45901726 3:0.65780817 
1.0 1:0.21844592 2:0.44111924 3:0.68500228 
1.0 1:0.26962237 2:0.39556603 3:0.25206681 
1.0 1:0.19846367 2:0.42927475 3:0.62381659 
1.0 1:0.3468308 2:0.34619767 3:0.19797428 
1.0 1:0.34508507 2:0.48649449 3:0.63340567 
1.0 1:0.36159967 2:0.42509885 3:0.28210751 
1.0 1:0.3207856 2:0.41425555 3:0.26174138 
1.0 1:0.20919144 2:0.39747662 3:0.67139582 
1.0 1:0.27495908 2:0.37889227 3:0.17798414 
1.0 1:0.15494136 2:0.36612245 3:0.55174022 
1.0 1:0.30041826 2:0.34858089 3:0.17798414 
1.0 1:0.5975206 2:0.51088863 3:0.41610522 
1.0 1:0.44054485 2:0.45136762 3:0.29431832 
1.0 1:0.24440807 2:0.37384037 3:0.20415828 
1.0 1:0.28964968 2:0.37627786 3:0.66082266 
1.0 1:0.26179289 2:0.38304122 3:0.66248353 
1.0 1:0.28964968 2:0.35507911 3:0.44407283 
1.0 1:0.27495908 2:0.38899606 3:0.29838517 
1.0 1:0.39692735 2:0.39747662 3:0.30133513 
1.0 1:0.59634612 2:0.58077103 3:0.42246382 
1.0 1:0.30903141 2:0.45174488 3:0.36697313 
1.0 1:0.30037745 2:0.42927475 3:0.46521915 
1.0 1:0.29023459 2:0.43446314 3:0.53395242 
1.0 1:0.47863248 2:0.39404796 3:0.56012656 
1.0 1:0.37679451 2:0.41687198 3:0.17542031 
1.0 1:0.42703377 2:0.495342 3:0.58139302 
1.0 1:0.21662648 2:0.42036318 3:0.60299082 
1.0 1:0.22528309 2:0.39217693 3:0.26961564 
1.0 1:0.26975189 2:0.40914013 3:0.32657639 
1.0 1:0.19338153 2:0.38679684 3:0.3097531 
1.0 1:0.19768381 2:0.33959184 3:0.24934414 
1.0 1:0.3297681 2:0.36705929 3:0.2337998 
1.0 1:0.29023459 2:0.40920365 3:0.28791552 
1.0 1:0.20836942 2:0.42979592 3:0.54643503 
1.0 1:0.40174083 2:0.52620833 3:0.6032435 
1.0 1:0.29505128 2:0.46883067 3:0.50649449 
1.0 1:0.33600304 2:0.46802048 3:0.55320318 
1.0 1:0.52531042 2:0.54638634 3:0.65521957 
1.0 1:0.35701206 2:0.46899117 3:0.66306524 
1.0 1:0.53464266 2:0.37889227 3:0.51824794 
1.0 1:0.3442778 2:0.43493764 3:0.66211695 
1.0 1:0.31238555 2:0.43031148 3:0.29039354 
1.0 1:0.17164426 2:0.29678254 3:0.1691706 
1.0 1:0.36152028 2:0.44961883 3:0.39261207 
1.0 1:0.24965248 2:0.41605565 3:0.57083523 
1.0 1:0.53101666 2:0.52213217 3:0.26987965 
1.0 1:0.26124419 2:0.42177635 3:0.49117686 
1.0 1:0.19768381 2:0.41387755 3:0.51990905 
1.0 1:0.51473361 2:0.54510929 3:0.6524082 
1.0 1:0.46468386 2:0.54300835 3:0.49589388 
1.0 1:1.22832922 2:0.81615199 3:0.79827377 
1.0 1:0.37010793 2:0.38687724 3:0.58681052 
1.0 1:0.44879567 2:0.44040816 3:0.51460386 
1.0 1:0.19768381 2:0.39265306 3:0.53051944 
1.0 1:0.26420467 2:0.46783399 3:0.71330575 
1.0 1:0.50400456 2:0.53074488 3:0.64132404 
1.0 1:0.19768381 2:0.31836735 3:0.49868828 
1.0 1:0.3296335 2:0.44181642 3:0.71886517 
1.0 1:0.17117227 2:0.387952 3:0.5398014 
1.0 1:0.50450605 2:0.49124643 3:0.62543686 
1.0 1:0.22404073 2:0.38394417 3:0.27221104 
1.0 1:0.43228186 2:0.47478537 3:0.66499052 
1.0 1:0.43138957 2:0.45448629 3:0.58078707 
1.0 1:0.42244164 2:0.49396187 3:0.44904253 
1.0 1:0.22364701 2:0.31580128 3:0.48645089 
1.0 1:0.384682 2:0.45102041 3:0.63131814 
1.0 1:0.26928553 2:0.41752926 3:0.29250668 
1.0 1:0.27850536 2:0.44640754 3:0.42625412 
1.0 1:0.26179747 2:0.44040816 3:0.69498047 
1.0 1:0.24949991 2:0.45972262 3:0.60724 
1.0 1:0.26928553 2:0.46783399 3:0.60554014 
1.0 1:0.26714028 2:0.41387755 3:0.6684545 
1.0 1:0.26179747 2:0.40857143 3:0.29178569 
1.0 1:0.32890963 2:0.44041669 3:0.49656323 
1.0 1:0.43817886 2:0.49503604 3:0.69099763 
1.0 1:0.41838288 2:0.52466913 3:0.68725556 
1.0 1:0.34588548 2:0.48249534 3:0.60705482 
1.0 1:0.31110522 2:0.42927475 3:0.37534727 
1.0 1:0.23530679 2:0.44380579 3:0.63758074 
1.0 1:0.36331078 2:0.44571429 3:0.29178569 
1.0 1:0.21158774 2:0.44053415 3:0.59416312 
1.0 1:0.32655524 2:0.42177635 3:0.26563646 
1.0 1:0.2199192 2:0.37627786 3:0.57623736 
1.0 1:0.31060193 2:0.38899606 3:0.16751448 
1.0 1:0.32986304 2:0.46384902 3:0.63787459 
1.0 1:0.17294274 2:0.41012104 3:0.52872516 
1.0 1:0.3293092 2:0.43977028 3:0.33347496 
1.0 1:0.36659162 2:0.5086403 3:0.57121616 
1.0 1:0.53365189 2:0.52591992 3:0.37696146 
1.0 1:0.26179747 2:0.3555102 3:0.21751297 
1.0 1:0.19748562 2:0.43648737 3:0.66475346 
1.0 1:0.18026832 2:0.3872099 3:0.5680543 
1.0 1:0.22116747 2:0.31652358 3:0.5837703 
1.0 1:0.31714834 2:0.45037605 3:0.34545571 
1.0 1:0.28211698 2:0.35638717 3:0.21836764 
1.0 1:0.2714328 2:0.4154372 3:0.28427076 
1.0 1:0.30041826 2:0.48498211 3:0.72240621 
1.0 1:0.26602985 2:0.43094537 3:0.44194127 
1.0 1:0.41673883 2:0.39265306 3:0.57826619 
1.0 1:0.25645467 2:0.40857143 3:0.5676558 
1.0 1:0.22662303 2:0.41203105 3:0.50270292 
1.0 1:0.34328852 2:0.37627786 3:0.47579231 
1.0 1:0.47016689 2:0.55714286 3:0.65253891 
1.0 1:0.41506258 2:0.48249534 3:0.56299439 
1.0 1:0.0980445 2:0.3810941 3:0.54861599 
1.0 1:0.24020902 2:0.35697422 3:0.22241189 
1.0 1:0.26785038 2:0.4232738 3:0.39731716 
1.0 1:0.30849539 2:0.44256917 3:0.64160068 
1.0 1:0.27782589 2:0.38204082 3:0.55704541 
1.0 1:0.27248308 2:0.40326531 3:0.61540255 
1.0 1:0.20589344 2:0.41486194 3:0.55850096 
1.0 1:0.36070915 2:0.44872067 3:0.49935154 
1.0 1:0.29501357 2:0.44517381 3:0.62381659 
1.0 1:0.28923127 2:0.4631017 3:0.60298334 
1.0 1:0.38181843 2:0.51005513 3:0.70669323 
1.0 1:0.36432635 2:0.49283959 3:0.69269193 
1.0 1:0.36661211 2:0.41930745 3:0.27744586 
1.0 1:0.39285001 2:0.50493676 3:0.45042808 
1.0 1:0.29197784 2:0.36129067 3:0.56898587 
1.0 1:0.17157787 2:0.32320639 3:0.13838962 
1.0 1:0.30322684 2:0.44788274 3:0.56328509 
1.0 1:0.27850536 2:0.41664704 3:0.32476505 
1.0 1:0.34231885 2:0.42068092 3:0.26925224 
1.0 1:0.42725533 2:0.49951378 3:0.62945667 
1.0 1:0.22252127 2:0.38786961 3:0.25969552 
1.0 1:0.56423397 2:0.52963094 3:0.7058861 
1.0 1:0.31714834 2:0.43552848 3:0.2946534 
1.0 1:0.32724111 2:0.45670299 3:0.68701996 
1.0 1:0.43983841 2:0.46107287 3:0.43878624 
1.0 1:0.45717733 2:0.50024637 3:0.30072053 
1.0 1:0.34231885 2:0.42563011 3:0.53850448 
1.0 1:0.32844907 2:0.32803037 3:0.12850465 
1.0 1:0.33717805 2:0.39646676 3:0.58562696 
1.0 1:0.24949991 2:0.35868468 3:0.17274931 
1.0 1:0.44879567 2:0.48816327 3:0.59948697 
1.0 1:0.10191378 2:0.3603788 3:0.43878624 
1.0 1:0.17821422 2:0.42435934 3:0.59677035 
1.0 1:0.16562697 2:0.40326531 3:0.61009736 
1.0 1:0.36172273 2:0.38744572 3:0.14033625 
1.0 1:0.23671732 2:0.40097919 3:0.28663605 
1.0 1:0.26585977 2:0.39137261 3:0.22923618 
1.0 1:0.43139579 2:0.49204555 3:0.43988129 
1.0 1:0.28005092 2:0.39909986 3:0.28791552 
1.0 1:0.24949991 2:0.43446314 3:0.60200518 
1.0 1:0.37933919 2:0.46163265 3:0.30770128 
0.02909990131916951 1:0.28939293 2:0.42043972 3:0.27064634 
1.0 1:0.3808357 2:0.36567849 3:0.57095078 
1.0 1:0.24949991 2:0.39909986 3:0.26697621 
1.0 1:0.26714028 2:0.38204082 3:0.31831167 
1.0 1:0.3207856 2:0.39909986 3:0.22509759 
1.0 1:0.24845904 2:0.41669408 3:0.39658883 
1.0 1:0.27782589 2:0.4722449 3:0.61540255 
1.0 1:0.55110601 2:0.46663757 3:0.52281103 
1.0 1:0.23247391 2:0.44296095 3:0.58843175 
1.0 1:0.20608787 2:0.32146926 3:0.14721164 
1.0 1:0.23921394 2:0.40914013 3:0.53068663 
1.0 1:0.58423848 2:0.44553244 3:0.60910161 
1.0 1:0.25746639 2:0.43457443 3:0.57623736 
1.0 1:0.2199192 2:0.41337568 3:0.37534727 
1.0 1:0.25200228 2:0.40047113 3:0.30352741 
1.0 1:0.35742115 2:0.48996954 3:0.62486841 
1.0 1:0.45413847 2:0.49346939 3:0.41380517 
1.0 1:0.29542759 2:0.39347105 3:0.46595308 
1.0 1:0.43293266 2:0.52461385 3:0.5740661 
1.0 1:0.24947667 2:0.45910084 3:0.60895427 
1.0 1:0.36924968 2:0.47351255 3:0.69767533 
1.0 1:0.13891294 2:0.40326531 3:0.59948697 
1.0 1:0.29701194 2:0.46027442 3:0.66551026 
1.0 1:0.29919711 2:0.38734694 3:0.53582464 
1.0 1:0.4531733 2:0.55065677 3:0.69623207 
1.0 1:0.33927017 2:0.48608821 3:0.58863665 
1.0 1:0.32844907 2:0.42450989 3:0.27183675 
1.0 1:0.27436639 2:0.45274258 3:0.58501335 
1.0 1:0.192341 2:0.40326531 3:0.53582464 
1.0 1:0.07052464 2:0.37828427 3:0.63760597 
1.0 1:0.23139646 2:0.4300267 3:0.55315687 
1.0 1:0.16091649 2:0.39217693 3:0.58681052 
1.0 1:0.22653453 2:0.38603661 3:0.24893132 
1.0 1:0.41309987 2:0.53458076 3:0.68557284 
1.0 1:0.50756653 2:0.56244898 3:0.572961 
1.0 1:0.21079567 2:0.43898182 3:0.55850096 
1.0 1:0.37010793 2:0.48227163 3:0.6766824 
1.0 1:0.34115294 2:0.490034 3:0.70670173 
1.0 1:0.35759424 2:0.38117775 3:0.22009554 
1.0 1:0.25686347 2:0.39602883 3:0.25080655 
1.0 1:0.44808147 2:0.50518969 3:0.59677035 
1.0 1:0.20825703 2:0.43514644 3:0.66790513 
1.0 1:0.31226539 2:0.40097919 3:0.62957561 
1.0 1:0.35264623 2:0.40588539 3:0.2336026 
1.0 1:0.47823957 2:0.53946142 3:0.68583118 
1.0 1:0.06544822 2:0.36339808 3:0.51526497 
1.0 1:0.41279626 2:0.38108742 3:0.23877086 
1.0 1:0.33106182 2:0.45354562 3:0.59236801 
1.0 1:0.21100492 2:0.43648948 3:0.53628494 
1.0 1:0.32382189 2:0.48573915 3:0.62226889 
1.0 1:0.45953357 2:0.4873203 3:0.39164827 
1.0 1:0.4373084 2:0.42038288 3:0.63453294 
1.0 1:0.33717805 2:0.46415621 3:0.64370567 
1.0 1:0.24812296 2:0.3968067 3:0.62923228 
1.0 1:0.22913257 2:0.38899606 3:0.28268069 
1.0 1:0.46758164 2:0.46848356 3:0.28354444 
1.0 1:0.28316869 2:0.37142857 3:0.41380517 
1.0 1:0.30849539 2:0.41770573 3:0.58558793 
1.0 1:0.33096927 2:0.31321761 3:0.16227966 
1.0 1:0.49390798 2:0.51529349 3:0.69099725 
1.0 1:0.23371952 2:0.39740737 3:0.30790176 
1.0 1:0.2770611 2:0.46671435 3:0.71061429 
1.0 1:0.24124312 2:0.38654085 3:0.23920297 
1.0 1:0.40299797 2:0.49619105 3:0.58406654 
1.0 1:0.34248463 2:0.45543316 3:0.64493112 
1.0 1:0.34041756 2:0.36219406 3:0.523433 
1.0 1:0.54408276 2:0.49003236 3:0.2945424 
1.0 1:0.58739313 2:0.5505693 3:0.58356219 
1.0 1:0.37170395 2:0.47487831 3:0.44496035 
1.0 1:0.19768381 2:0.34489796 3:0.22812336 
1.0 1:0.45841019 2:0.54531888 3:0.67167652 
1.0 1:0.24673862 2:0.4504735 3:0.66610924 
1.0 1:0.34588548 2:0.36187151 3:0.21051094 
1.0 1:0.29023459 2:0.36373658 3:0.27744586 
1.0 1:0.23064697 2:0.34447973 3:0.41763992 
1.0 1:0.20825703 2:0.36262204 3:0.52270836 
1.0 1:0.28193081 2:0.41250593 3:0.3042517 
1.0 1:0.18330606 2:0.42941124 3:0.60200518 
1.0 1:0.24576906 2:0.33959184 3:0.40319478 
1.0 1:0.21339608 2:0.39740737 3:0.36435042 
1.0 1:0.33082779 2:0.4340877 3:0.37760395 
1.0 1:0.20654994 2:0.42073486 3:0.56877154 
1.0 1:0.29903572 2:0.37627013 3:0.17792951 
1.0 1:0.27700962 2:0.41583027 3:0.31734706 
1.0 1:0.30551009 2:0.3334252 3:0.19892345 
1.0 1:0.28964968 2:0.43987412 3:0.47050573 
1.0 1:0.28204616 2:0.40097919 3:0.26616205 
1.0 1:0.2521025 2:0.39217693 3:0.30133513 
1.0 1:0.25448291 2:0.46402478 3:0.65315277 
1.0 1:0.39798646 2:0.4751829 3:0.71096442 
1.0 1:0.20302661 2:0.43510204 3:0.63131814 
1.0 1:0.35205355 2:0.42064156 3:0.24683451 
1.0 1:0.40229123 2:0.45577319 3:0.60267026 
1.0 1:0.42262229 2:0.4950859 3:0.62294449 
1.0 1:0.74799278 2:0.67918367 3:0.70028566 
1.0 1:0.24949991 2:0.42435934 3:0.58630069 
1.0 1:0.37933919 2:0.39795918 3:0.55174022 
1.0 1:0.33335129 2:0.4631017 3:0.57827091 
1.0 1:0.40806207 2:0.48508254 3:0.33516894 
1.0 1:0.52893775 2:0.54122449 3:0.5676558 
1.0 1:0.35023559 2:0.49642295 3:0.5680543 
1.0 1:0.21746397 2:0.44256917 3:0.63650862 
1.0 1:0.29197784 2:0.36129067 3:0.22353016 
1.0 1:0.35759424 2:0.4999864 3:0.63981262 
1.0 1:0.21905503 2:0.38204082 3:0.35544803 
1.0 1:0.2842858 2:0.40807599 3:0.26961564 
1.0 1:0.45067232 2:0.48608821 3:0.41103076 
1.0 1:0.20761309 2:0.42160712 3:0.61908337 
1.0 1:0.29531472 2:0.37671874 3:0.19897856 
1.0 1:0.52535339 2:0.58081485 3:0.70378408 
1.0 1:0.301592 2:0.32641494 3:0.19289801 
1.0 1:0.25645467 2:0.38734694 3:0.23342855 
1.0 1:0.449058 2:0.52192517 3:0.62828615 
1.0 1:0.24388123 2:0.44268163 3:0.71330575 
1.0 1:0.36766732 2:0.51483748 3:0.68076062 
1.0 1:0.26928553 2:0.4477121 3:0.64146201 
1.0 1:0.33225065 2:0.40583336 3:0.58930679 
1.0 1:0.17631258 2:0.31836735 3:0.46155192 
1.0 1:0.37279744 2:0.39103593 3:0.61447639 
1.0 1:0.34193956 2:0.3555102 3:0.39258439 
1.0 1:0.39769396 2:0.44542686 3:0.59946725 
1.0 1:0.51505234 2:0.57585062 3:0.76410843 
1.0 1:0.20067845 2:0.38860234 3:0.36721188 
1.0 1:0.29047641 2:0.38654085 3:0.24418636 
1.0 1:0.4378978 2:0.5001378 3:0.36120311 
1.0 1:0.2322374 2:0.40529609 3:0.45039551 
1.0 1:0.42208164 2:0.4244898 3:0.53582464 
1.0 1:0.30742705 2:0.39646676 3:0.52754826 
1.0 1:0.39692735 2:0.35507911 3:0.57623736 
1.0 1:0.33125394 2:0.40857143 3:0.30770128 
1.0 1:0.2842858 2:0.45577319 3:0.63967633 
1.0 1:0.15494136 2:0.41918367 3:0.67906489 
1.0 1:0.3397097 2:0.49283959 3:0.66279156 
1.0 1:0.26962237 2:0.41486194 3:0.57827091 
1.0 1:0.25675841 2:0.387952 3:0.26499341 
1.0 1:0.3508267 2:0.46802048 3:0.60705482 
1.0 1:0.38791085 2:0.4751829 3:0.47736183 
1.0 1:0.22640795 2:0.34291065 3:0.55713996 
1.0 1:0.42911064 2:0.43987412 3:0.62381659 
1.0 1:0.2521025 2:0.43987412 3:0.57623736 
1.0 1:0.4921912 2:0.41052683 3:0.58698674 
1.0 1:0.36582185 2:0.41249879 3:0.60040844 
1.0 1:0.39716312 2:0.50518969 3:0.63341414 
1.0 1:0.53101666 2:0.51218679 3:0.63141655 
1.0 1:0.40605322 2:0.53061224 3:0.6684545 
1.0 1:0.34939764 2:0.40176679 3:0.33998841 
1.0 1:0.27495908 2:0.37889227 3:0.21986276 
1.0 1:0.35309416 2:0.44041669 3:0.337663 
1.0 1:0.36568716 2:0.48153026 3:0.61329756 
1.0 1:0.39375296 2:0.52161057 3:0.65662923 
1.0 1:0.15616171 2:0.33406922 3:0.45751879 
1.0 1:0.22951853 2:0.37211331 3:0.59445536 
1.0 1:0.2366205 2:0.38304122 3:0.61341068 
1.0 1:0.28316869 2:0.3555102 3:0.55174022 
1.0 1:0.3053795 2:0.45903527 3:0.59702246 
1.0 1:0.38181843 2:0.47572449 3:0.59141703 
1.0 1:0.22166335 2:0.38113628 3:0.25391586 
1.0 1:0.30032307 2:0.40103614 3:0.22425278 
1.0 1:0.20867599 2:0.34926597 3:0.20411024 
1.0 1:0.30032307 2:0.35271853 3:0.17441883 
1.0 1:0.17128531 2:0.42568468 3:0.62463303 
1.0 1:0.29219259 2:0.46033343 3:0.61447639 
1.0 1:0.55565178 2:0.53591837 3:0.37136361 
1.0 1:0.3664554 2:0.48398284 3:0.60722797 
1.0 1:0.35241351 2:0.49598927 3:0.51035768 
1.0 1:0.20382756 2:0.34447973 3:0.62381659 
1.0 1:0.38188762 2:0.45972262 3:0.3402638 
1.0 1:0.19858156 2:0.42435934 3:0.60200518 
1.0 1:0.40003498 2:0.46624788 3:0.63430673 
1.0 1:0.38727576 2:0.45827772 3:0.3262041 
1.0 1:0.46220126 2:0.52476825 3:0.6315131 
1.0 1:0.34365709 2:0.49710063 3:0.68398904 
1.0 1:0.43796676 2:0.44542686 3:0.62486841 
1.0 1:0.27570642 2:0.39620438 3:0.22425278 
1.0 1:0.40851377 2:0.45688336 3:0.31848408 
1.0 1:0.3778106 2:0.51584218 3:0.68627818 
1.0 1:0.40795963 2:0.49503604 3:0.66540512 
1.0 1:0.38762575 2:0.51471548 3:0.5740661 
1.0 1:0.35133661 2:0.38899606 3:0.59153552 
1.0 1:0.24440807 2:0.37889227 3:0.20939311 
1.0 1:0.41469873 2:0.4326238 3:0.15785414 
1.0 1:0.11945146 2:0.38860234 3:0.47492736 
1.0 1:0.26682737 2:0.40759514 3:0.65266896 
1.0 1:0.10047853 2:0.37763697 3:0.53127293 
1.0 1:0.20284264 2:0.40603021 3:0.60061794 
1.0 1:0.42771413 2:0.42435934 3:0.57583104 
1.0 1:0.29532642 2:0.44961883 3:0.56012656 
1.0 1:0.23508344 2:0.38734694 3:0.29178569 
1.0 1:0.19348973 2:0.36373658 3:0.30362 
1.0 1:0.43138957 2:0.53668061 3:0.76954287 
1.0 1:0.3173609 2:0.43723766 3:0.59380098 
1.0 1:0.31213768 2:0.43705985 3:0.65757625 
1.0 1:0.3566988 2:0.51005513 3:0.67662118 
1.0 1:0.24042625 2:0.40326531 3:0.36075322 
1.0 1:0.4789952 2:0.51225989 3:0.7684423 
1.0 1:0.42328443 2:0.53127002 3:0.72627173 
1.0 1:0.23800804 2:0.38679684 3:0.6243461 
1.0 1:0.26986725 2:0.41930745 3:0.56012656 
1.0 1:0.309562 2:0.46883067 3:0.60084151 
1.0 1:0.33993455 2:0.48153026 3:0.59318944 
1.0 1:0.29817306 2:0.47249168 3:0.51299178 
1.0 1:0.46844881 2:0.47993021 3:0.34549862 
1.0 1:0.50637339 2:0.45632771 3:0.15223362 
1.0 1:0.26005466 2:0.42106837 3:0.54105252 
1.0 1:0.33096927 2:0.45972262 3:0.55489173 
1.0 1:0.309562 2:0.41673838 3:0.25821288 
1.0 1:0.40371298 2:0.39620438 3:0.54817347 
1.0 1:0.52187287 2:0.49283959 3:0.28405353 
1.0 1:0.19846367 2:0.38687724 3:0.31190829 
1.0 1:0.29023459 2:0.35868468 3:0.19892345 
1.0 1:0.3486524 2:0.30208223 3:0.42821308 
1.0 1:0.57110616 2:0.52666191 3:0.6229244 
1.0 1:0.48372431 2:0.43951503 3:0.33502897 
1.0 1:0.2036734 2:0.40415176 3:0.36120311 
1.0 1:0.11475927 2:0.39144387 3:0.63311912 
1.0 1:0.29715578 2:0.42573099 3:0.35317656 
1.0 1:0.46080914 2:0.4631017 3:0.58815588 
1.0 1:0.39692735 2:0.46637256 3:0.53394471 
1.0 1:0.19849667 2:0.37421353 3:0.50517285 
1.0 1:0.13387952 2:0.367457 3:0.52754826 
1.0 1:0.24792504 2:0.43031148 3:0.59046686 
1.0 1:0.38914112 2:0.5069442 3:0.6940477 
1.0 1:0.39528309 2:0.49124643 3:0.60558173 
1.0 1:0.27941387 2:0.36244803 3:0.5557916 
1.0 1:0.20302661 2:0.33959184 3:0.32361686 
1.0 1:0.20836942 2:0.33959184 3:0.16976622 
1.0 1:0.40693807 2:0.45120261 3:0.38091267 
1.0 1:0.46331439 2:0.54826003 3:0.56347183 
1.0 1:0.30037745 2:0.42397506 3:0.56037761 
1.0 1:0.53051152 2:0.58147537 3:0.74953148 
1.0 1:0.25119634 2:0.42177635 3:0.61146507 
1.0 1:0.22394496 2:0.43907721 3:0.57661143 
1.0 1:0.27248308 2:0.40326531 3:0.38727919 
1.0 1:0.34109772 2:0.40011142 3:0.2090533 
1.0 1:0.22439783 2:0.41918367 3:0.56235061 
1.0 1:0.40681832 2:0.48828335 3:0.49073782 
1.0 1:0.2880655 2:0.47249168 3:0.56831442 
1.0 1:0.20151213 2:0.34153771 3:0.24883755 
1.0 1:0.31734405 2:0.42547652 3:0.2516744 
1.0 1:0.1630603 2:0.34739665 3:0.24967577 
1.0 1:0.19270763 2:0.36187151 3:0.23009336 
1.0 1:0.20329853 2:0.38679684 3:0.54690783 
1.0 1:0.47599099 2:0.46624788 3:0.47699866 
1.0 1:0.3143406 2:0.41560708 3:0.33830793 
1.0 1:0.29531472 2:0.44433493 3:0.64668031 
1.0 1:0.2521025 2:0.43987412 3:0.70311531 
1.0 1:0.31226539 2:0.45543316 3:0.65516812 
1.0 1:0.40776216 2:0.52956304 3:0.68075095 
1.0 1:0.26999442 2:0.41565221 3:0.49987471 
1.0 1:0.44809554 2:0.4716018 3:0.57308132 
1.0 1:0.53950378 2:0.55383603 3:0.66846104 
1.0 1:0.31479989 2:0.46458028 3:0.57004899 
1.0 1:0.40359678 2:0.42018629 3:0.58201228 
1.0 1:0.39207129 2:0.47487831 3:0.57583104 
1.0 1:0.50918349 2:0.39909986 3:0.50254345 
1.0 1:0.52664458 2:0.42501602 3:0.57703781 
1.0 1:0.30032307 2:0.37687733 3:0.29900371 
1.0 1:0.18831736 2:0.41412965 3:0.54089214 
1.0 1:0.47899868 2:0.5559937 3:0.71383814 
1.0 1:0.56633739 2:0.39265306 3:0.51990905 
1.0 1:0.39497124 2:0.43648737 3:0.19282925 
1.0 1:0.22647313 2:0.37204557 3:0.22923618 
1.0 1:0.37447872 2:0.42106837 3:0.23826166 
1.0 1:0.29532642 2:0.38899606 3:0.57583104 
1.0 1:0.70020897 2:0.60427227 3:0.66194207 
1.0 1:0.384682 2:0.4722449 3:0.51460386 
1.0 1:0.26472014 2:0.40521398 3:0.27677924 
1.0 1:0.52029666 2:0.45577319 3:0.30662171 
1.0 1:0.51936716 2:0.4950859 3:0.31932449 
1.0 1:0.57379633 2:0.57991685 3:0.76360933 
1.0 1:0.22116747 2:0.4154372 3:0.60407536 
1.0 1:0.21648258 2:0.37813043 3:0.29443713 
1.0 1:0.40225496 2:0.5001378 3:0.57583104 
1.0 1:0.47202171 2:0.47697194 3:0.60795684 
1.0 1:0.35447969 2:0.41069966 3:0.37873804 
1.0 1:0.19849667 2:0.42909819 3:0.58171419 
1.0 1:0.17128531 2:0.40588539 3:0.528145 
1.0 1:0.19846367 2:0.4027763 3:0.60795684 
1.0 1:0.17096978 2:0.35020408 3:0.55174022 
1.0 1:0.37679578 2:0.37384037 3:0.18845379 
1.0 1:0.28826619 2:0.32819736 3:0.23932724 
1.0 1:0.37090271 2:0.45274258 3:0.68251558 
1.0 1:0.30849539 2:0.44754186 3:0.53975931 
1.0 1:0.49841339 2:0.55491869 3:0.73609281 
1.0 1:0.192341 2:0.36612245 3:0.25464933 
1.0 1:0.27941387 2:0.430105 3:0.6379521 
1.0 1:0.26714028 2:0.44040816 3:0.72150644 
1.0 1:0.27297774 2:0.42692374 3:0.3267569 
1.0 1:0.40935624 2:0.45772632 3:0.35708251 
1.0 1:0.24949991 2:0.39909986 3:0.27744586 
1.0 1:0.39446952 2:0.48732336 3:0.62123241 
1.0 1:0.37909633 2:0.50733487 3:0.63289119 
1.0 1:0.30166341 2:0.47119556 3:0.63536443 
1.0 1:0.16578958 2:0.40706323 3:0.59141703 
1.0 1:0.27782589 2:0.45102041 3:0.55174022 
1.0 1:0.39002481 2:0.43510204 3:0.27056492 
1.0 1:0.13522843 2:0.4010175 3:0.58572659 
1.0 1:0.21371222 2:0.38734694 3:0.27587011 
1.0 1:0.33025584 2:0.49801683 3:0.68764727 
1.0 1:0.58236581 2:0.47755102 3:0.58357139 
1.0 1:0.3566988 2:0.43158511 3:0.21551638 
1.0 1:0.24616645 2:0.39620438 3:0.28903692 
1.0 1:0.37090271 2:0.40243784 3:0.25145311 
1.0 1:0.59746072 2:0.50635141 3:0.3267569 
1.0 1:0.35425687 2:0.40110916 3:0.22714961 
1.0 1:0.2842858 2:0.41337568 3:0.29604855 
1.0 1:0.16620577 2:0.37127703 3:0.49649459 
1.0 1:0.31439891 2:0.45935935 3:0.58594461 
1.0 1:0.45337272 2:0.47162714 3:0.46725323 
1.0 1:0.25774282 2:0.40358665 3:0.3218772 
1.0 1:0.63045106 2:0.45102041 3:0.60479216 
1.0 1:0.24042625 2:0.38204082 3:0.34483764 
1.0 1:0.27186185 2:0.44197064 3:0.59868882 
1.0 1:0.23110063 2:0.38744572 3:0.29069651 
1.0 1:0.25968358 2:0.43951503 3:0.53918725 
1.0 1:0.226194 2:0.34619767 3:0.24366065 
1.0 1:0.3291427 2:0.45136762 3:0.59878556 
1.0 1:0.33677773 2:0.46489401 3:0.62945667 
1.0 1:0.25686347 2:0.42573099 3:0.64493112 
1.0 1:0.42340629 2:0.46868079 3:0.58305724 
1.0 1:0.33961193 2:0.39120792 3:0.15420838 
1.0 1:0.31933013 2:0.4542682 3:0.39630357 
1.0 1:0.33025584 2:0.36722453 3:0.25145311 
1.0 1:0.29751005 2:0.47382613 3:0.70178438 
1.0 1:0.52029666 2:0.52996882 3:0.60795684 
1.0 1:0.36766732 2:0.48513532 3:0.65516812 
1.0 1:0.29197784 2:0.37613824 3:0.6401091 
1.0 1:0.21885531 2:0.42909819 3:0.65315277 
1.0 1:0.27184144 2:0.37118905 3:0.2133697 
1.0 1:0.31355269 2:0.40278767 3:0.30043207 
1.0 1:0.41698592 2:0.46101136 3:0.26062446 
1.0 1:0.30828062 2:0.4675699 3:0.7091357 
1.0 1:0.37898722 2:0.47331329 3:0.63175692 
1.0 1:0.11754172 2:0.38734694 3:0.61540255 
1.0 1:0.42911064 2:0.492871 3:0.33305462 
1.0 1:0.37406531 2:0.47331329 3:0.6068846 
1.0 1:0.3337819 2:0.41273305 3:0.51429896 
1.0 1:0.24965248 2:0.33083943 3:0.5162336 
1.0 1:0.28713605 2:0.38810983 3:0.56459765 
1.0 1:0.28005092 2:0.44456693 3:0.42402104 
1.0 1:0.29539974 2:0.46384902 3:0.58804063 
1.0 1:0.2544662 2:0.38177859 3:0.27064634 
1.0 1:0.52955083 2:0.50518969 3:0.60200518 
1.0 1:0.5409137 2:0.52132274 3:0.63536443 
1.0 1:0.24949991 2:0.3233214 3:0.13087069 
1.0 1:0.26775904 2:0.42547652 3:0.42107063 
1.0 1:0.26124419 2:0.44629824 3:0.61146507 
1.0 1:0.97773342 2:0.75346939 3:0.73211683 
1.0 1:0.40688466 2:0.4823976 3:0.63263826 
1.0 1:0.35952511 2:0.48608821 3:0.42117967 
1.0 1:0.19748562 2:0.39184662 3:0.41103076 
1.0 1:0.29817306 2:0.48233526 3:0.65884239 
1.0 1:0.24042625 2:0.44571429 3:0.67375969 
1.0 1:0.3014356 2:0.42668073 3:0.35084061 
1.0 1:0.20185649 2:0.38654085 3:0.30398711 
1.0 1:0.22147251 2:0.4368522 3:0.58816241 
1.0 1:0.31479989 2:0.35554613 3:0.23793349 
1.0 1:0.50130965 2:0.52576888 3:0.36536068 
1.0 1:0.38762575 2:0.49986792 3:0.64518933 
1.0 1:0.29723039 2:0.46528325 3:0.68049452 
1.0 1:0.28964968 2:0.43457443 3:0.54980445 
1.0 1:0.25691121 2:0.44215044 3:0.58893376 
1.0 1:0.21569789 2:0.37144615 3:0.28666421 
1.0 1:0.39207129 2:0.42435934 3:0.65958828 
1.0 1:0.30041826 2:0.46982642 3:0.53395242 
1.0 1:0.3207856 2:0.43446314 3:0.52348276 
1.0 1:0.26714028 2:0.45102041 3:0.6631493 
1.0 1:0.54648952 2:0.52666191 3:0.65282477 
1.0 1:0.30453992 2:0.44571429 3:0.35544803 
1.0 1:0.32230255 2:0.48833101 3:0.60498653 
1.0 1:0.24812296 2:0.3968067 3:0.49729648 
1.0 1:0.36775964 2:0.49003236 3:0.45704856 
1.0 1:0.40605322 2:0.40326531 3:0.40319478 
1.0 1:0.3236673 2:0.4326238 3:0.60086413 
1.0 1:0.22404073 2:0.38394417 3:0.27744586 
1.0 1:0.15605712 2:0.41078255 3:0.61978818 
1.0 1:0.41139603 2:0.3555102 3:0.39788958 
1.0 1:0.37177058 2:0.5149595 3:0.62650109 
1.0 1:0.2870827 2:0.45543316 3:0.5732721 
1.0 1:0.46129394 2:0.43457443 3:0.51279838 
1.0 1:0.27184144 2:0.3513923 3:0.18796855 
1.0 1:0.35759424 2:0.44058208 3:0.26104355 
1.0 1:0.3808357 2:0.38157755 3:0.40178018 
1.0 1:0.29332349 2:0.3928423 3:0.24441931 
1.0 1:0.43983841 2:0.46637256 3:0.32776804 
1.0 1:0.30032307 2:0.46868079 3:0.56312366 
1.0 1:0.27892192 2:0.4504735 3:0.61324343 
1.0 1:0.22439783 2:0.36612245 3:0.52521425 
1.0 1:0.41301899 2:0.42397506 3:0.60795684 
1.0 1:0.31738161 2:0.4751829 3:0.74651264 
1.0 1:0.24124312 2:0.4541855 3:0.57309045 
1.0 1:0.29058451 2:0.38873043 3:0.51056561 
1.0 1:0.1809552 2:0.4154372 3:0.53808393 
1.0 1:0.32672467 2:0.42038288 3:0.30457581 
1.0 1:0.23677675 2:0.39103593 3:0.2945424 
1.0 1:0.41651406 2:0.51734077 3:0.76954287 
1.0 1:0.38260294 2:0.48828335 3:0.44612529 
1.0 1:0.48881615 2:0.44456693 3:0.58106587 
1.0 1:0.37783525 2:0.46033343 3:0.4113437 
1.0 1:0.2366205 2:0.43214907 3:0.64776168 
1.0 1:0.30485154 2:0.42255974 3:0.30790176 
1.0 1:0.47752066 2:0.44016561 3:0.63453294 
1.0 1:0.41217573 2:0.50940514 3:0.65991425 
1.0 1:0.2036734 2:0.40920365 3:0.45543 
1.0 1:0.29385431 2:0.45632653 3:0.70559086 
1.0 1:0.22729617 2:0.29914711 3:0.16155491 
1.0 1:0.34760843 2:0.43558432 3:0.66525957 
1.0 1:0.34328852 2:0.41867537 3:0.51808496 
1.0 1:0.2521025 2:0.37627786 3:0.25904248 
1.0 1:0.2114481 2:0.42723828 3:0.57905968 
0.022055415274868727 1:0.70334974 2:0.62285578 3:0.37088865 
1.0 1:0.46129394 2:0.47697194 3:0.29076197 
1.0 1:0.36661211 2:0.4950859 3:0.63341414 
1.0 1:0.35952511 2:0.41664704 3:0.47192421 
1.0 1:0.27782589 2:0.45632653 3:0.65253891 
1.0 1:0.29153893 2:0.43027424 3:0.59392283 
1.0 1:0.32117938 2:0.35704655 3:0.1517637 
1.0 1:0.23752769 2:0.37405592 3:0.27158388 
1.0 1:0.2544662 2:0.39144387 3:0.22714961 
1.0 1:0.36474405 2:0.40807599 3:0.2537559 
1.0 1:0.27562707 2:0.41052683 3:0.27359551 
1.0 1:0.3920696 2:0.47973105 3:0.35026218 
1.0 1:0.37553281 2:0.4873203 3:0.60215921 
1.0 1:0.27176717 2:0.38117132 3:0.51403835 
1.0 1:0.25170503 2:0.39593498 3:0.27433247 
1.0 1:0.59065285 2:0.45467072 3:0.28791552 
1.0 1:0.26194868 2:0.45197601 3:0.70087984 
1.0 1:0.37903355 2:0.46264811 3:0.5481971 
1.0 1:0.4640266 2:0.46393348 3:0.62345318 
1.0 1:0.25491569 2:0.39556603 3:0.26689426 
1.0 1:0.47863248 2:0.40920365 3:0.51301311 
1.0 1:0.20106133 2:0.37092607 3:0.25888944 
1.0 1:0.30141449 2:0.34739665 3:0.19582413 
1.0 1:0.29641168 2:0.44139386 3:0.42100874 
1.0 1:0.22729617 2:0.38117132 3:0.25457138 
1.0 1:0.05363883 2:0.34977942 3:0.52337154 
1.0 1:0.35688386 2:0.46489401 3:0.32995713 
1.0 1:0.28263454 2:0.4399814 3:0.65822535 
1.0 1:0.29413349 2:0.43415784 3:0.58321339 
1.0 1:0.43262095 2:0.52389895 3:0.47455631 
1.0 1:0.48274947 2:0.53526851 3:0.70311531 
1.0 1:0.34453384 2:0.45882411 3:0.32831462 
1.0 1:0.23800804 2:0.35295212 3:0.20811537 
1.0 1:0.149686 2:0.40110916 3:0.5557916 
1.0 1:0.25189016 2:0.37123664 3:0.18281942 
1.0 1:0.43708163 2:0.49043762 3:0.54630895 
1.0 1:0.22913257 2:0.43951503 3:0.58106587 
1.0 1:0.38201653 2:0.50445946 3:0.63453294 
1.0 1:0.3965903 2:0.5212441 3:0.63340567 
1.0 1:0.46220126 2:0.52476825 3:0.39093668 
1.0 1:0.42411033 2:0.52192517 3:0.67178289 
1.0 1:0.17163608 2:0.42608109 3:0.65521957 
1.0 1:0.58898978 2:0.51471548 3:0.61978818 
1.0 1:0.24042625 2:0.42979592 3:0.61009736 
1.0 1:0.2199192 2:0.37097818 3:0.35948753 
1.0 1:0.25784204 2:0.42064156 3:0.57594718 
1.0 1:0.34385834 2:0.4408772 3:0.51552256 
1.0 1:0.42911064 2:0.41867537 3:0.32248146 
1.0 1:0.52862026 2:0.48125691 3:0.73118553 
1.0 1:0.3139515 2:0.45632771 3:0.659679 
1.0 1:0.18842303 2:0.4158066 3:0.51302858 
1.0 1:0.44470991 2:0.47284543 3:0.2888406 
1.0 1:0.39122615 2:0.46783399 3:0.34382364 
1.0 1:0.6297296 2:0.61403998 3:0.67274502 
1.0 1:0.19348973 2:0.38394417 3:0.50777828 
1.0 1:0.20099122 2:0.41486194 3:0.45470875 
1.0 1:0.28054056 2:0.40253139 3:0.24828161 
1.0 1:0.27562707 2:0.46848356 3:0.62180799 
1.0 1:0.1960348 2:0.36598039 3:0.25381317 
1.0 1:0.48370168 2:0.56643721 3:0.68500228 
1.0 1:0.51876348 2:0.51483748 3:0.31734706 
1.0 1:0.26700357 2:0.40588539 3:0.61955471 
1.0 1:1.01421319 2:0.76694596 3:0.87858988 
1.0 1:0.26714028 2:0.34489796 3:0.23342855 
1.0 1:0.30988272 2:0.37673469 3:0.59948697 
1.0 1:0.18699819 2:0.37142857 3:0.48807789 
1.0 1:0.31838819 2:0.44296095 3:0.37719984 
1.0 1:0.38883105 2:0.35739983 3:0.20892748 
1.0 1:0.2842858 2:0.42397506 3:0.32248146 
1.0 1:0.23799549 2:0.42656721 3:0.52266875 
1.0 1:0.34728236 2:0.41918367 3:0.62601294 
1.0 1:0.20457087 2:0.4059418 3:0.60895427 
1.0 1:0.18165539 2:0.33428571 3:0.23873375 
1.0 1:0.25692797 2:0.37123664 3:0.20821101 
1.0 1:0.51680076 2:0.47331329 3:0.65662923 
1.0 1:0.48811336 2:0.50877007 3:0.53923129 
1.0 1:0.30343809 2:0.40776036 3:0.48883862 
1.0 1:0.34760843 2:0.45538361 3:0.54845827 
1.0 1:0.61611202 2:0.55570866 3:0.66482311 
1.0 1:0.28502086 2:0.38918208 3:0.46945356 
1.0 1:0.36565037 2:0.49214525 3:0.55809878 
1.0 1:0.31864462 2:0.39556603 3:0.182872 
1.0 1:0.45826514 2:0.50518969 3:0.57059621 
1.0 1:0.26636914 2:0.39347105 3:0.43125445 
1.0 1:0.384682 2:0.42979592 3:0.41380517 
1.0 1:0.05034101 2:0.36129067 3:0.57914633 
1.0 1:0.47249413 2:0.51435082 3:0.70560062 
1.0 1:0.4584401 2:0.44053415 3:0.33516894 
1.0 1:0.16091649 2:0.34447973 3:0.49165206 
1.0 1:0.24445138 2:0.34086487 3:0.56090766 
1.0 1:0.34115294 2:0.41425555 3:0.31932449 
1.0 1:0.20382756 2:0.41337568 3:0.54451787 
1.0 1:0.14765736 2:0.3863782 3:0.51236978 
1.0 1:0.4310337 2:0.45983966 3:0.41638361 
1.0 1:0.44802294 2:0.51699839 3:0.38870483 
1.0 1:0.24181456 2:0.39103593 3:0.24375923 
1.0 1:0.35357632 2:0.45883168 3:0.47982352 
1.0 1:0.23799549 2:0.38688654 3:0.23342488 
1.0 1:0.2563532 2:0.37092607 3:0.25888944 
1.0 1:0.15555261 2:0.37627786 3:0.62910317 
1.0 1:0.35241351 2:0.50090005 3:0.73118553 
1.0 1:0.31164507 2:0.45994833 3:0.62945667 
1.0 1:0.29715578 2:0.40097919 3:0.22009554 
1.0 1:0.23624707 2:0.37587175 3:0.54823646 
1.0 1:0.30141449 2:0.37634637 3:0.16155491 
1.0 1:0.22235495 2:0.36669646 3:0.20561534 
1.0 1:0.44520229 2:0.42927475 3:0.49693864 
1.0 1:0.28547089 2:0.38154847 3:0.1790807 
1.0 1:0.1945918 2:0.41560708 3:0.6379521 
1.0 1:0.35133661 2:0.40415176 3:0.38737724 
1.0 1:0.36263078 2:0.47028424 3:0.64493112 
1.0 1:0.24630013 2:0.34125199 3:0.17259296 
1.0 1:0.49930496 2:0.48623371 3:0.50630603 
1.0 1:0.26525576 2:0.44111924 3:0.57083523 
1.0 1:0.36245525 2:0.4305793 3:0.27433247 
1.0 1:0.35401628 2:0.49817069 3:0.70840189 
1.0 1:0.23132986 2:0.37671874 3:0.2337998 
1.0 1:0.28432904 2:0.45345374 3:0.63263826 
1.0 1:0.18165539 2:0.39795918 3:0.3766688 
1.0 1:0.35057927 2:0.41752926 3:0.2565848 
1.0 1:0.25945573 2:0.4059418 3:0.63311912 
1.0 1:0.30708014 2:0.41078255 3:0.23877086 
1.0 1:0.32968603 2:0.39796625 3:0.22522329 
1.0 1:0.51187885 2:0.40086738 3:0.57703781 
1.0 1:0.20734936 2:0.37295155 3:0.24441931 
1.0 1:0.62296692 2:0.58362077 3:0.56635699 
1.0 1:0.34328852 2:0.47697194 3:0.60795684 
1.0 1:0.41522618 2:0.43648737 3:0.22327597 
1.0 1:0.36693693 2:0.37092607 3:0.57869404 
1.0 1:0.33717805 2:0.44481636 3:0.29039354 
1.0 1:0.50918349 2:0.50518969 3:0.58630069 
1.0 1:0.49234482 2:0.47572449 3:0.25561245 
1.0 1:0.2835691 2:0.41664704 3:0.36536068 
1.0 1:0.27495908 2:0.46477452 3:0.60200518 
1.0 1:0.36674665 2:0.41687198 3:0.23556441 
1.0 1:0.43799964 2:0.44688142 3:0.61831796 
1.0 1:0.34760843 2:0.40588539 3:0.33009062 
1.0 1:0.20761309 2:0.43152729 3:0.69012573 
1.0 1:0.30988272 2:0.4722449 3:0.63662333 
1.0 1:0.45306906 2:0.43552848 3:0.65026956 
1.0 1:0.24184531 2:0.40726705 3:0.40718185 
1.0 1:0.45841019 2:0.55023166 3:0.69601262 
1.0 1:0.51493277 2:0.47697194 3:0.53923129 
1.0 1:0.21371222 2:0.3077551 3:0.50929866 
1.0 1:0.21569789 2:0.41486194 3:0.62275328 
1.0 1:0.50576708 2:0.43514644 3:0.53238815 
1.0 1:0.26682594 2:0.38599627 3:0.21051094 
1.0 1:0.20457087 2:0.41077444 3:0.57995645 
1.0 1:0.27176717 2:0.33774674 3:0.1517637 
1.0 1:0.34624477 2:0.39909986 3:0.56012656 
1.0 1:0.18831736 2:0.4340877 3:0.69397482 
1.0 1:0.33792463 2:0.46107287 3:0.39120701 
1.0 1:0.33221955 2:0.41097164 3:0.60498653 
1.0 1:0.13387952 2:0.38679684 3:0.62918599 
1.0 1:0.192341 2:0.38734694 3:0.52521425 
1.0 1:0.27767604 2:0.35295212 3:0.14035688 
1.0 1:0.27129204 2:0.4119676 3:0.47112882 
1.0 1:0.27176717 2:0.43907076 3:0.50424715 
1.0 1:0.35906841 2:0.3928423 3:0.21386689 
1.0 1:0.15018873 2:0.4027763 3:0.5920971 
1.0 1:0.309562 2:0.44041669 3:0.45187254 
1.0 1:0.18839789 2:0.36878848 3:0.2460369 
1.0 1:0.33125394 2:0.44571429 3:0.33422725 
1.0 1:0.29311928 2:0.40358665 3:0.25146656 
1.0 1:0.39692735 2:0.50877007 3:0.62910317 
1.0 1:0.22757857 2:0.40278767 3:0.65687689 
1.0 1:0.27565794 2:0.47119556 3:0.69492985 
1.0 1:0.33478637 2:0.38654085 3:0.19933581 
1.0 1:0.31738161 2:0.44053415 3:0.38595211 
1.0 1:0.22974064 2:0.41387755 3:0.3766688 
1.0 1:0.19138847 2:0.35147559 3:0.25592505 
1.0 1:0.22913257 2:0.42941124 3:0.58106587 
1.0 1:0.31522553 2:0.44040816 3:0.63131814 
1.0 1:0.26188472 2:0.42942085 3:0.36717025 
1.0 1:0.29385431 2:0.42979592 3:0.60479216 
1.0 1:0.10685611 2:0.3077551 3:0.51460386 
1.0 1:0.42289621 2:0.49107848 3:0.61341068 
1.0 1:0.22252127 2:0.36300617 3:0.25969552 
1.0 1:0.30515854 2:0.36705929 3:0.21390195 
1.0 1:0.33478402 2:0.49642295 3:0.71383814 
1.0 1:0.17700555 2:0.37792423 3:0.30552414 
1.0 1:0.39294866 2:0.44548397 3:0.25391586 
1.0 1:0.42234292 2:0.4716018 3:0.70378408 
1.0 1:0.27689633 2:0.33884415 3:0.4710994 
1.0 1:0.18839789 2:0.41425555 3:0.5496569 
1.0 1:0.8601917 2:0.50408163 3:0.57826619 
1.0 1:0.19958133 2:0.42527236 3:0.60895427 
1.0 1:0.40776216 2:0.41573173 3:0.60454748 
1.0 1:0.36661211 2:0.43951503 3:0.34549862 
1.0 1:0.38188762 2:0.45972262 3:0.54442207 
1.0 1:0.34825725 2:0.3883244 3:0.45187254 
1.0 1:0.30032307 2:0.41069966 3:0.26411995 
1.0 1:0.27782589 2:0.39265306 3:0.32361686 
0.017392830327813358 1:0.22404073 2:0.37384037 3:0.20939311 
1.0 1:0.4378978 2:0.490034 3:0.32979414 
1.0 1:0.41299617 2:0.46533388 3:0.40948007 
1.0 1:0.28502086 2:0.42909819 3:0.38780946 
1.0 1:0.28085904 2:0.41104293 3:0.5162336 
1.0 1:0.28826619 2:0.44754186 3:0.72816586 
1.0 1:0.28301172 2:0.41835201 3:0.45766914 
1.0 1:0.11579301 2:0.34866572 3:0.52507954 
1.0 1:0.73547129 2:0.61901062 3:0.65707485 
1.0 1:0.27782589 2:0.42979592 3:0.40849997 
1.0 1:0.40225496 2:0.46477452 3:0.25650655 
1.0 1:0.14598892 2:0.35634149 3:0.26925224 
1.0 1:0.23676131 2:0.3979354 3:0.2774316 
1.0 1:0.192341 2:0.35020408 3:0.40319478 
1.0 1:0.20804373 2:0.36592846 3:0.53608874 
1.0 1:0.45826514 2:0.46982642 3:0.56536138 
1.0 1:0.21247251 2:0.43424581 3:0.5874724 
1.0 1:0.27481575 2:0.42982217 3:0.50977322 
1.0 1:0.25132667 2:0.43027424 3:0.57361777 
1.0 1:0.46114057 2:0.5511855 3:0.68242481 
1.0 1:0.10402187 2:0.38096662 3:0.55098009 
1.0 1:0.30246855 2:0.45448629 3:0.54690783 
1.0 1:0.31522553 2:0.39795918 3:0.572961 
1.0 1:0.38614529 2:0.48795589 3:0.72870084 
1.0 1:0.28148587 2:0.36598039 3:0.18274549 
1.0 1:0.20106133 2:0.4154372 3:0.42132987 
1.0 1:0.30219232 2:0.38117775 3:0.20985854 
1.0 1:0.28659083 2:0.45837057 3:0.60705482 
1.0 1:0.26179747 2:0.37142857 3:0.32361686 
1.0 1:0.38684236 2:0.47572449 3:0.36086463 
1.0 1:0.16689095 2:0.36300617 3:0.33098448 
1.0 1:0.52944028 2:0.54028531 3:0.60792582 
1.0 1:0.42081085 2:0.51618731 3:0.48166633 
1.0 1:0.20836942 2:0.38734694 3:0.58357139 
1.0 1:0.32587743 2:0.40415176 3:0.23033242 
1.0 1:0.75861294 2:0.63756891 3:0.54630895 
1.0 1:0.53253624 2:0.51005513 3:0.31575655 
1.0 1:0.36751694 2:0.4861677 3:0.65757625 
1.0 1:0.30551009 2:0.3334252 3:0.20939311 
1.0 1:0.21746397 2:0.40278767 3:0.59577206 
1.0 1:0.31060193 2:0.40415176 3:0.27221104 
1.0 1:0.2521025 2:0.38157755 3:0.34891436 
1.0 1:0.26466223 2:0.41412965 3:0.34188466 
1.0 1:0.28005092 2:0.44456693 3:0.63341414 
1.0 1:0.49410386 2:0.54137362 3:0.74456769 
1.0 1:0.25407564 2:0.39436248 3:0.24988751 
1.0 1:0.42374676 2:0.46107287 3:0.56037761 
1.0 1:0.2842858 2:0.40807599 3:0.26961564 
1.0 1:0.31110522 2:0.43987412 3:0.60267026 
1.0 1:0.38188762 2:0.48498211 3:0.65435345 
1.0 1:0.29623962 2:0.43073994 3:0.45044657 
1.0 1:0.26477541 2:0.39404796 3:0.5496569 
1.0 1:0.48274947 2:0.47167225 3:0.45993257 
1.0 1:0.31238555 2:0.44481636 3:0.64854556 
1.0 1:0.35768403 2:0.48013272 3:0.62971135 
1.0 1:0.2626767 2:0.39713836 3:0.26140552 
1.0 1:0.38684236 2:0.4119676 3:0.20048035 
1.0 1:0.32220663 2:0.47634613 3:0.55943054 
1.0 1:0.4378978 2:0.51529349 3:0.61247483 
1.0 1:0.41139603 2:0.49877551 3:0.39788958 
1.0 1:0.20185649 2:0.35271853 3:0.17940223 
1.0 1:0.42742444 2:0.45102041 3:0.29178569 
1.0 1:0.19768381 2:0.37673469 3:0.56235061 
1.0 1:0.31738161 2:0.40588539 3:0.62971135 
1.0 1:0.40734679 2:0.47487831 3:0.30885483 
1.0 1:0.22550234 2:0.44380579 3:0.57332842 
1.0 1:0.2189489 2:0.36878848 3:0.20415828 
1.0 1:0.32587743 2:0.39909986 3:0.24080207 
1.0 1:0.14598892 2:0.37118905 3:0.51310333 
1.0 1:0.20302661 2:0.37142857 3:0.24934414 
1.0 1:0.31355269 2:0.47240529 3:0.56012758 
1.0 1:0.29903572 2:0.3810941 3:0.1433321 
1.0 1:0.29623962 2:0.45414972 3:0.68056602 
1.0 1:0.32655524 2:0.37273259 3:0.09021616 
1.0 1:0.33225065 2:0.45037605 3:0.66551026 
1.0 1:0.25691121 2:0.32424366 3:0.58893376 
1.0 1:0.17620675 2:0.4223275 3:0.65266896 
1.0 1:0.34041756 2:0.41752926 3:0.24118972 
1.0 1:0.35742115 2:0.32664636 3:0.14224647 
1.0 1:0.19723476 2:0.40278767 3:0.53466724 
1.0 1:0.34328852 2:0.47697194 3:0.59738368 
1.0 1:0.20876523 2:0.42435934 3:0.60724 
1.0 1:0.43262095 2:0.34427645 3:0.21941851 
1.0 1:0.27767604 2:0.3916318 3:0.28555364 
1.0 1:0.36272184 2:0.44053415 3:0.28946409 
1.0 1:0.33025584 2:0.36219406 3:0.21039954 
1.0 1:0.28148587 2:0.3907088 3:0.26904196 
1.0 1:0.62427536 2:0.47634613 3:0.67720539 
1.0 1:0.309562 2:0.43094537 3:0.40718185 
1.0 1:0.35796797 2:0.41918367 3:0.31300647 
1.0 1:0.36865358 2:0.50408163 3:0.68967528 
1.0 1:0.27941387 2:0.27062786 3:0.51229486 
1.0 1:0.33096927 2:0.41425555 3:0.51301311 
1.0 1:0.21661141 2:0.37828427 3:0.5986682 
1.0 1:0.35938016 2:0.50347038 3:0.71368847 
1.0 1:0.37547181 2:0.38157755 3:0.51279838 
1.0 1:0.43262095 2:0.50893041 3:0.55620041 
1.0 1:0.42771413 2:0.43446314 3:0.58106587 
1.0 1:0.59572281 2:0.57497952 3:0.69767533 
1.0 1:0.45948128 2:0.48816327 3:0.6684545 
1.0 1:0.35688386 2:0.48467674 3:0.5837703 
1.0 1:0.2394976 2:0.41560708 3:0.59445536 
1.0 1:0.29438247 2:0.41077444 3:0.24164852 
1.0 1:0.2842858 2:0.42397506 3:0.32248146 
1.0 1:0.36474405 2:0.51406976 3:0.73483479 
1.0 1:0.27767604 2:0.37712692 3:0.49366901 
1.0 1:0.31730193 2:0.44058208 3:0.63469412 
1.0 1:0.24179878 2:0.38810983 3:0.52565988 
1.0 1:0.17194825 2:0.41770573 3:0.61614034 
1.0 1:0.29703424 2:0.46652456 3:0.75081467 
1.0 1:0.301592 2:0.46489401 3:0.67006678 
1.0 1:0.3293092 2:0.430105 3:0.46879813 
1.0 1:0.27892192 2:0.42397506 3:0.53394471 
1.0 1:0.29501357 2:0.46107287 3:0.51808496 
1.0 1:0.59555135 2:0.52161057 3:0.32831462 
1.0 1:0.3360611 2:0.41930745 3:0.58106587 
1.0 1:0.29385431 2:0.45102041 3:0.57826619 
1.0 1:0.38419407 2:0.47359876 3:0.70078071 
1.0 1:0.23717862 2:0.36669646 3:0.24967577 
1.0 1:0.3525577 2:0.43563171 3:0.24568804 
1.0 1:0.36197056 2:0.42547652 3:0.28555364 
1.0 1:0.226194 2:0.35114335 3:0.16244043 
1.0 1:0.32132394 2:0.40963788 3:0.510479 
1.0 1:0.34115294 2:0.33847709 3:0.15181 
1.0 1:0.29623962 2:0.41201212 3:0.23991176 
1.0 1:0.48854425 2:0.53463892 3:0.70635313 
1.0 1:0.27687554 2:0.40583336 3:0.47246148 
1.0 1:0.37898722 2:0.37671874 3:0.2337998 
1.0 1:0.23601085 2:0.38157755 3:0.25904248 
1.0 1:0.42262229 2:0.42435934 3:0.59677035 
1.0 1:0.25746639 2:0.38687724 3:0.28547539 
1.0 1:0.46848514 2:0.52566775 3:0.39911213 
1.0 1:0.28713605 2:0.37337148 3:0.52565988 
1.0 1:0.2114481 2:0.41741671 3:0.62322525 
1.0 1:0.31110522 2:0.38157755 3:0.52337154 
1.0 1:0.2199192 2:0.37627786 3:0.55509103 
1.0 1:0.3775859 2:0.48125691 3:0.68211267 
1.0 1:0.29977068 2:0.42759021 3:0.30790176 
1.0 1:0.40198244 2:0.42450989 3:0.24712432 
1.0 1:0.19858156 2:0.43951503 3:0.66482311 
1.0 1:0.42810578 2:0.43068135 3:0.25592505 
1.0 1:0.17619352 2:0.42068092 3:0.60962772 
1.0 1:0.27782589 2:0.33959184 3:0.33953244 
1.0 1:0.37256909 2:0.41003796 3:0.18781448 
1.0 1:0.42957136 2:0.5069442 3:0.40737583 
1.0 1:0.38765486 2:0.387952 3:0.49072854 
1.0 1:0.19846367 2:0.41867537 3:0.54451787 
1.0 1:0.21385706 2:0.35363279 3:0.16751448 
1.0 1:0.33096927 2:0.44961883 3:0.69623207 
1.0 1:0.25981792 2:0.42450989 3:0.63263826 
1.0 1:0.48330995 2:0.45179221 3:0.2699007 
1.0 1:0.41178689 2:0.49686953 3:0.41516886 
1.0 1:0.10685611 2:0.39265306 3:0.572961 
1.0 1:0.51825214 2:0.45102041 3:0.52521425 
1.0 1:0.31522553 2:0.45632653 3:0.61009736 
1.0 1:0.30988272 2:0.40326531 3:0.2864805 
1.0 1:0.36152028 2:0.44961883 3:0.59153552 
1.0 1:0.26714028 2:0.4244898 3:0.43502594 
1.0 1:0.44808147 2:0.45467072 3:0.59153552 
1.0 1:0.49334187 2:0.53946142 3:0.71631257 
1.0 1:0.27707918 2:0.44548397 3:0.56877154 
1.0 1:0.40693807 2:0.495342 3:0.38091267 
1.0 1:0.32233847 2:0.48018496 3:0.65516812 
1.0 1:0.55125414 2:0.44916465 3:0.61185906 
1.0 1:0.19768381 2:0.37142857 3:0.27056492 
1.0 1:0.39386632 2:0.43485846 3:0.58305724 
1.0 1:0.22528309 2:0.38687724 3:0.61853001 
1.0 1:0.21301945 2:0.37908098 3:0.50286551 
1.0 1:0.18330606 2:0.42941124 3:0.61247483 
1.0 1:0.20649808 2:0.34652523 3:0.20474004 
1.0 1:0.26693655 2:0.37622739 3:0.24568804 
1.0 1:0.35262517 2:0.44040816 3:0.38727919 
1.0 1:0.43907893 2:0.54125573 3:0.72494556 
1.0 1:0.36775964 2:0.41083521 3:0.2945424 
1.0 1:0.23601085 2:0.3603788 3:0.19031693 
1.0 1:0.32302904 2:0.4817787 3:0.59885981 
1.0 1:0.33096927 2:0.37889227 3:0.19892345 
1.0 1:0.402083 2:0.49396187 3:0.44393978 
1.0 1:0.25459174 2:0.43951503 3:0.5496569 
1.0 1:0.41811039 2:0.52075496 3:0.71548151 
1.0 1:0.21371222 2:0.37142857 3:0.55174022 
1.0 1:0.24448713 2:0.36728067 3:0.20781773 
1.0 1:0.15467553 2:0.41560708 3:0.61378724 
1.0 1:0.15819025 2:0.40963788 3:0.59312798 
1.0 1:0.2342244 2:0.35868468 3:0.26174138 
1.0 1:0.23700841 2:0.44988802 3:0.72001668 
1.0 1:0.25746639 2:0.4504735 3:0.49693864 
1.0 1:0.40302426 2:0.44053415 3:0.60939808 
1.0 1:0.33241155 2:0.42573099 3:0.5681536 
1.0 1:0.24445138 2:0.4561574 3:0.67507471 
1.0 1:0.26477541 2:0.44456693 3:0.58630069 
1.0 1:0.3164691 2:0.45577319 3:0.59738368 
1.0 1:0.29646232 2:0.44111924 3:0.5807628 
1.0 1:0.3173609 2:0.40776096 3:0.22389217 
1.0 1:0.25288354 2:0.35778708 3:0.61950621 
1.0 1:0.35264623 2:0.40588539 3:0.35548221 
1.0 1:0.36865358 2:0.44571429 3:0.29178569 
1.0 1:0.21455532 2:0.37097818 3:0.68725556 
1.0 1:0.4200038 2:0.4245959 3:0.17134612 
1.0 1:0.27309428 2:0.44256917 3:0.59577206 
1.0 1:0.25001347 2:0.39556603 3:0.25206681 
1.0 1:0.17354753 2:0.42547652 3:0.67758492 
1.0 1:0.20761309 2:0.41168695 3:0.49222203 
1.0 1:0.24576906 2:0.44040816 3:0.67906489 
1.0 1:0.2342244 2:0.36878848 3:0.21986276 
1.0 1:0.23921394 2:0.3991611 3:0.49496734 
1.0 1:0.35401111 2:0.5072141 3:0.63650862 
1.0 1:0.19764885 2:0.4245959 3:0.60705482 
1.0 1:0.29539974 2:0.44452198 3:0.39368822 
1.0 1:0.21614093 2:0.42038288 3:0.63453294 
1.0 1:0.1568712 2:0.3810941 3:0.42011134 
1.0 1:0.26086133 2:0.38154847 3:0.55713996 
1.0 1:0.42771413 2:0.52034538 3:0.61247483 
1.0 1:0.48430752 2:0.47406151 3:0.54526425 
1.0 1:0.19642501 2:0.42078063 3:0.60398311 
