svm_type c_svc
kernel_type linear
nr_class 2
total_sv 3612
rho 6.939212043868759
label 1 -1
nr_sv 1805 1807
SV
1.0 1:0.52029666 2:0.36567849 3:0.43878624 
1.0 1:0.42535365 2:0.24800419 3:0.38058404 
1.0 1:0.47752066 2:0.32641494 3:0.48732129 
1.0 1:0.2521025 2:0.22788659 3:0.30133513 
1.0 1:0.43276725 2:0.36081633 3:0.41380517 
1.0 1:0.29919711 2:0.29183673 3:0.36605842 
1.0 1:0.42208164 2:0.21755102 3:0.29709089 
1.0 1:0.45806925 2:0.40914013 3:0.62763899 
1.0 1:0.42244164 2:0.20457007 3:0.27044607 
1.0 1:0.43276725 2:0.29183673 3:0.49868828 
1.0 1:0.46129394 2:0.30208223 3:0.39649359 
1.0 1:0.46844881 2:0.37384037 3:0.38737724 
1.0 1:0.77073362 2:0.91869036 3:0.9199048 
1.0 1:0.45466919 2:0.29361113 3:0.42704438 
1.0 1:0.84416328 2:1.05061224 3:0.92310383 
1.0 1:0.83217493 2:1.09277267 3:1.13670668 
1.0 1:0.45056618 2:0.23848597 3:0.2537559 
1.0 1:0.49884112 2:0.37627786 3:0.43878624 
1.0 1:0.48359756 2:0.28985418 3:0.37477603 
1.0 1:0.37679578 2:0.22733536 3:0.38214242 
1.0 1:0.51143712 2:0.36208612 3:0.44655194 
1.0 1:0.71339645 2:0.93274513 3:0.89343223 
1.0 1:0.46284757 2:0.37314232 3:0.47017919 
1.0 1:0.48830777 2:0.30684961 3:0.4267394 
1.0 1:0.39716312 2:0.19702398 3:0.30362 
1.0 1:0.37663471 2:0.35425548 3:0.418426 
1.0 1:0.42208164 2:0.22816327 3:0.42972075 
1.0 1:0.44345286 2:0.43510204 3:0.50929866 
1.0 1:0.73485198 2:0.80555261 3:0.81942009 
1.0 1:0.41299617 2:0.28217054 3:0.31222856 
1.0 1:0.49153811 2:0.31836735 3:0.39788958 
1.0 1:0.49021673 2:0.31991624 3:0.26152522 
1.0 1:0.52566054 2:0.35507911 3:0.34362778 
1.0 1:0.43447453 2:0.25438503 3:0.49165206 
1.0 1:0.46901613 2:0.29479107 3:0.33830793 
1.0 1:0.45515714 2:0.25857974 3:0.34116862 
1.0 1:0.23064697 2:0.25438503 3:0.41235334 
1.0 1:0.36865358 2:0.30244898 3:0.41911036 
1.0 1:0.32183298 2:0.15369096 3:0.37006069 
1.0 1:0.44298963 2:0.22228347 3:0.31932449 
1.0 1:0.39002481 2:0.14857143 3:0.25464933 
1.0 1:0.53900978 2:0.43723766 3:0.54026155 
1.0 1:0.37933919 2:0.26530612 3:0.29178569 
1.0 1:0.40779277 2:0.25536081 3:0.34350998 
1.0 1:0.54047658 2:0.46899117 3:0.58562696 
1.0 1:0.48619531 2:0.31836735 3:0.48807789 
1.0 1:0.50787516 2:0.36938174 3:0.41214748 
1.0 1:0.64647947 2:0.71102041 3:0.67375969 
1.0 1:0.4825839 2:0.318373 3:0.47492736 
1.0 1:0.72127875 2:0.78530612 3:0.81699994 
1.0 1:0.43629801 2:0.19295904 3:0.30643416 
1.0 1:0.43492793 2:0.23868899 3:0.35135276 
1.0 1:0.4310337 2:0.21332768 3:0.35690023 
1.0 1:0.40779277 2:0.20625296 3:0.30915898 
1.0 1:0.47538634 2:0.30830661 3:0.37172103 
1.0 1:0.41016244 2:0.17856302 3:0.29939278 
1.0 1:0.48350771 2:0.29702162 3:0.35829507 
1.0 1:0.44470991 2:0.207473 3:0.30842301 
1.0 1:0.39796049 2:0.22107522 3:0.46725323 
1.0 1:0.45297959 2:0.3243184 3:0.41332324 
1.0 1:0.43002526 2:0.22473388 3:0.3525234 
1.0 1:0.49884112 2:0.33388036 3:0.51279838 
1.0 1:0.71593595 2:0.79591837 3:0.79047397 
1.0 1:0.46844881 2:0.26775054 3:0.12563586 
1.0 1:0.46482408 2:0.23877551 3:0.17507142 
1.0 1:0.44303412 2:0.27009317 3:0.35332455 
1.0 1:0.44808147 2:0.24754295 3:0.36643793 
1.0 1:0.4808525 2:0.48285714 3:0.57826619 
1.0 1:0.47202171 2:0.28088348 3:0.43878624 
1.0 1:0.42128856 2:0.21053419 3:0.36235628 
1.0 1:0.45741453 2:0.24728405 3:0.14213538 
1.0 1:0.37399639 2:0.19102041 3:0.19629219 
1.0 1:0.75630751 2:0.87444856 3:0.87228591 
1.0 1:0.45839659 2:0.38224567 3:0.3971353 
1.0 1:0.43811006 2:0.22285714 3:0.22281817 
1.0 1:0.47550969 2:0.28653061 3:0.40319478 
1.0 1:0.45297959 2:0.2893918 3:0.37760395 
1.0 1:0.44233493 2:0.26706677 3:0.36041471 
1.0 1:0.42789856 2:0.25735774 3:0.35053594 
1.0 1:0.50423142 2:0.33818941 3:0.33059592 
1.0 1:0.45413847 2:0.23877551 3:0.2864805 
1.0 1:0.78016399 2:0.94740383 3:0.96297422 
1.0 1:0.43322282 2:0.23090079 3:0.36017436 
1.0 1:0.48350771 2:0.2871209 3:0.23033254 
1.0 1:0.43447453 2:0.24378566 3:0.40178018 
1.0 1:0.73196436 2:0.85959184 3:0.89657786 
1.0 1:0.390082 2:0.18547059 3:0.36732006 
1.0 1:0.43325295 2:0.25608332 3:0.4136218 
1.0 1:0.48274947 2:0.39217693 3:0.52865813 
1.0 1:0.46021444 2:0.29338855 3:0.40736551 
1.0 1:0.43983841 2:0.22258691 3:0.41763992 
1.0 1:0.43983841 2:0.25968472 3:0.35948753 
1.0 1:0.51914515 2:0.40415062 3:0.44904253 
1.0 1:0.41811039 2:0.24563913 3:0.3455727 
1.0 1:0.80096837 2:1.02760733 3:1.03743099 
1.0 1:0.40765511 2:0.20668784 3:0.38592043 
1.0 1:0.51885989 2:0.37337148 3:0.40397935 
1.0 1:0.48350771 2:0.2623691 3:0.18938453 
1.0 1:0.84294513 2:1.02984658 3:1.05993641 
1.0 1:0.51505234 2:0.37231721 3:0.4825948 
1.0 1:0.36412571 2:0.21382555 3:0.37172103 
1.0 1:0.48370168 2:0.35089031 3:0.44674062 
1.0 1:0.38113873 2:0.21346187 3:0.38708125 
1.0 1:0.4191208 2:0.1788077 3:0.25614743 
1.0 1:0.45067232 2:0.35712603 3:0.45670085 
1.0 1:0.6678507 2:0.70571429 3:0.77455839 
1.0 1:0.40071042 2:0.40857143 3:0.51990905 
1.0 1:0.42648965 2:0.30076312 3:0.36235628 
1.0 1:0.32246778 2:0.11529253 3:0.1290584 
1.0 1:0.72948809 2:0.79495323 3:0.79298719 
1.0 1:0.50222372 2:0.33959184 3:0.51990905 
1.0 1:0.49527051 2:0.35436876 3:0.37719984 
1.0 1:0.41309987 2:0.16829394 3:0.17266279 
1.0 1:0.513887 2:0.39082123 3:0.52382956 
1.0 1:0.46665783 2:0.33918005 3:0.47579231 
1.0 1:0.66250789 2:0.80122449 3:0.75333761 
1.0 1:0.38284807 2:0.14738348 3:0.27256438 
1.0 1:0.46493522 2:0.31762121 3:0.30237381 
1.0 1:0.53064698 2:0.43803917 3:0.67393038 
1.0 1:0.54543509 2:0.43031148 3:0.5033488 
1.0 1:0.79073522 2:0.92857143 3:0.98676616 
1.0 1:0.49118219 2:0.33232561 3:0.33998841 
1.0 1:0.44406847 2:0.25612994 3:0.25614743 
1.0 1:0.42208164 2:0.33428571 3:0.38727919 
1.0 1:0.50130965 2:0.3372857 3:0.33491396 
1.0 1:0.48248624 2:0.31406444 3:0.37873804 
1.0 1:0.5085229 2:0.30813998 3:0.19827791 
1.0 1:0.44808147 2:0.22228347 3:0.17274931 
1.0 1:0.46844881 2:0.27280243 3:0.36120311 
1.0 1:0.81526116 2:0.96225625 3:0.89817833 
1.0 1:0.48776247 2:0.31188933 3:0.40027229 
1.0 1:0.50420501 2:0.39217693 3:0.52337154 
1.0 1:0.44788993 2:0.33429742 3:0.38780946 
1.0 1:0.37663471 2:0.27442326 3:0.3827067 
1.0 1:0.43276725 2:0.20163265 3:0.34483764 
1.0 1:0.37277312 2:0.14738348 3:0.39424491 
1.0 1:0.40225496 2:0.27785433 3:0.09946172 
1.0 1:0.44329777 2:0.27020305 3:0.36017436 
1.0 1:0.40734679 2:0.3233214 3:0.06805276 
1.0 1:0.46079978 2:0.30752519 3:0.45670085 
1.0 1:0.80676364 2:1.02938776 3:0.97615577 
1.0 1:0.43976869 2:0.20264804 3:0.30352741 
1.0 1:0.45056618 2:0.28088348 3:0.44935941 
1.0 1:0.4071492 2:0.15826179 3:0.27411823 
1.0 1:0.42374676 2:0.23848597 3:0.31190829 
1.0 1:0.41016244 2:0.27776469 3:0.29939278 
1.0 1:0.51351682 2:0.35357651 3:0.49072854 
1.0 1:0.41088637 2:0.15539428 3:0.34250114 
1.0 1:0.49736875 2:0.3089757 3:0.33580459 
1.0 1:0.51316676 2:0.35716359 3:0.40540399 
1.0 1:0.73730717 2:0.80653061 3:0.82230514 
1.0 1:0.78539242 2:0.90204082 3:0.8594415 
1.0 1:0.46235817 2:0.26661507 3:0.3900089 
1.0 1:0.87087731 2:1.07183673 3:1.06634408 
1.0 1:0.83676576 2:1.00164107 3:1.02559676 
1.0 1:0.38619958 2:0.22258691 3:0.35948753 
1.0 1:0.46844881 2:0.3233214 3:0.40831656 
1.0 1:0.40048418 2:0.26066137 3:0.4517044 
1.0 1:0.49367251 2:0.33406922 3:0.51592544 
1.0 1:0.44071985 2:0.22754952 3:0.37672803 
1.0 1:0.47032904 2:0.32322467 3:0.40736551 
1.0 1:0.42535365 2:0.26784452 3:0.45670085 
1.0 1:0.45948128 2:0.23346939 3:0.24403894 
1.0 1:0.42244164 2:0.24448618 3:0.3367819 
1.0 1:0.39769396 2:0.21776424 3:0.43689986 
1.0 1:0.51891147 2:0.430105 3:0.53162675 
1.0 1:0.4825839 2:0.39796625 3:0.47982352 
1.0 1:0.32183298 2:0.19608846 3:0.23789616 
1.0 1:0.47092725 2:0.27776469 3:0.45162639 
1.0 1:0.47249413 2:0.2868495 3:0.34518592 
1.0 1:0.42128856 2:0.19048331 3:0.09431191 
1.0 1:0.14608676 2:0.30950531 3:0.47698767 
1.0 1:0.44833524 2:0.23581357 3:0.42831546 
1.0 1:0.48274947 2:0.31798129 3:0.44407283 
1.0 1:0.43548111 2:0.24304411 3:0.28416942 
1.0 1:0.81828347 2:0.96652809 3:0.90859844 
1.0 1:0.40568528 2:0.34086487 3:0.52119739 
1.0 1:0.50647419 2:0.35114669 3:0.35741956 
1.0 1:0.45320492 2:0.27867591 3:0.41078813 
1.0 1:0.81744925 2:1.00816327 3:0.96554539 
1.0 1:0.28964968 2:0.20668784 3:0.37006069 
1.0 1:0.43983841 2:0.29148285 3:0.5075118 
1.0 1:0.47850058 2:0.30577584 3:0.38221142 
1.0 1:0.49691808 2:0.32773691 3:0.42596578 
1.0 1:0.41282725 2:0.23571767 3:0.3042517 
1.0 1:0.43771061 2:0.33928694 3:0.46945356 
1.0 1:0.40659706 2:0.16922362 3:0.33395257 
1.0 1:0.47856009 2:0.30950531 3:0.41858102 
1.0 1:0.45948128 2:0.24938776 3:0.40319478 
1.0 1:0.4891809 2:0.31362197 3:0.4357087 
1.0 1:0.44298963 2:0.22733536 3:0.25650655 
1.0 1:0.39916267 2:0.23196674 3:0.34797387 
1.0 1:0.41786173 2:0.19152061 3:0.25517884 
1.0 1:0.32766888 2:0.12531797 3:0.31768222 
1.0 1:0.47032904 2:0.3530608 3:0.42773379 
1.0 1:0.45413847 2:0.26 3:0.40849997 
1.0 1:0.62221043 2:0.87444856 3:0.89343223 
1.0 1:0.48105472 2:0.44640754 3:0.44147749 
1.0 1:0.43998523 2:0.20885287 3:0.31570827 
1.0 1:0.50130965 2:0.34224578 3:0.49222203 
1.0 1:0.48550095 2:0.3132793 3:0.3768131 
1.0 1:0.42481333 2:0.27847049 3:0.28006379 
1.0 1:0.55412221 2:0.41758653 3:0.42831546 
1.0 1:0.40225496 2:0.1667126 3:0.30885483 
1.0 1:0.36474405 2:0.32858067 3:0.57095078 
1.0 1:0.3375108 2:0.1424707 3:0.21415773 
1.0 1:0.45297959 2:0.24947569 3:0.35209017 
1.0 1:0.5428656 2:0.41049152 3:0.51777888 
1.0 1:0.48274947 2:0.34447973 3:0.50222522 
1.0 1:0.523901 2:0.37211331 3:0.44463328 
1.0 1:0.50881813 2:0.361337 3:0.44181361 
1.0 1:0.39536761 2:0.14326531 3:0.32361686 
1.0 1:0.65013666 2:0.67671702 3:0.41199412 
1.0 1:0.48863504 2:0.47162714 3:0.53539433 
1.0 1:0.39692735 2:0.16959002 3:0.37006069 
1.0 1:0.79318061 2:0.91341823 3:0.97524366 
1.0 1:0.40299797 2:0.19651131 3:0.36504159 
1.0 1:0.6951715 2:0.70252792 3:0.71061429 
1.0 1:0.36197056 2:0.14021385 3:0.26135418 
1.0 1:0.45324606 2:0.33260338 3:0.42227045 
1.0 1:0.39002481 2:0.2122449 3:0.32361686 
1.0 1:0.76976181 2:0.85216218 3:0.83391582 
1.0 1:0.40568528 2:0.22055962 3:0.29782708 
1.0 1:0.42771413 2:0.22733536 3:0.37690759 
1.0 1:0.42374676 2:0.26498441 3:0.41235334 
1.0 1:0.44209293 2:0.26567409 3:0.36732006 
1.0 1:0.44833524 2:0.32424366 3:0.36990881 
1.0 1:0.65975761 2:0.8532498 3:0.85642616 
1.0 1:0.88659553 2:1.09063776 3:1.03185088 
1.0 1:0.42494502 2:0.17369832 3:0.1419725 
1.0 1:0.40229123 2:0.23848597 3:0.30133513 
1.0 1:0.34847325 2:0.21053419 3:0.40703034 
1.0 1:0.41673883 2:0.30244898 3:0.40319478 
1.0 1:0.48105472 2:0.31248528 3:0.43640303 
1.0 1:0.45593006 2:0.28618316 3:0.45464599 
1.0 1:0.40229123 2:0.21198753 3:0.43349966 
1.0 1:0.35401628 2:0.19078878 3:0.37006069 
1.0 1:0.35262517 2:0.11673469 3:0.3766688 
1.0 1:0.44504253 2:0.27847049 3:0.39208931 
1.0 1:0.72815306 2:0.84714946 3:0.85873474 
1.0 1:0.44560858 2:0.25792436 3:0.44655194 
1.0 1:0.4676689 2:0.26450595 3:0.24746273 
1.0 1:0.39172156 2:0.19823338 3:0.30007332 
1.0 1:0.46235817 2:0.31188933 3:0.42079908 
1.0 1:0.40071042 2:0.24938776 3:0.46685711 
1.0 1:0.72412421 2:0.87444856 3:0.87228591 
1.0 1:0.44585467 2:0.26871563 3:0.40522172 
1.0 1:0.87602596 2:1.11105877 3:0.92862506 
1.0 1:0.4976268 2:0.3907088 3:0.40610108 
1.0 1:0.44470991 2:0.23159776 3:0.34269224 
1.0 1:0.42374676 2:0.29678254 3:0.3383412 
1.0 1:0.47092725 2:0.28768486 3:0.31461614 
1.0 1:0.48274947 2:0.36567849 3:0.58152394 
0.9974833725728816 1:0.84997293 2:1.03282936 3:1.11750357 
1.0 1:0.71876033 2:0.82145167 3:0.82470668 
1.0 1:0.45100469 2:0.23637482 3:0.27677924 
1.0 1:0.4595061 2:0.29361113 3:0.39228495 
1.0 1:0.40717266 2:0.31932888 3:0.32657639 
1.0 1:0.42911064 2:0.30208223 3:0.44935941 
1.0 1:0.49234482 2:0.36292384 3:0.35084061 
1.0 1:0.41608746 2:0.33083943 3:0.4517044 
1.0 1:0.47550969 2:0.29183673 3:0.381974 
1.0 1:0.42262229 2:0.29301002 3:0.47113449 
1.0 1:0.41155556 2:0.34328219 3:0.51786847 
1.0 1:0.41301899 2:0.23318628 3:0.39649359 
1.0 1:0.38788555 2:0.37337148 3:0.40884658 
1.0 1:0.7640212 2:0.83836735 3:0.80108436 
1.0 1:0.47885372 2:0.35517475 3:0.4915976 
1.0 1:0.40191414 2:0.21088818 3:0.30573253 
1.0 1:0.70525033 2:0.76408163 3:0.75333761 
1.0 1:0.78380738 2:0.89312297 3:0.93890711 
1.0 1:0.43322282 2:0.27511583 3:0.38937769 
1.0 1:0.41301899 2:0.15899065 3:0.12687795 
1.0 1:0.43169074 2:0.21053419 3:0.37724763 
1.0 1:0.37547181 2:0.25968472 3:0.34891436 
1.0 1:0.40717266 2:0.31932888 3:0.45924804 
1.0 1:0.43447453 2:0.26498441 3:0.34362778 
1.0 1:0.84749352 2:1.0334392 3:1.07846258 
1.0 1:0.49688092 2:0.39265306 3:0.54112983 
1.0 1:0.7640212 2:0.96571429 3:0.96024019 
1.0 1:0.35401628 2:0.20138815 3:0.41763992 
1.0 1:0.5397345 2:0.42941124 3:0.54442207 
1.0 1:0.4447327 2:0.22148048 3:0.3218772 
1.0 1:0.4534023 2:0.30193913 3:0.33516894 
1.0 1:0.45515714 2:0.24863437 3:0.3768131 
1.0 1:0.55882773 2:0.44460292 3:0.48813001 
1.0 1:0.50365386 2:0.34157487 3:0.37876907 
1.0 1:0.43695388 2:0.25655413 3:0.36435042 
1.0 1:0.37399639 2:0.17510204 3:0.35014283 
1.0 1:0.44345286 2:0.28122449 3:0.32361686 
1.0 1:0.46665783 2:0.29678254 3:0.28018881 
1.0 1:0.42374676 2:0.36567849 3:0.54451787 
1.0 1:0.51936716 2:0.36878848 3:0.40831656 
1.0 1:0.41838288 2:0.24908535 3:0.34362778 
1.0 1:0.38541525 2:0.13027374 3:0.20561534 
1.0 1:0.4531733 2:0.30311382 3:0.46066483 
1.0 1:0.48351754 2:0.27941277 3:0.31126812 
1.0 1:0.46527174 2:0.28344318 3:0.44301 
1.0 1:0.4275313 2:0.21953861 3:0.36229568 
1.0 1:0.45618207 2:0.24174802 3:0.26135418 
1.0 1:0.51650086 2:0.3372857 3:0.33998841 
1.0 1:0.36269817 2:0.16703461 3:0.35530714 
1.0 1:0.74557974 2:1.0334392 3:1.11018206 
1.0 1:0.45515714 2:0.31825199 3:0.50411482 
1.0 1:0.40275829 2:0.28482552 3:0.4710994 
1.0 1:0.46848514 2:0.28002861 3:0.3455727 
1.0 1:0.46279293 2:0.27541036 3:0.32392069 
1.0 1:0.43689184 2:0.30577584 3:0.38221142 
1.0 1:0.51411831 2:0.33342618 3:0.28197887 
1.0 1:0.81847972 2:0.99078855 3:0.99634649 
1.0 1:0.42289621 2:0.30937944 3:0.3042517 
1.0 1:0.39528309 2:0.14536884 3:0.322646 
1.0 1:0.42818534 2:0.21124966 3:0.2774316 
1.0 1:0.46114057 2:0.37712692 3:0.46946955 
1.0 1:0.40048418 2:0.18045787 3:0.39710277 
1.0 1:0.50756653 2:0.41918367 3:0.55704541 
1.0 1:0.43447453 2:0.23318628 3:0.27490223 
1.0 1:0.50222372 2:0.29714286 3:0.22812336 
1.0 1:0.46586352 2:0.29264494 3:0.5277432 
1.0 1:0.42317548 2:0.15344448 3:0.12695793 
1.0 1:0.41139603 2:0.28122449 3:0.39788958 
1.0 1:0.35938016 2:0.06359626 3:0.21674983 
1.0 1:0.50970714 2:0.39099206 3:0.65025579 
1.0 1:0.4275313 2:0.24448618 3:0.35209017 
1.0 1:0.43048466 2:0.26046149 3:0.44690691 
1.0 1:0.49688092 2:0.33428571 3:0.29178569 
1.0 1:0.45009984 2:0.26355243 3:0.29024793 
1.0 1:0.77470681 2:0.87020408 3:0.8594415 
1.0 1:0.50787516 2:0.28887547 3:0.0 
1.0 1:0.40048418 2:0.23058506 3:0.38221142 
1.0 1:0.48776247 2:0.29679791 3:0.3951406 
1.0 1:0.45294627 2:0.23675627 3:0.15946865 
1.0 1:0.4200038 2:0.19299814 3:0.30842301 
1.0 1:0.31232343 2:0.15229626 3:0.30663493 
1.0 1:0.7640212 2:0.91265306 3:0.90188305 
1.0 1:0.75630751 2:0.92214575 3:0.94629804 
1.0 1:0.45717733 2:0.29916695 3:0.30573253 
1.0 1:0.4595061 2:0.34096776 3:0.43697564 
1.0 1:0.38681403 2:0.31932888 3:0.3367819 
1.0 1:0.44729402 2:0.30577584 3:0.59069037 
1.0 1:0.49177555 2:0.31646248 3:0.44048366 
1.0 1:0.29501357 2:0.24908535 3:0.32776804 
1.0 1:0.51382241 2:0.3684587 3:0.52565988 
1.0 1:0.51505234 2:0.3872099 3:0.50772995 
1.0 1:0.41668911 2:0.2219029 3:0.23229686 
1.0 1:0.45573605 2:0.27280461 3:0.43132858 
1.0 1:0.47329949 2:0.28572497 3:0.44674062 
1.0 1:0.48732089 2:0.47572449 3:0.60645306 
1.0 1:0.41301899 2:0.19078878 3:0.27490223 
1.0 1:0.47329949 2:0.2957504 3:0.41199412 
1.0 1:0.48105472 2:0.30752519 3:0.4617753 
1.0 1:0.47550969 2:0.30244898 3:0.56235061 
1.0 1:0.43322282 2:0.21124966 3:0.41858102 
1.0 1:0.46851571 2:0.29203949 3:0.12187962 
1.0 1:0.40518014 2:0.1350987 3:0.25457138 
1.0 1:0.37277312 2:0.16703461 3:0.42344824 
1.0 1:0.46021444 2:0.26852511 3:0.44810207 
1.0 1:0.41786173 2:0.19152061 3:0.35332455 
1.0 1:0.80331487 2:1.00035657 3:0.99075894 
1.0 1:0.38990751 2:0.34720586 3:0.27402051 
1.0 1:0.82067411 2:1.10233515 3:1.07317599 
1.0 1:0.48274947 2:0.30738192 3:0.38592043 
1.0 1:0.47354064 2:0.27785433 3:0.24080207 
1.0 1:0.44879567 2:0.26530612 3:0.44033114 
1.0 1:0.40229123 2:0.13249221 3:0.26432906 
1.0 1:0.43280596 2:0.30816571 3:0.30885483 
1.0 1:0.39692735 2:0.26498441 3:0.39120701 
1.0 1:0.43811006 2:0.25469388 3:0.45094153 
1.0 1:0.52722278 2:0.44041669 3:0.51146013 
1.0 1:0.46824856 2:0.33429742 3:0.37250119 
1.0 1:0.54633223 2:0.41535656 3:0.52231871 
1.0 1:0.79607803 2:0.97632653 3:0.94432461 
1.0 1:0.43629801 2:0.22672687 3:0.2916067 
1.0 1:0.5461148 2:0.43610653 3:0.55098009 
1.0 1:0.43447453 2:0.28618316 3:0.37534727 
1.0 1:0.83882047 2:1.03469388 3:1.08225966 
1.0 1:0.42374676 2:0.19078878 3:0.29604855 
1.0 1:0.45056618 2:0.29148285 3:0.30133513 
1.0 1:0.46567043 2:0.30230508 3:0.38081077 
1.0 1:0.40605322 2:0.15387755 3:0.33422725 
1.0 1:0.53464266 2:0.34858089 3:0.10993138 
1.0 1:0.49153811 2:0.31836735 3:0.42972075 
1.0 1:0.82309916 2:0.98094225 3:1.046866 
1.0 1:0.42911064 2:0.19608846 3:0.3383412 
1.0 1:0.43276725 2:0.34489796 3:0.40319478 
1.0 1:0.43139579 2:0.19778302 3:0.24218183 
1.0 1:0.46743903 2:0.27164555 3:0.35408703 
1.0 1:0.83979362 2:0.99790276 3:0.98993467 
1.0 1:0.39536761 2:0.15918367 3:0.35014283 
1.0 1:0.40229123 2:0.19078878 3:0.30133513 
1.0 1:0.40229123 2:0.20668784 3:0.40706676 
1.0 1:0.70734869 2:0.73185693 3:0.73464013 
1.0 1:0.5014182 2:0.39203561 3:0.44543291 
1.0 1:0.4825839 2:0.34178278 3:0.42596578 
1.0 1:0.43276725 2:0.26 3:0.37136361 
1.0 1:0.41608746 2:0.19048331 3:0.30775465 
1.0 1:0.71028392 2:0.90395201 3:0.92963924 
1.0 1:0.41673883 2:0.39795918 3:0.44563633 
1.0 1:0.41139603 2:0.22285714 3:0.381974 
1.0 1:0.45841019 2:0.26037748 3:0.3212366 
1.0 1:0.47946445 2:0.33184305 3:0.44612529 
1.0 1:0.77257852 2:0.88859708 3:0.88978416 
1.0 1:0.4631589 2:0.27941277 3:0.43883702 
1.0 1:0.72662156 2:0.76938776 3:0.54112983 
1.0 1:0.49284333 2:0.34710264 3:0.43106247 
1.0 1:0.46220126 2:0.34330633 3:0.36086463 
1.0 1:0.44520229 2:0.29678254 3:0.48107889 
1.0 1:0.3808357 2:0.19608846 3:0.32248146 
1.0 1:0.43983841 2:0.25968472 3:0.35948753 
1.0 1:0.49884112 2:0.33918005 3:0.44407283 
1.0 1:0.86338149 2:1.05267093 3:1.05728613 
1.0 1:0.49899982 2:0.34352899 3:0.40831656 
1.0 1:0.76360912 2:0.88963273 3:0.89054018 
1.0 1:0.82923427 2:1.01270282 3:1.10594642 
1.0 1:0.53857106 2:0.48795589 3:0.523433 
1.0 1:0.4373084 2:0.22255564 3:0.27919449 
1.0 1:0.41975603 2:0.33814274 3:0.23932724 
1.0 1:0.43771061 2:0.26444423 3:0.40822048 
1.0 1:0.76703528 2:1.02283983 3:1.00445044 
1.0 1:0.464343 2:0.28887547 3:0.42207874 
1.0 1:0.31726669 2:0.160407 3:0.37724763 
1.0 1:0.42821328 2:0.23759145 3:0.28438577 
1.0 1:0.55915968 2:0.82534749 3:0.87123258 
1.0 1:0.43322282 2:0.21124966 3:0.41858102 
1.0 1:0.47863248 2:0.31321761 3:0.38214242 
1.0 1:0.47599099 2:0.27280461 3:0.24357379 
1.0 1:0.77239916 2:0.87444856 3:0.83527984 
1.0 1:0.46482408 2:0.28122449 3:0.37136361 
1.0 1:0.51382241 2:0.3684587 3:0.52565988 
1.0 1:0.44965113 2:0.23642272 3:0.33779663 
1.0 1:0.45573605 2:0.39184662 3:0.61400892 
1.0 1:0.48369063 2:0.34096776 3:0.35255989 
1.0 1:0.50970714 2:0.81206043 3:0.86369853 
1.0 1:0.44788993 2:0.23450715 3:0.28065158 
1.0 1:0.43447453 2:0.35507911 3:0.52865813 
1.0 1:0.49153811 2:0.31306122 3:0.45624672 
1.0 1:0.49284333 2:0.36219406 3:0.5183013 
1.0 1:0.45122357 2:0.37712692 3:0.47430944 
1.0 1:0.76227747 2:0.8588117 3:0.84956793 
1.0 1:0.47742546 2:0.29461338 3:0.37308479 
1.0 1:0.44788993 2:0.30436034 3:0.46945356 
1.0 1:0.48740957 2:0.32372797 3:0.45348896 
1.0 1:0.35642844 2:0.19702398 3:0.2460369 
1.0 1:0.80551659 2:0.94778147 3:0.98145709 
1.0 1:0.42911064 2:0.33918005 3:0.3383412 
1.0 1:0.71592276 2:0.74959865 3:0.74902734 
1.0 1:0.42208164 2:0.22285714 3:0.39788958 
1.0 1:0.81607089 2:0.98255654 3:1.01724922 
1.0 1:0.43447453 2:0.34447973 3:0.54980445 
1.0 1:0.81376933 2:0.95514725 3:0.92424495 
1.0 1:0.50896583 2:0.33928694 3:0.41332324 
1.0 1:0.53169206 2:0.37696637 3:0.3958074 
1.0 1:0.45484026 2:0.34452519 3:0.36211185 
1.0 1:0.36865358 2:0.2122449 3:0.36075322 
1.0 1:0.84962666 2:1.02934627 3:0.94712482 
1.0 1:0.4275313 2:0.20955958 3:0.26534331 
1.0 1:0.77475128 2:0.91265542 3:0.90325279 
1.0 1:0.47401682 2:0.27466848 3:0.42207874 
1.0 1:0.47343463 2:0.24751802 3:0.19962154 
1.0 1:0.44332669 2:0.18809323 3:0.06601812 
1.0 1:0.44233493 2:0.24728405 3:0.32995713 
1.0 1:0.52010933 2:0.36592846 3:0.43681305 
1.0 1:0.79385469 2:1.02283983 3:1.03616993 
1.0 1:0.42159134 2:0.21225494 3:0.26689426 
1.0 1:0.36924968 2:0.25125155 3:0.40365501 
1.0 1:0.41838288 2:0.23848597 3:0.34891436 
1.0 1:0.32591114 2:0.18571429 3:0.25464933 
1.0 1:0.37547181 2:0.18548909 3:0.30133513 
1.0 1:0.74557974 2:0.95924357 3:0.94629804 
1.0 1:0.33256075 2:0.2702841 3:0.31190829 
1.0 1:0.4640266 2:0.28029314 3:0.39630357 
1.0 1:0.37447872 2:0.22055962 3:0.45666819 
1.0 1:0.71640112 2:0.74451001 3:0.54395978 
1.0 1:0.72539635 2:0.7663941 3:0.74955206 
1.0 1:0.44054485 2:0.3670462 3:0.4617753 
1.0 1:0.47742546 2:0.32359174 3:0.38303372 
1.0 1:0.43983841 2:0.22258691 3:0.40178018 
1.0 1:0.72662156 2:0.80653061 3:0.75333761 
1.0 1:0.384682 2:0.23346939 3:0.29709089 
1.0 1:0.50169614 2:0.33710083 3:0.44555041 
1.0 1:0.42317548 2:0.24254127 3:0.05586149 
1.0 1:0.72319412 2:0.85530222 3:0.89620413 
1.0 1:0.47599099 2:0.31744536 3:0.37550959 
1.0 1:0.4217113 2:0.27667602 3:0.35921873 
1.0 1:0.43447453 2:0.21728722 3:0.35948753 
1.0 1:0.84257711 2:1.03262005 3:1.07714127 
1.0 1:0.50300504 2:0.38734643 3:0.46185265 
1.0 1:0.37663471 2:0.3243184 3:0.24493229 
1.0 1:0.72539635 2:0.99729488 3:0.96857701 
1.0 1:0.50034802 2:0.3646855 3:0.39057515 
1.0 1:0.73547129 2:0.84008584 3:0.85663092 
1.0 1:0.48274947 2:0.30738192 3:0.37534727 
1.0 1:0.39292302 2:0.32424366 3:0.506191 
1.0 1:0.46079978 2:0.31248528 3:0.51251984 
1.0 1:0.8256545 2:1.00180011 3:0.94710609 
1.0 1:0.41309987 2:0.1583943 3:0.30977736 
1.0 1:0.39536761 2:0.18571429 3:0.33953244 
1.0 1:0.33286997 2:0.29073768 3:0.42688548 
1.0 1:0.35262517 2:0.22285714 3:0.29178569 
1.0 1:0.49153811 2:0.36081633 3:0.44563633 
1.0 1:0.8601917 2:1.10367347 3:1.01859733 
1.0 1:0.39709613 2:0.22255564 3:0.30965207 
1.0 1:0.75859523 2:0.83043878 3:0.80963896 
1.0 1:0.47092725 2:0.31744536 3:0.48207312 
1.0 1:0.46482408 2:0.27591837 3:0.45094153 
1.0 1:0.4531733 2:0.28290623 3:0.40308173 
1.0 1:0.48044365 2:0.28344318 3:0.27497172 
1.0 1:0.45806925 2:0.33928694 3:0.40822048 
1.0 1:0.48105472 2:0.30256511 3:0.31461614 
1.0 1:0.42128856 2:0.27569953 3:0.33753736 
1.0 1:0.42159134 2:0.27496663 3:0.30149167 
1.0 1:0.84749352 2:1.04933827 3:0.98859069 
1.0 1:0.37154505 2:0.23949666 3:0.35719292 
1.0 1:0.45413847 2:0.3077551 3:0.4721623 
1.0 1:0.80142083 2:0.98693878 3:1.07164927 
1.0 1:0.42208164 2:0.21755102 3:0.33953244 
1.0 1:0.45806925 2:0.38918208 3:0.418426 
1.0 1:0.40229123 2:0.23848597 3:0.41763992 
1.0 1:0.35796797 2:0.16979592 3:0.190987 
1.0 1:0.44504253 2:0.3132793 3:0.43282586 
1.0 1:0.48097458 2:0.32394235 3:0.38235149 
1.0 1:0.81210645 2:1.01877551 3:1.08225966 
1.0 1:0.80095846 2:0.98255654 3:0.89556869 
1.0 1:0.38676306 2:0.17405858 3:0.40655095 
1.0 1:0.769364 2:0.90734694 3:0.74272722 
1.0 1:0.46279293 2:0.22709275 3:0.2043192 
1.0 1:0.50918349 2:0.3283733 3:0.36120311 
1.0 1:0.52558643 2:0.40264821 3:0.54836974 
1.0 1:0.39692735 2:0.2702841 3:0.4229265 
1.0 1:0.81103341 2:0.95799262 3:0.95884256 
1.0 1:0.37547181 2:0.19608846 3:0.3383412 
1.0 1:0.44435943 2:0.25750758 3:0.33293877 
1.0 1:0.49527051 2:0.32483803 3:0.44761048 
1.0 1:0.35796797 2:0.18040816 3:0.33422725 
1.0 1:0.49874253 2:0.30688896 3:0.22344596 
1.0 1:0.49561555 2:0.30830661 3:0.38699724 
1.0 1:0.5014182 2:0.32590912 3:0.20291944 
1.0 1:0.59442201 2:0.65831288 3:0.63760597 
1.0 1:0.71059314 2:0.92326531 3:0.954935 
1.0 1:0.41469873 2:0.26355243 3:0.38190517 
1.0 1:0.36407653 2:0.2155469 3:0.28789951 
1.0 1:0.36136574 2:0.18461201 3:0.27554883 
1.0 1:0.47863248 2:0.29806192 3:0.20415828 
1.0 1:0.37933919 2:0.19102041 3:0.31831167 
1.0 1:0.46347167 2:0.31369105 3:0.51409663 
1.0 1:0.70524645 2:0.78113245 3:0.80309149 
1.0 1:0.40272806 2:0.32169718 3:0.43689986 
1.0 1:0.43998523 2:0.1939348 3:0.28006379 
1.0 1:0.32719687 2:0.07949532 3:0.27490223 
1.0 1:0.41786173 2:0.19643139 3:0.34350998 
1.0 1:0.47250355 2:0.38154847 3:0.56211442 
1.0 1:0.76703528 2:0.85854949 3:0.845853 
1.0 1:0.80095846 2:0.97273097 3:0.98804589 
1.0 1:0.48550095 2:0.30830661 3:0.39718138 
1.0 1:0.44836877 2:0.29817651 3:0.41157942 
1.0 1:0.84749352 2:1.04933827 3:1.0996089 
1.0 1:0.39002481 2:0.13795918 3:0.31831167 
1.0 1:0.34254827 2:0.24072635 3:0.25796272 
1.0 1:0.44280027 2:0.21454909 3:0.34698741 
1.0 1:0.47738559 2:0.39217693 3:0.51279838 
1.0 1:0.450406 2:0.27495567 3:0.39655582 
1.0 1:0.44345286 2:0.31836735 3:0.42441555 
1.0 1:0.73137433 2:0.89852554 3:0.89481119 
1.0 1:0.3486524 2:0.20668784 3:0.3383412 
1.0 1:0.43976869 2:0.20264804 3:0.30352741 
1.0 1:0.80458246 2:0.95924357 3:0.92515172 
1.0 1:0.80142083 2:0.92326531 3:0.94432461 
1.0 1:0.45391555 2:0.2340978 3:0.34762725 
1.0 1:0.45249512 2:0.31580128 3:0.38221142 
1.0 1:0.46758164 2:0.27529447 3:0.38800818 
1.0 1:0.42820634 2:0.25597556 3:0.38303372 
1.0 1:0.47202171 2:0.29148285 3:0.40178018 
1.0 1:0.46021444 2:0.33317005 3:0.45319413 
1.0 1:0.45100469 2:0.2604947 3:0.38057145 
1.0 1:0.23676131 2:0.24563913 3:0.50132378 
1.0 1:0.44520229 2:0.27558379 3:0.30662171 
1.0 1:0.43771061 2:0.26444423 3:0.32657639 
1.0 1:0.43958138 2:0.26218953 3:0.40148499 
1.0 1:0.4310337 2:0.21332768 3:0.39655582 
1.0 1:0.43771061 2:0.31433937 3:0.41332324 
1.0 1:0.41813767 2:0.2029427 3:0.30977736 
1.0 1:0.40851869 2:0.20767828 3:0.08456589 
1.0 1:0.84950608 2:1.08244898 3:1.10878564 
1.0 1:0.86358517 2:1.05463796 3:0.98330411 
1.0 1:0.384682 2:0.32897959 3:0.45624672 
1.0 1:0.47842788 2:0.35924499 3:0.37760395 
1.0 1:0.42494502 2:0.21229795 3:0.283945 
1.0 1:0.44054485 2:0.29264494 3:0.41610522 
1.0 1:0.41838288 2:0.14309158 3:0.05286581 
1.0 1:0.48863504 2:0.45688879 3:0.57433209 
1.0 1:0.37447872 2:0.28572497 3:0.48645089 
1.0 1:0.45806925 2:0.36922402 3:0.37760395 
1.0 1:0.41673883 2:0.23877551 3:0.21220778 
1.0 1:0.45593006 2:0.32858067 3:0.47579231 
1.0 1:0.73836602 2:0.8602749 3:0.79436275 
1.0 1:0.64479675 2:0.75165575 3:0.73008317 
1.0 1:0.43828889 2:0.18314341 3:0.15234952 
1.0 1:0.43983841 2:0.27558379 3:0.27490223 
1.0 1:0.5685716 2:0.41867537 3:0.25904248 
1.0 1:0.45056618 2:0.30738192 3:0.49165206 
1.0 1:0.44504253 2:0.24863437 3:0.36153689 
1.0 1:0.33125394 2:0.19632653 3:0.41911036 
1.0 1:0.42200985 2:0.2059838 3:0.32076856 
1.0 1:0.48351754 2:0.38419256 3:0.45414529 
1.0 1:0.52187287 2:0.36238205 3:0.45348896 
1.0 1:0.390082 2:0.31078856 3:0.35739249 
1.0 1:0.4628973 2:0.31078856 3:0.46163197 
1.0 1:0.39692735 2:0.32858067 3:0.34891436 
1.0 1:0.4320577 2:0.25012319 3:0.37590066 
1.0 1:0.43799964 2:0.24062846 3:0.36313912 
1.0 1:0.73730717 2:0.83306122 3:0.81169475 
1.0 1:0.49960077 2:0.35246029 3:0.42227045 
1.0 1:0.41945561 2:0.25978263 3:0.39099111 
1.0 1:0.46527174 2:0.26355243 3:0.40736551 
1.0 1:0.38284807 2:0.34389479 3:0.38937769 
1.0 1:0.50537807 2:0.31499446 3:0.33193586 
1.0 1:0.64366597 2:0.65186165 3:0.68725556 
1.0 1:0.47505539 2:0.29038551 3:0.41743449 
1.0 1:0.76365253 2:0.92491984 3:0.95730896 
1.0 1:0.44808147 2:0.27785433 3:0.3978469 
1.0 1:0.42810578 2:0.31682307 3:0.35317656 
1.0 1:0.4631589 2:0.35924499 3:0.59702246 
1.0 1:0.45741453 2:0.27201245 3:0.32995713 
1.0 1:0.39292302 2:0.15720905 3:0.29203327 
1.0 1:0.3891836 2:0.26096258 3:0.33830793 
1.0 1:0.76456071 2:0.9373784 3:0.98779314 
1.0 1:0.78016399 2:0.92234024 3:0.91830016 
1.0 1:0.35401628 2:0.22788659 3:0.26961564 
1.0 1:0.73424141 2:0.79361341 3:0.78654035 
1.0 1:0.4531733 2:0.31321761 3:0.23556724 
1.0 1:0.36331078 2:0.14326531 3:0.1856818 
1.0 1:0.29385431 2:0.2122449 3:0.38727919 
1.0 1:0.4676689 2:0.29284587 3:0.28705677 
1.0 1:0.35796797 2:0.22816327 3:0.34483764 
1.0 1:0.35401628 2:0.27558379 3:0.46521915 
1.0 1:0.45067232 2:0.38192645 3:0.5937111 
1.0 1:0.49736875 2:0.35311509 3:0.52626092 
1.0 1:0.45826514 2:0.31321761 3:0.45543 
1.0 1:0.4378978 2:0.31826951 3:0.37167276 
1.0 1:0.40212266 2:0.29179518 3:0.34518592 
1.0 1:0.80513369 2:1.02177726 3:1.07578422 
1.0 1:0.77776304 2:1.01224045 3:0.99387728 
1.0 1:0.48550095 2:0.32819736 3:0.46847034 
1.0 1:0.44329777 2:0.2849414 3:0.40884658 
1.0 1:0.44833524 2:0.28985418 3:0.46238601 
1.0 1:0.36331078 2:0.24408163 3:0.25464933 
1.0 1:0.47738559 2:0.30208223 3:0.54980445 
1.0 1:0.48611845 2:0.38688654 3:0.45670085 
1.0 1:0.49234482 2:0.42668073 3:0.58640502 
1.0 1:0.47329949 2:0.2957504 3:0.47652332 
1.0 1:0.41243863 2:0.22228347 3:0.31932449 
1.0 1:0.74021586 2:0.8108523 3:0.845853 
1.0 1:0.47738559 2:0.34977942 3:0.58152394 
1.0 1:0.42725533 2:0.26706677 3:0.17259296 
1.0 1:0.49884112 2:0.38687724 3:0.44935941 
1.0 1:0.30453992 2:0.24408163 3:0.2864805 
1.0 1:0.45009984 2:0.29338855 3:0.34116862 
1.0 1:0.52053941 2:0.42819559 3:0.50293312 
1.0 1:0.44838359 2:0.28339923 3:0.35139708 
1.0 1:0.449058 2:0.28512579 3:0.32380902 
1.0 1:0.47249023 2:0.27867591 3:0.4355344 
1.0 1:0.44560858 2:0.31744536 3:0.27402051 
1.0 1:0.46021444 2:0.33814274 3:0.56012758 
1.0 1:0.50394287 2:0.35278275 3:0.42046843 
1.0 1:0.46114057 2:0.26592283 3:0.3775116 
1.0 1:0.34728236 2:0.35020408 3:0.36075322 
1.0 1:0.35401628 2:0.17488971 3:0.14802428 
1.0 1:0.38435492 2:0.17901674 3:0.31570827 
1.0 1:0.47092725 2:0.37200628 3:0.30954169 
1.0 1:0.35786241 2:0.19778302 3:0.39539891 
1.0 1:0.39867487 2:0.22699719 3:0.3034423 
1.0 1:0.46265973 2:0.30427283 3:0.29846783 
1.0 1:0.47333822 2:0.29937083 3:0.34188466 
1.0 1:0.72035887 2:0.79095801 3:0.80309149 
1.0 1:0.4628973 2:0.29073768 3:0.45666819 
1.0 1:0.46743903 2:0.27164555 3:0.3951406 
1.0 1:0.50896583 2:0.34926597 3:0.47965907 
1.0 1:0.42427694 2:0.24088935 3:0.42068664 
1.0 1:0.81376933 2:0.94549929 3:0.90941749 
1.0 1:0.67048538 2:0.68365978 3:0.60795684 
1.0 1:0.41088637 2:0.18045787 3:0.44674062 
1.0 1:0.39002481 2:0.18571429 3:0.39258439 
1.0 1:0.41506258 2:0.207473 3:0.35737905 
1.0 1:0.54353433 2:0.40529609 3:0.46508232 
1.0 1:0.79607803 2:0.97632653 3:0.84883111 
1.0 1:0.34248463 2:0.25741874 3:0.28151755 
1.0 1:0.78080857 2:0.94816706 3:1.04158532 
1.0 1:0.34257062 2:0.1583943 3:0.2945424 
1.0 1:0.48274947 2:0.29148285 3:0.41763992 
1.0 1:0.79385469 2:1.00164107 3:1.03088334 
1.0 1:0.44560858 2:0.34720586 3:0.42625412 
1.0 1:0.48351754 2:0.27941277 3:0.31126812 
1.0 1:0.51143712 2:0.33232561 3:0.33491396 
1.0 1:0.48330995 2:0.28482552 3:0.38767555 
1.0 1:0.46586352 2:0.28272478 3:0.39073295 
1.0 1:0.41783036 2:0.20291668 3:0.2794127 
1.0 1:0.44838359 2:0.28339923 3:0.43058515 
1.0 1:0.50623953 2:0.37786564 3:0.48997621 
1.0 1:0.47354064 2:0.26775054 3:0.27744586 
1.0 1:0.46244106 2:0.23244701 3:0.27411823 
1.0 1:0.69456472 2:0.78 3:0.83291552 
1.0 1:0.4447327 2:0.46264811 3:0.46269847 
1.0 1:0.78016399 2:0.88725121 3:0.84384339 
1.0 1:0.46527174 2:0.28841586 3:0.3768131 
1.0 1:0.44329777 2:0.40776096 3:0.43318268 
1.0 1:0.54873278 2:0.52819967 3:0.57474996 
1.0 1:0.41786173 2:0.18169904 3:0.35823184 
1.0 1:0.43447453 2:0.19608846 3:0.27490223 
1.0 1:0.43293266 2:0.22271343 3:0.32005455 
1.0 1:0.50970714 2:0.36091575 3:0.48148711 
1.0 1:0.48248624 2:0.35755029 3:0.17940223 
1.0 1:0.82177274 2:1.06269636 3:1.05232234 
1.0 1:0.40518014 2:0.22194786 3:0.46018672 
1.0 1:0.49884112 2:0.32858067 3:0.49693864 
1.0 1:0.41178689 2:0.23637482 3:0.36080151 
1.0 1:0.42789856 2:0.21281505 3:0.09652439 
1.0 1:0.79905364 2:1.02437358 3:0.91657241 
1.0 1:0.43447453 2:0.19078878 3:0.29604855 
1.0 1:0.44729402 2:0.25564865 3:0.37228385 
1.0 1:0.81531022 2:0.97514263 3:0.91457856 
1.0 1:0.44729402 2:0.28572497 3:0.43681305 
1.0 1:0.35796797 2:0.26530612 3:0.31831167 
1.0 1:0.36474405 2:0.21198753 3:0.29076197 
1.0 1:0.75630751 2:0.83735074 3:0.87228591 
1.0 1:0.42909987 2:0.2271341 3:0.31897605 
1.0 1:0.73855525 2:0.9925183 3:0.97786557 
1.0 1:0.450406 2:0.21806829 3:0.31724465 
1.0 1:0.82813486 2:0.97632653 3:0.954935 
1.0 1:0.69194091 2:0.8108523 3:0.73483479 
1.0 1:0.42725533 2:0.27695813 3:0.12183032 
1.0 1:0.32517498 2:0.16600561 3:0.20013615 
1.0 1:0.43689184 2:0.27569953 3:0.36235628 
1.0 1:0.45769621 2:0.25564865 3:0.41695791 
1.0 1:0.39536761 2:0.22816327 3:0.30770128 
1.0 1:0.39002481 2:0.16979592 3:0.39258439 
1.0 1:0.4252472 2:0.28091735 3:0.43086194 
1.0 1:0.45769621 2:0.29073768 3:0.33753736 
1.0 1:0.47550969 2:0.32367347 3:0.57826619 
1.0 1:0.51405549 2:0.34427645 3:0.37760395 
1.0 1:0.46851571 2:0.30193913 3:0.43165697 
1.0 1:0.47354064 2:0.33847709 3:0.41878621 
1.0 1:0.38791085 2:0.14849466 3:0.25391586 
1.0 1:0.45593006 2:0.34447973 3:0.49165206 
1.0 1:0.47333822 2:0.29937083 3:0.26024056 
1.0 1:0.74309011 2:0.84322783 3:0.90318782 
1.0 1:0.37547181 2:0.2702841 3:0.43878624 
1.0 1:0.34463303 2:0.23192451 3:0.24916976 
1.0 1:0.44406847 2:0.24163202 3:0.32864199 
1.0 1:0.40212266 2:0.2077186 3:0.27919449 
1.0 1:0.20919144 2:0.20668784 3:0.35420094 
1.0 1:0.55535209 2:0.46415621 3:0.59046686 
1.0 1:0.43998523 2:0.23868899 3:0.24951138 
1.0 1:0.37933919 2:0.33428571 3:0.45624672 
1.0 1:0.42262229 2:0.28290623 3:0.32979414 
1.0 1:0.44345286 2:0.27061224 3:0.35014283 
1.0 1:0.49369685 2:0.40914013 3:0.43373426 
1.0 1:0.49878651 2:0.36922402 3:0.56130317 
1.0 1:0.40806207 2:0.16334412 3:0.28946409 
1.0 1:0.47333822 2:0.26943375 3:0.36739844 
1.0 1:0.78312692 2:1.01224045 3:0.99387728 
1.0 1:0.4631589 2:0.2893918 3:0.39291222 
1.0 1:0.28964968 2:0.14309158 3:0.31719488 
1.0 1:0.45869361 2:0.31369105 3:0.42596578 
1.0 1:0.40717266 2:0.36423451 3:0.45414529 
1.0 1:0.46079978 2:0.34224578 3:0.41610522 
1.0 1:0.47550969 2:0.29183673 3:0.41911036 
1.0 1:0.67347661 2:0.75889282 3:0.82206153 
1.0 1:0.47850058 2:0.36091575 3:0.49637846 
1.0 1:0.70524645 2:0.82534749 3:0.83229481 
1.0 1:0.37154505 2:0.13970639 3:0.26024056 
1.0 1:0.48351754 2:0.27442326 3:0.28065158 
1.0 1:0.48370168 2:0.37094118 3:0.46163197 
1.0 1:0.44879567 2:0.42979592 3:0.51990905 
1.0 1:0.49736875 2:0.33349758 3:0.38091267 
1.0 1:0.40198244 2:0.17848711 3:0.39539891 
1.0 1:0.40605322 2:0.20163265 3:0.39788958 
1.0 1:0.41720226 2:0.17804452 3:0.2639657 
1.0 1:0.37399639 2:0.1644898 3:0.27587011 
1.0 1:0.37170395 2:0.24249105 3:0.35073345 
1.0 1:0.3164691 2:0.16429033 3:0.28547539 
1.0 1:0.42208164 2:0.14857143 3:0.17507142 
1.0 1:0.82452464 2:0.92306005 3:0.67866655 
1.0 1:0.47462137 2:0.35080551 3:0.44612529 
1.0 1:0.47202171 2:0.32858067 3:0.45993257 
1.0 1:0.83326088 2:1.04130792 3:1.10844635 
1.0 1:0.47032904 2:0.34311542 3:0.41754965 
1.0 1:0.34728236 2:0.1644898 3:0.23873375 
1.0 1:0.41753046 2:0.25764674 3:0.16227966 
1.0 1:0.43482746 2:0.18817318 3:0.15665931 
1.0 1:0.4320577 2:0.29426257 3:0.53628494 
1.0 1:0.37547181 2:0.22258691 3:0.47579231 
1.0 1:0.45948128 2:0.25469388 3:0.31300647 
1.0 1:0.42286446 2:0.18806912 3:0.32513478 
1.0 1:0.41139603 2:0.27591837 3:0.29709089 
1.0 1:0.76020628 2:0.85447656 3:0.82442395 
1.0 1:0.47032904 2:0.28344318 3:0.42264172 
1.0 1:0.42832962 2:0.32372797 3:0.37873804 
1.0 1:0.81210645 2:0.96571429 3:0.92310383 
1.0 1:0.37010793 2:0.30738192 3:0.3383412 
1.0 1:0.37547181 2:0.09539439 3:0.30133513 
1.0 1:0.50420501 2:0.47167225 3:0.43878624 
1.0 1:0.44435943 2:0.30900909 3:0.41617346 
1.0 1:0.39052764 2:0.22199607 3:0.35139708 
1.0 1:0.40734679 2:0.23743916 3:0.3978469 
1.0 1:0.46824856 2:0.27941277 3:0.418426 
1.0 1:0.44345286 2:0.24408163 3:0.40849997 
1.0 1:0.45056618 2:0.22788659 3:0.21674983 
1.0 1:0.42481333 2:0.38786961 3:0.40736551 
1.0 1:0.47842788 2:0.32930791 3:0.39801497 
1.0 1:0.47263958 2:0.32372797 3:0.48338933 
1.0 1:0.39692735 2:0.28618316 3:0.33305462 
1.0 1:0.51427532 2:0.35363279 3:0.3978469 
1.0 1:0.48330995 2:0.29955788 3:0.39749012 
1.0 1:0.82408375 2:0.97298898 3:0.98529772 
1.0 1:0.80676364 2:0.97632653 3:1.01329214 
1.0 1:0.36331078 2:0.28122449 3:0.43502594 
1.0 1:0.83470396 2:1.00788179 3:0.91339333 
1.0 1:0.45067232 2:0.39184662 3:0.45670085 
1.0 1:0.75094363 2:0.78435386 3:0.51279838 
1.0 1:0.75867839 2:0.89673469 3:0.87005189 
1.0 1:0.6750216 2:0.75165575 3:0.64734041 
1.0 1:0.79318061 2:0.93327514 3:0.99535177 
1.0 1:0.50222372 2:0.32367347 3:0.41380517 
1.0 1:0.4825839 2:0.29496322 3:0.25460024 
1.0 1:0.42535365 2:0.17856302 3:0.30446723 
1.0 1:0.41673883 2:0.29714286 3:0.41911036 
1.0 1:0.52722278 2:0.39306006 3:0.55615082 
1.0 1:0.37679578 2:0.18692019 3:0.28791552 
1.0 1:0.69990753 2:0.98693878 3:1.01329214 
1.0 1:0.47000161 2:0.27562015 3:0.43755181 
1.0 1:0.47599099 2:0.36208612 3:0.45670085 
1.0 1:0.39035647 2:0.15439851 3:0.07832965 
1.0 1:0.28964968 2:0.29678254 3:0.42821308 
1.0 1:0.47863248 2:0.29301002 3:0.24080207 
1.0 1:0.38941222 2:0.20885287 3:0.24951138 
1.0 1:0.35744799 2:0.08839413 3:0.2355497 
1.0 1:0.384682 2:0.24938776 3:0.36605842 
1.0 1:0.80416601 2:0.91308102 3:0.82154372 
1.0 1:0.44280027 2:0.21953861 3:0.26024056 
1.0 1:0.43828889 2:0.25244091 3:0.31993399 
1.0 1:0.40229123 2:0.19078878 3:0.29076197 
1.0 1:0.79500622 2:0.97217642 3:0.9895185 
1.0 1:0.45832501 2:0.27226982 3:0.19962154 
1.0 1:0.50067285 2:0.38786961 3:0.44301 
1.0 1:0.44729402 2:0.23058506 3:0.41199412 
1.0 1:0.47863248 2:0.3334252 3:0.41878621 
1.0 1:0.53900978 2:0.43723766 3:0.49158933 
1.0 1:0.4631589 2:0.25945472 3:0.36229568 
1.0 1:0.43048466 2:0.27466848 3:0.44194127 
1.0 1:0.47202171 2:0.41337568 3:0.54451787 
1.0 1:0.40163856 2:0.16922362 3:0.35815203 
1.0 1:0.48351754 2:0.32930791 3:0.56130317 
1.0 1:0.88156292 2:1.01346939 3:0.36075322 
1.0 1:0.5080859 2:0.36219406 3:0.43106247 
1.0 1:0.45215341 2:0.24031443 3:0.31575655 
1.0 1:0.48854425 2:0.38612811 3:0.5630351 
1.0 1:0.43293266 2:0.21281505 3:0.17272785 
1.0 1:0.41243863 2:0.18186829 3:0.0 
1.0 1:0.42481333 2:0.26852511 3:0.4582862 
1.0 1:0.71489597 2:0.70224223 3:0.41711926 
1.0 1:0.83798663 2:0.9911669 3:0.93409921 
1.0 1:0.38201653 2:0.21266428 3:0.30457581 
1.0 1:0.48550095 2:0.3928423 3:0.44301 
1.0 1:0.43492793 2:0.18896212 3:0.25460345 
1.0 1:0.54113126 2:0.41770573 3:0.47865448 
1.0 1:0.48890277 2:0.35089031 3:0.47652332 
1.0 1:0.40146322 2:0.20363353 3:0.34262863 
1.0 1:0.44435943 2:0.22473388 3:0.3770042 
1.0 1:0.4171924 2:0.2184261 3:0.38708125 
1.0 1:0.38390913 2:0.23665665 3:0.26862105 
1.0 1:0.50756653 2:0.37142857 3:0.53051944 
1.0 1:0.49930496 2:0.320814 3:0.43681305 
1.0 1:0.40734679 2:0.21723157 3:0.26174138 
1.0 1:0.42046914 2:0.20600606 3:0.39169267 
1.0 1:0.32719687 2:0.21728722 3:0.40178018 
1.0 1:0.80994634 2:1.0811364 3:1.11018206 
1.0 1:0.43041738 2:0.30752519 3:0.36536068 
1.0 1:0.48726929 2:0.37671874 3:0.38303372 
1.0 1:0.45948128 2:0.41918367 3:0.59418178 
1.0 1:0.47263958 2:0.24641979 3:0.13953507 
1.0 1:0.50637339 2:0.34720586 3:0.40595631 
1.0 1:0.83445475 2:1.09896389 3:1.1304393 
1.0 1:0.40071042 2:0.26530612 3:0.381974 
1.0 1:0.51347827 2:0.38603661 3:0.46738125 
1.0 1:0.33792463 2:0.20668784 3:0.32248146 
1.0 1:0.40163856 2:0.17405858 3:0.36299192 
1.0 1:0.44345286 2:0.2122449 3:0.36075322 
1.0 1:0.37933919 2:0.19632653 3:0.32361686 
1.0 1:0.3388392 2:0.19890749 3:0.36153689 
1.0 1:0.47333822 2:0.37421353 3:0.4643508 
1.0 1:0.39798646 2:0.28708967 3:0.34024726 
1.0 1:0.49884112 2:0.33918005 3:0.31719488 
1.0 1:0.43276725 2:0.19102041 3:0.29709089 
1.0 1:0.44520229 2:0.19608846 3:0.07401214 
1.0 1:0.45727731 2:0.29679791 3:0.46185265 
1.0 1:0.46844881 2:0.25259485 3:0.26697621 
1.0 1:0.46482408 2:0.24938776 3:0.30770128 
1.0 1:0.80785659 2:0.92560704 3:0.83646646 
1.0 1:0.38990751 2:0.3670462 3:0.47192421 
1.0 1:0.42742444 2:0.26530612 3:0.41380517 
1.0 1:0.34193956 2:0.23346939 3:0.1856818 
1.0 1:0.77027524 2:0.87903049 3:0.87349681 
1.0 1:0.81744925 2:0.9922449 3:1.03981811 
1.0 1:0.48811336 2:0.30738192 3:0.44935941 
1.0 1:0.62933229 2:0.70178062 3:0.68500228 
1.0 1:0.43548111 2:0.25792436 3:0.39073295 
1.0 1:0.42314787 2:0.20633687 3:0.27256438 
1.0 1:0.50130965 2:0.32240545 3:0.40088186 
1.0 1:0.47780584 2:0.36987452 3:0.47982352 
1.0 1:0.41469873 2:0.27847049 3:0.46337827 
1.0 1:0.48619531 2:0.32367347 3:0.4721623 
1.0 1:0.42028991 2:0.25296427 3:0.27402051 
1.0 1:0.83676576 2:1.01224045 3:0.97801753 
1.0 1:0.80578158 2:0.97169915 3:0.97234095 
1.0 1:0.45337272 2:0.28002861 3:0.40884658 
1.0 1:0.41139603 2:0.14857143 3:0.30770128 
1.0 1:0.45122357 2:0.27075779 3:0.38719138 
1.0 1:0.56207446 2:0.5208088 3:0.55311547 
1.0 1:0.38284807 2:0.25055192 3:0.38937769 
1.0 1:0.47738559 2:0.27558379 3:0.36477411 
1.0 1:0.4531733 2:0.3283733 3:0.41355138 
1.0 1:0.40765511 2:0.22788659 3:0.28547539 
1.0 1:0.46079978 2:0.30256511 3:0.49222203 
1.0 1:0.384682 2:0.17510204 3:0.31831167 
1.0 1:0.48726929 2:0.34291065 3:0.33328908 
1.0 1:0.47202171 2:0.32328098 3:0.40178018 
1.0 1:0.44610246 2:0.21707892 3:0.36574399 
1.0 1:0.45524907 2:0.27021506 3:0.48578087 
1.0 1:0.49118219 2:0.31248528 3:0.40088186 
1.0 1:0.47863248 2:0.3233214 3:0.18845379 
1.0 1:0.41735198 2:0.22951763 3:0.28575434 
1.0 1:0.40659706 2:0.17889354 3:0.20327547 
1.0 1:0.49884112 2:0.34977942 3:0.44935941 
1.0 1:0.51244053 2:0.35311509 3:0.42100874 
1.0 1:0.46080914 2:0.2411988 3:0.31137664 
1.0 1:0.79088352 2:0.96290541 3:0.94910812 
1.0 1:0.74309011 2:0.84322783 3:0.90318782 
1.0 1:0.5127064 2:0.35114335 3:0.43655866 
1.0 1:0.80916824 2:0.9398379 3:0.8198231 
1.0 1:0.40659706 2:0.24658298 3:0.41139084 
1.0 1:0.49561555 2:0.32819736 3:0.41245758 
1.0 1:0.83470396 2:1.02783984 3:1.11240082 
1.0 1:0.40518014 2:0.19299814 3:0.26436258 
1.0 1:0.49336444 2:0.42147404 3:0.4767007 
1.0 1:0.46665783 2:0.35507911 3:0.41235334 
1.0 1:0.51072558 2:0.36262204 3:0.43075041 
1.0 1:0.41506258 2:0.19299814 3:0.13218129 
1.0 1:0.37967981 2:0.28572497 3:0.50630603 
1.0 1:0.40964142 2:0.21879824 3:0.3106162 
1.0 1:0.48362912 2:0.28708967 3:0.35040389 
1.0 1:0.40765511 2:0.17488971 3:0.31719488 
1.0 1:0.55247995 2:0.60416446 3:0.58152394 
1.0 1:0.30988272 2:0.22285714 3:0.13793506 
1.0 1:0.450406 2:0.24177137 3:0.3222016 
1.0 1:0.41838288 2:0.21728722 3:0.39120701 
1.0 1:0.48550095 2:0.37295155 3:0.36662896 
1.0 1:0.55882713 2:0.45670299 3:0.58396697 
1.0 1:0.46527174 2:0.25857974 3:0.30552414 
1.0 1:0.41309987 2:0.23264163 3:0.36056053 
1.0 1:0.49021673 2:0.31007267 3:0.3218772 
1.0 1:0.39692735 2:0.25438503 3:0.40706676 
1.0 1:0.81531022 2:0.98044232 3:0.94101146 
1.0 1:0.46722519 2:0.26974069 3:0.4009607 
1.0 1:0.52238588 2:0.31728945 3:0.06455322 
1.0 1:0.40765511 2:0.15899065 3:0.22732299 
1.0 1:0.79385469 2:0.91684606 3:0.89871881 
1.0 1:0.757048 2:0.84511947 3:0.89291512 
1.0 1:0.44825194 2:0.27722018 3:0.32246556 
1.0 1:0.60449695 2:0.89412645 3:0.86149814 
1.0 1:0.42832962 2:0.30440092 3:0.19435241 
1.0 1:0.50956889 2:0.38157755 3:0.43349966 
1.0 1:0.43779449 2:0.20353341 3:0.29156769 
1.0 1:0.76720972 2:0.88033279 3:0.9185736 
1.0 1:0.72662156 2:1.03469388 3:1.01329214 
1.0 1:0.80416601 2:0.95798665 3:0.98993467 
1.0 1:0.44808147 2:0.26775054 3:0.40308173 
1.0 1:0.4808525 2:0.29714286 3:0.37136361 
1.0 1:0.45948128 2:0.31306122 3:0.40319478 
1.0 1:0.83882047 2:1.02408163 3:1.00268175 
1.0 1:0.38619958 2:0.19078878 3:0.38063385 
1.0 1:0.81210645 2:0.93387755 3:0.8594415 
1.0 1:0.45515714 2:0.25857974 3:0.46337827 
1.0 1:0.44015847 2:0.23204751 3:0.36249116 
1.0 1:0.80327713 2:0.97666202 3:0.92441942 
1.0 1:0.46313726 2:0.28210368 3:0.39117778 
1.0 1:0.40518014 2:0.16404842 3:0.10770327 
1.0 1:0.43976869 2:0.19782309 3:0.25946698 
1.0 1:0.45297959 2:0.24448618 3:0.37250119 
1.0 1:0.51427532 2:0.40920365 3:0.43449069 
1.0 1:0.34193956 2:0.15387755 3:0.2811753 
1.0 1:0.39536761 2:0.20693878 3:0.24403894 
1.0 1:0.44345286 2:0.28653061 3:0.31300647 
1.0 1:0.82279206 2:1.03469388 3:1.00268175 
1.0 1:0.78016399 2:1.02760733 3:1.0324672 
1.0 1:0.3848809 2:0.26567409 3:0.41695791 
1.0 1:0.75712695 2:0.96802475 3:1.0003788 
1.0 1:0.78803009 2:0.92831092 3:0.93502742 
1.0 1:0.42208164 2:0.28122449 3:0.4774675 
1.0 1:0.3848809 2:0.20552147 3:0.41695791 
1.0 1:0.43983841 2:0.24378566 3:0.31719488 
1.0 1:0.44309961 2:0.23192451 3:0.11960148 
1.0 1:0.47538634 2:0.30830661 3:0.43282586 
1.0 1:0.88418586 2:1.09778539 3:1.0672137 
1.0 1:0.47863248 2:0.29806192 3:0.34549862 
1.0 1:0.75562119 2:0.91377758 3:0.83716204 
1.0 1:0.53273828 2:0.42191474 3:0.48578087 
1.0 1:0.50420501 2:0.37627786 3:0.41763992 
1.0 1:0.4886072 2:0.32930791 3:0.45924804 
1.0 1:0.61976544 2:0.70040816 3:0.63131814 
1.0 1:0.8528574 2:1.0334392 3:0.97801753 
1.0 1:0.46824856 2:0.26444423 3:0.40822048 
1.0 1:0.43293266 2:0.22766262 3:0.36577663 
1.0 1:0.45826514 2:0.29806192 3:0.47113449 
1.0 1:0.47061359 2:0.29908651 3:0.39045642 
1.0 1:0.50450605 2:0.35590303 3:0.40703034 
1.0 1:0.4339196 2:0.25978263 3:0.39099111 
1.0 1:0.42821328 2:0.18809323 3:0.37579548 
1.0 1:0.81531022 2:0.95394388 3:0.96744437 
1.0 1:0.46586352 2:0.32736553 3:0.38058404 
1.0 1:0.45249512 2:0.33585215 3:0.14891354 
1.0 1:0.84416328 2:1.02938776 3:1.02920772 
1.0 1:0.40964142 2:0.20388018 3:0.25460345 
1.0 1:0.41811039 2:0.28002861 3:0.40884658 
1.0 1:0.65990918 2:0.67305123 3:0.64734041 
1.0 1:0.46586352 2:0.30256511 3:0.38565849 
1.0 1:0.46347167 2:0.26687149 3:0.41127731 
1.0 1:0.47842788 2:0.26943375 3:0.33167914 
1.0 1:0.45067232 2:0.27280461 3:0.40088186 
1.0 1:0.43169074 2:0.23058506 3:0.39710277 
1.0 1:0.78016399 2:1.00755646 3:1.08210505 
1.0 1:0.82177274 2:1.01758189 3:1.03743099 
1.0 1:0.45515714 2:0.29338855 3:0.39208931 
1.0 1:0.40605322 2:0.24408163 3:0.29709089 
1.0 1:0.76569614 2:0.89903923 3:0.86636536 
1.0 1:0.68654431 2:0.74689509 3:0.7098212 
1.0 1:0.48593308 2:0.28042771 3:0.32427278 
1.0 1:0.50222372 2:0.32367347 3:0.381974 
1.0 1:0.33659675 2:0.24408163 3:0.33953244 
1.0 1:0.33792463 2:0.27558379 3:0.43349966 
1.0 1:0.55124587 2:0.42267842 3:0.43282586 
1.0 1:0.40765511 2:0.21198753 3:0.41235334 
1.0 1:0.4531733 2:0.3233214 3:0.45019518 
1.0 1:0.78536509 2:0.92234024 3:0.9381553 
1.0 1:0.80458246 2:0.95924357 3:0.92515172 
1.0 1:0.47727304 2:0.29426257 3:0.33079258 
1.0 1:0.40765511 2:0.20138815 3:0.26961564 
1.0 1:0.49688092 2:0.37673469 3:0.44563633 
1.0 1:0.49347724 2:0.41867537 3:0.52337154 
1.0 1:0.44560858 2:0.22816385 3:0.43640303 
1.0 1:0.59539102 2:0.51936945 3:0.55509103 
1.0 1:0.49370472 2:0.36628682 3:0.54845827 
1.0 1:0.46482408 2:0.24408163 3:0.12732467 
1.0 1:0.44808147 2:0.23238726 3:0.25127173 
1.0 1:0.82813486 2:1.01346939 3:1.07695447 
1.0 1:0.79344357 2:0.930218 3:0.94551426 
1.0 1:0.78994249 2:0.93745584 3:0.98444405 
1.0 1:0.45056618 2:0.25968472 3:0.36477411 
1.0 1:0.70734869 2:0.98249286 3:0.97290179 
1.0 1:0.40605322 2:0.25469388 3:0.31831167 
1.0 1:0.48881615 2:0.30816571 3:0.43449069 
1.0 1:0.47092725 2:0.38688654 3:0.41103076 
1.0 1:0.41522618 2:0.24304411 3:0.33491396 
1.0 1:0.42810578 2:0.31682307 3:0.32246556 
1.0 1:0.52893775 2:0.40326531 3:0.44563633 
1.0 1:0.43983841 2:0.23318628 3:0.42821308 
1.0 1:0.41811039 2:0.28002861 3:0.3212366 
1.0 1:0.47016689 2:0.32367347 3:0.49868828 
1.0 1:0.39035647 2:0.23642272 3:0.35737905 
1.0 1:0.76703528 2:0.85854949 3:0.75069454 
1.0 1:0.49861732 2:0.34652523 3:0.18426603 
1.0 1:0.33792463 2:0.14309158 3:0.29076197 
1.0 1:0.33659675 2:0.20163265 3:0.31300647 
1.0 1:0.42911064 2:0.22258691 3:0.29076197 
1.0 1:0.45404753 2:0.2271341 3:0.28997823 
1.0 1:0.39536761 2:0.23877551 3:0.35544803 
1.0 1:0.41608746 2:0.30577584 3:0.41199412 
1.0 1:0.43447453 2:0.25438503 3:0.39649359 
1.0 1:0.49884112 2:0.34977942 3:0.53394471 
1.0 1:0.44808147 2:0.29301002 3:0.43972552 
1.0 1:0.43796676 2:0.20291668 3:0.22353016 
1.0 1:0.45297959 2:0.30436034 3:0.43883702 
1.0 1:0.4886072 2:0.31932888 3:0.39291222 
1.0 1:0.43983841 2:0.32328098 3:0.41235334 
1.0 1:0.44356226 2:0.25505931 3:0.46028068 
1.0 1:0.42832962 2:0.24158803 3:0.28903692 
1.0 1:0.51143712 2:0.3670462 3:0.55311547 
1.0 1:0.8296143 2:1.03781887 3:0.84195475 
1.0 1:0.41673883 2:0.23877551 3:0.35014283 
1.0 1:0.44983228 2:0.22731184 3:0.35255989 
1.0 1:0.33256075 2:0.16429033 3:0.38063385 
1.0 1:0.44280027 2:0.22452812 3:0.35209017 
1.0 1:0.51427532 2:0.36373658 3:0.30362 
1.0 1:0.47538634 2:0.30830661 3:0.42264172 
1.0 1:0.48811336 2:0.34977942 3:0.44935941 
1.0 1:0.76976181 2:0.88223849 3:0.99275693 
1.0 1:0.36965257 2:0.35216595 3:0.36536068 
1.0 1:0.82923427 2:1.03752396 3:1.05064909 
1.0 1:0.40734679 2:0.19702398 3:0.29838517 
1.0 1:0.46335697 2:0.25764674 3:0.26697621 
1.0 1:0.43695388 2:0.28673696 3:0.3951406 
1.0 1:0.53036449 2:0.37923843 3:0.4357581 
1.0 1:0.40003498 2:0.36208612 3:0.29939278 
1.0 1:0.39716312 2:0.19702398 3:0.31408966 
1.0 1:0.48611845 2:0.36208612 3:0.58356219 
1.0 1:0.41413127 2:0.32378691 3:0.32864199 
1.0 1:0.47249023 2:0.34007908 3:0.42068664 
1.0 1:0.45219645 2:0.28170649 3:0.32329685 
1.0 1:0.35938016 2:0.24908535 3:0.31190829 
1.0 1:0.4584401 2:0.3167886 3:0.4113437 
1.0 1:0.83834174 2:1.05639934 3:1.06226109 
1.0 1:0.49153811 2:0.31836735 3:0.44563633 
1.0 1:0.41282725 2:0.19643139 3:0.3042517 
1.0 1:0.50374746 2:0.30459253 3:0.18982162 
1.0 1:0.46344767 2:0.30950531 3:0.45265157 
1.0 1:0.39536761 2:0.20693878 3:0.3766688 
1.0 1:0.56905621 2:0.47286447 3:0.55422318 
1.0 1:0.44054485 2:0.23312394 3:0.27909496 
1.0 1:0.30888777 2:0.23312394 3:0.37043513 
1.0 1:0.44297208 2:0.27046474 3:0.14425945 
1.0 1:0.41813767 2:0.24749109 3:0.15742784 
1.0 1:0.75712695 2:0.85384747 3:0.84956793 
1.0 1:0.50222372 2:0.3555102 3:0.43502594 
1.0 1:0.66053885 2:0.69175518 3:0.65521957 
1.0 1:0.39292302 2:0.20633687 3:0.38937769 
1.0 1:0.39796049 2:0.27511583 3:0.40884658 
1.0 1:0.40964142 2:0.37792423 3:0.50411482 
1.0 1:0.3808357 2:0.34447973 3:0.34362778 
1.0 1:0.47092725 2:0.30256511 3:0.36536068 
1.0 1:0.51548563 2:0.35436876 3:0.41240516 
1.0 1:0.44329777 2:0.37337148 3:0.61326986 
1.0 1:0.48736196 2:0.33710083 3:0.30356182 
1.0 1:0.41506258 2:0.26537244 3:0.40633508 
1.0 1:0.51290933 2:0.34489796 3:0.19629219 
1.0 1:0.43322282 2:0.23090079 3:0.31636937 
1.0 1:0.46527174 2:0.29338855 3:0.44810207 
1.0 1:0.40803544 2:0.27511583 3:0.42831546 
1.0 1:0.79576727 2:0.96745471 3:0.95801043 
1.0 1:0.34193956 2:0.20163265 3:0.34483764 
1.0 1:0.46335697 2:0.40415176 3:0.50777828 
1.0 1:0.44280027 2:0.30436034 3:0.45924804 
1.0 1:0.6731935 2:0.88612245 3:0.89657786 
1.0 1:0.42234292 2:0.2184261 3:0.3267569 
1.0 1:0.68657703 2:0.78435386 3:0.78770061 
1.0 1:0.39692735 2:0.20138815 3:0.2537559 
1.0 1:0.74050877 2:0.81060914 3:0.82256037 
1.0 1:0.86894905 2:1.06523733 3:1.08903574 
1.0 1:0.42208164 2:0.29183673 3:0.41911036 
1.0 1:0.4531733 2:0.39909986 3:0.45543 
1.0 1:0.42820634 2:0.21250801 3:0.13431053 
1.0 1:0.42208164 2:0.18571429 3:0.36075322 
1.0 1:0.44329777 2:0.37337148 3:0.55486321 
1.0 1:0.82110836 2:0.97273097 3:0.9442409 
1.0 1:0.45100469 2:0.17366314 3:0.0 
1.0 1:0.45953357 2:0.26537244 3:0.32310982 
1.0 1:0.42742444 2:0.31836735 3:0.45094153 
1.0 1:0.43002526 2:0.35114669 3:0.40148499 
1.0 1:0.74554624 2:0.86464975 3:0.87123258 
1.0 1:0.4886072 2:0.34926597 3:0.36229568 
1.0 1:0.80994634 2:1.06523733 3:1.00445044 
1.0 1:0.45593006 2:0.24908535 3:0.35948753 
1.0 1:0.48370168 2:0.320814 3:0.53608874 
1.0 1:0.54482633 2:0.40415176 3:0.45543 
1.0 1:0.49118219 2:0.3670462 3:0.42625412 
1.0 1:0.52560108 2:0.3916318 3:0.4985089 
1.0 1:0.45806925 2:0.23450715 3:0.34188466 
1.0 1:0.50956889 2:0.34447973 3:0.33305462 
1.0 1:0.5086904 2:0.34652523 3:0.19962154 
1.0 1:0.45948128 2:0.25469388 3:0.3766688 
1.0 1:0.46468386 2:0.28103064 3:0.38407467 
1.0 1:0.44610246 2:0.2219029 3:0.34103156 
1.0 1:0.4378978 2:0.22228347 3:0.02093931 
1.0 1:0.5278952 2:0.42191474 3:0.48578087 
1.0 1:0.46079978 2:0.27280461 3:0.42117967 
1.0 1:0.44825194 2:0.25741874 3:0.30199155 
1.0 1:0.50896583 2:0.34427645 3:0.3827067 
1.0 1:0.47842788 2:0.35924499 3:0.48476182 
1.0 1:0.36865358 2:0.15918367 3:0.30239608 
1.0 1:0.48740957 2:0.30923268 3:0.42857199 
1.0 1:0.38619958 2:0.28088348 3:0.30133513 
1.0 1:0.50420501 2:0.32858067 3:0.34362778 
1.0 1:0.79544763 2:0.99197854 3:0.98636437 
1.0 1:0.71876033 2:0.78965354 3:0.80356035 
1.0 1:0.69013402 2:0.70252792 3:0.69601262 
1.0 1:0.53281253 2:0.39565448 3:0.42132987 
1.0 1:0.46347167 2:0.25750758 3:0.38679651 
1.0 1:0.51885989 2:0.42741209 3:0.56459765 
1.0 1:0.42208164 2:0.26530612 3:0.41380517 
1.0 1:0.43169074 2:0.30577584 3:0.41695791 
1.0 1:0.49884112 2:0.38157755 3:0.47050573 
1.0 1:0.42374676 2:0.28088348 3:0.41235334 
1.0 1:0.42818534 2:0.25055192 3:0.40884658 
1.0 1:0.88051088 2:1.11266158 3:0.94400987 
1.0 1:0.58715967 2:0.49145872 3:0.52281103 
1.0 1:0.47752066 2:0.30168654 3:0.39594855 
1.0 1:0.45067232 2:0.22320377 3:0.31461614 
1.0 1:0.49736875 2:0.31878445 3:0.44606878 
1.0 1:0.40765511 2:0.15899065 3:0.29604855 
1.0 1:0.45948128 2:0.27061224 3:0.49338308 
1.0 1:0.39692735 2:0.39747662 3:0.4229265 
1.0 1:0.45573605 2:0.24304411 3:0.31969059 
1.0 1:0.43811006 2:0.29714286 3:0.21751297 
1.0 1:0.4891809 2:0.30879702 3:0.34758784 
1.0 1:0.50637339 2:0.3670462 3:0.38058404 
1.0 1:0.44610246 2:0.2219029 3:0.39045642 
1.0 1:0.42742444 2:0.23877551 3:0.36605842 
1.0 1:0.74264997 2:0.97102041 3:0.97615577 
1.0 1:0.6329382 2:0.88504793 3:0.90929198 
1.0 1:0.44209293 2:0.40603021 3:0.47652332 
1.0 1:0.48516295 2:0.2953073 3:0.31181853 
1.0 1:0.49022249 2:0.29426254 3:0.3262041 
1.0 1:0.45948128 2:0.32897959 3:0.39788958 
1.0 1:0.35133661 2:0.30311382 3:0.26697621 
1.0 1:0.53997955 2:0.50384181 3:0.5077477 
1.0 1:0.50365386 2:0.34157487 3:0.39412457 
1.0 1:0.53607396 2:0.45251454 3:0.47865448 
1.0 1:0.47202171 2:0.26498441 3:0.25904248 
1.0 1:0.43280596 2:0.22228347 3:0.30362 
1.0 1:0.50374746 2:0.3979354 3:0.54026155 
1.0 1:0.34213655 2:0.13054393 3:0.314593 
1.0 1:0.47400567 2:0.30445635 3:0.41563546 
1.0 1:0.39699335 2:0.34926597 3:0.23982953 
1.0 1:0.5461148 2:0.42106837 3:0.49141468 
1.0 1:0.47742546 2:0.2463161 3:0.18902963 
1.0 1:0.41720226 2:0.17804452 3:0.28427076 
1.0 1:0.45515714 2:0.31825199 3:0.39208931 
1.0 1:0.48105472 2:0.29264494 3:0.36028622 
1.0 1:0.42159134 2:0.21225494 3:0.26689426 
1.0 1:0.41811039 2:0.24563913 3:0.46238601 
1.0 1:0.84416328 2:1.00285714 3:0.97615577 
1.0 1:0.33807106 2:0.17544515 3:0.34250114 
1.0 1:0.3778106 2:0.28002861 3:0.39424491 
1.0 1:0.39536761 2:0.21755102 3:0.381974 
1.0 1:0.45948128 2:0.24938776 3:0.41380517 
1.0 1:0.45056618 2:0.24908535 3:0.3383412 
1.0 1:0.48423968 2:0.30879702 3:0.4357087 
1.0 1:0.42648965 2:0.22055962 3:0.40206656 
1.0 1:0.57929937 2:0.83735074 3:0.82999326 
1.0 1:0.63579386 2:0.90204082 3:0.90718825 
1.0 1:0.40765511 2:0.21198753 3:0.34891436 
1.0 1:0.45573605 2:0.23312394 3:0.28924387 
1.0 1:0.49410386 2:0.4010175 3:0.56090766 
1.0 1:0.44209293 2:0.22557234 3:0.39710277 
1.0 1:0.40776216 2:0.16827237 3:0.07112323 
1.0 1:0.52871067 2:0.37152141 3:0.41612629 
1.0 1:0.6969465 2:0.87221305 3:0.85873474 
1.0 1:0.74021586 2:0.92744544 3:1.02031018 
1.0 1:0.84749352 2:1.04403858 3:1.02559676 
1.0 1:0.43280596 2:0.22228347 3:0.31408966 
1.0 1:0.42742444 2:0.19102041 3:0.2811753 
1.0 1:0.48811336 2:0.30738192 3:0.41763992 
1.0 1:0.44808147 2:0.19197208 3:0.14134035 
1.0 1:0.55625653 2:0.48649449 3:0.53789212 
1.0 1:0.45806925 2:0.25945472 3:0.32147363 
1.0 1:0.45573605 2:0.29264494 3:0.37550959 
1.0 1:0.42648965 2:0.23058506 3:0.36732006 
1.0 1:0.49899982 2:0.27785433 3:0.10469655 
1.0 1:0.45590691 2:0.2411988 3:0.34103156 
1.0 1:0.86083476 2:1.04161759 3:0.88802943 
1.0 1:0.40964142 2:0.32819736 3:0.49393069 
1.0 1:0.34728236 2:0.13265306 3:0.25995453 
1.0 1:0.50169614 2:0.33241887 3:0.41617346 
1.0 1:0.44560858 2:0.25296427 3:0.34506286 
1.0 1:0.75867839 2:0.84367347 3:0.80108436 
1.0 1:0.47327814 2:0.28855791 3:0.45077746 
1.0 1:0.73330872 2:0.81054803 3:0.83000723 
1.0 1:0.74557974 2:0.92214575 3:0.7612677 
1.0 1:0.43482746 2:0.207473 3:0.37206586 
1.0 1:0.46493522 2:0.25599321 3:0.36681413 
1.0 1:0.83325207 2:0.97136073 3:0.89409953 
1.0 1:0.44978648 2:0.22148048 3:0.35205318 
1.0 1:0.41651406 2:0.26108787 3:0.31943289 
1.0 1:0.41522618 2:0.32736553 3:0.47192421 
1.0 1:0.53516751 2:0.41092889 3:0.49492546 
1.0 1:0.47320547 2:0.32169718 3:0.48770217 
1.0 1:0.45219645 2:0.29679791 3:0.48751113 
1.0 1:0.4674676 2:0.2868495 3:0.32488086 
1.0 1:0.80616946 2:0.94239111 3:0.967938 
1.0 1:0.84997293 2:1.03282936 3:1.06647601 
1.0 1:0.44345286 2:0.22285714 3:0.31831167 
1.0 1:0.34328852 2:0.2702841 3:0.42821308 
1.0 1:0.84416328 2:1.01346939 3:0.96554539 
1.0 1:0.35796797 2:0.31306122 3:0.50929866 
1.0 1:0.42481333 2:0.2337163 3:0.28006379 
1.0 1:0.44329777 2:0.25055192 3:0.17035274 
1.0 1:0.46079978 2:0.23808402 3:0.28924387 
1.0 1:0.44280027 2:0.26444423 3:0.40822048 
1.0 1:0.42818534 2:0.25055192 3:0.36504159 
1.0 1:0.39002481 2:0.22816327 3:0.3766688 
1.0 1:0.34728236 2:0.12734694 3:0.29709089 
1.0 1:0.41811039 2:0.32424366 3:0.36017436 
1.0 1:0.38408733 2:0.19687154 3:0.27158388 
1.0 1:0.79056618 2:0.99753102 3:0.95801043 
1.0 1:0.48740957 2:0.35271853 3:0.27907013 
1.0 1:0.38172437 2:0.29438131 3:0.48986458 
1.0 1:0.83834174 2:1.00609461 3:1.00581243 
1.0 1:0.43811006 2:0.22816327 3:0.39258439 
1.0 1:0.49118219 2:0.30752519 3:0.43640303 
1.0 1:0.46265973 2:0.28495392 3:0.40293158 
1.0 1:0.47302779 2:0.28559931 3:0.41127731 
1.0 1:0.4631589 2:0.33429742 3:0.41332324 
1.0 1:0.37747131 2:0.23637482 3:0.22735437 
1.0 1:0.45806925 2:0.23450715 3:0.34188466 
1.0 1:0.43983841 2:0.25438503 3:0.34362778 
1.0 1:0.46129394 2:0.2702841 3:0.42821308 
1.0 1:0.4674676 2:0.37092607 3:0.51270261 
1.0 1:0.44836449 2:0.23759145 3:0.31485567 
1.0 1:0.40717266 2:0.21953861 3:0.27554883 
1.0 1:0.50990182 2:0.34749606 3:0.45243262 
1.0 1:0.79607803 2:0.95510204 3:1.06103889 
1.0 1:0.40568528 2:0.26066137 3:0.43184926 
1.0 1:0.4531733 2:0.29806192 3:0.17274931 
1.0 1:0.51347827 2:0.3513923 3:0.45214056 
1.0 1:0.81531022 2:0.9910417 3:0.99916386 
1.0 1:0.68922192 2:0.98163265 3:0.98676616 
1.0 1:0.47092725 2:0.29760503 3:0.36028622 
1.0 1:0.82697383 2:0.97246743 3:0.94311908 
1.0 1:0.49725623 2:0.30923268 3:0.22923618 
1.0 1:0.44808147 2:0.26269864 3:0.33502897 
1.0 1:0.35262322 2:0.21124966 3:0.36990881 
1.0 1:0.5086904 2:0.34157487 3:0.46066508 
1.0 1:0.71593595 2:0.80653061 3:0.72150644 
1.0 1:0.47352261 2:0.29967974 3:0.44778434 
1.0 1:0.59539102 2:0.66776072 3:0.63967633 
1.0 1:0.48619531 2:0.38204082 3:0.49868828 
1.0 1:0.33082779 2:0.20457007 3:0.39291222 
1.0 1:0.71028392 2:0.77130688 3:0.8760998 
1.0 1:0.47032904 2:0.28841586 3:0.33098448 
1.0 1:0.42208164 2:0.29714286 3:0.40319478 
1.0 1:0.38224467 2:0.23877975 3:0.33783493 
1.0 1:0.42340629 2:0.17877514 3:0.33388748 
1.0 1:0.47738559 2:0.32328098 3:0.39649359 
1.0 1:0.49390798 2:0.37384037 3:0.4920738 
1.0 1:0.47457075 2:0.28579387 3:0.35976615 
1.0 1:0.47885372 2:0.31728945 3:0.40718185 
1.0 1:0.41155556 2:0.25625291 3:0.30491321 
1.0 1:0.50450605 2:0.35089031 3:0.51126982 
1.0 1:0.58014459 2:0.51734077 3:0.55658761 
1.0 1:0.45100469 2:0.21707892 3:0.31137664 
1.0 1:0.50896583 2:0.33429742 3:0.29595985 
1.0 1:0.45009984 2:0.24366168 3:0.29534 
1.0 1:0.47823957 2:0.2722053 3:0.15240693 
1.0 1:0.44879567 2:0.24408163 3:0.35544803 
1.0 1:0.50387617 2:0.35924499 3:0.59702246 
1.0 1:0.40071042 2:0.18571429 3:0.381974 
1.0 1:0.84962666 2:1.04426433 3:0.87583585 
1.0 1:0.41975603 2:0.35803349 3:0.44810207 
1.0 1:0.40717266 2:0.1796225 3:0.35209017 
1.0 1:0.70525033 2:0.83306122 3:0.73211683 
1.0 1:0.74264997 2:0.9922449 3:1.0451233 
1.0 1:0.47731156 2:0.30701584 3:0.44543291 
1.0 1:0.43998523 2:0.29836124 3:0.38190517 
1.0 1:0.78536509 2:0.89727665 3:0.89348123 
1.0 1:0.32591114 2:0.15387755 3:0.36075322 
1.0 1:0.42911064 2:0.1801894 3:0.31719488 
1.0 1:0.87004637 2:1.06696378 3:0.96261754 
1.0 1:0.43447453 2:0.27558379 3:0.4229265 
1.0 1:0.40048418 2:0.2155469 3:0.29782708 
1.0 1:0.41301899 2:0.25438503 3:0.40178018 
1.0 1:0.54469866 2:0.44946777 3:0.53857742 
1.0 1:0.45806925 2:0.20955958 3:0.16328819 
1.0 1:0.44789399 2:0.31876201 3:0.34821247 
1.0 1:0.48593308 2:0.31910739 3:0.50818869 
1.0 1:0.64227729 2:0.67628547 3:0.67724517 
1.0 1:0.62510825 2:0.6844898 3:0.6631493 
1.0 1:0.36865358 2:0.20693878 3:0.34483764 
1.0 1:0.48619531 2:0.34489796 3:0.40319478 
1.0 1:0.42911064 2:0.35507911 3:0.32248146 
1.0 1:0.47738559 2:0.32858067 3:0.42821308 
1.0 1:0.44470991 2:0.23642272 3:0.27904939 
1.0 1:0.43976869 2:0.19299814 3:0.17624172 
1.0 1:0.42028991 2:0.29264494 3:0.47192421 
1.0 1:0.65147626 2:0.66360533 3:0.64805002 
1.0 1:0.41469873 2:0.18896212 3:0.36153689 
1.0 1:0.72948809 2:0.95924357 3:0.94101146 
1.0 1:0.43228186 2:0.27695813 3:0.28427076 
1.0 1:0.38172437 2:0.29937083 3:0.4643508 
1.0 1:0.50169614 2:0.33710083 3:0.4357581 
1.0 1:0.390082 2:0.19048331 3:0.34250114 
1.0 1:0.46021444 2:0.30333393 3:0.36153689 
1.0 1:0.47742546 2:0.39120792 3:0.40790604 
1.0 1:0.39002481 2:0.27591837 3:0.3766688 
1.0 1:0.47760075 2:0.29176744 3:0.29763837 
1.0 1:0.44345286 2:0.30244898 3:0.50929866 
1.0 1:0.30436153 2:0.13531393 3:0.3431409 
1.0 1:0.57732136 2:0.49124643 3:0.57083523 
1.0 1:0.47550969 2:0.36612245 3:0.42972075 
1.0 1:0.40765511 2:0.27558379 3:0.46521915 
1.0 1:0.4378978 2:0.33847709 3:0.45543 
1.0 1:0.45903707 2:0.29479107 3:0.28514525 
1.0 1:0.41735198 2:0.21454909 3:0.37760395 
1.0 1:0.85637069 2:1.03659715 3:1.04645254 
1.0 1:0.46901613 2:0.35761539 3:0.40113654 
1.0 1:0.47538634 2:0.33317005 3:0.36662896 
1.0 1:0.40272806 2:0.20786587 3:0.26925224 
1.0 1:0.46817136 2:0.28705286 3:0.41657894 
1.0 1:0.53857106 2:0.40243784 3:0.46698434 
1.0 1:0.41016244 2:0.37696637 3:0.41610522 
1.0 1:0.6651215 2:0.75785542 3:0.77712744 
1.0 1:0.75333558 2:0.84367347 3:0.76925319 
1.0 1:0.78004961 2:0.89673469 3:0.93901941 
1.0 1:0.41469873 2:0.24366168 3:0.35644482 
1.0 1:0.43874093 2:0.25978263 3:0.41078813 
1.0 1:0.45337272 2:0.27511583 3:0.34070548 
1.0 1:0.44729402 2:0.23058506 3:0.34746492 
1.0 1:0.49512471 2:0.31355844 3:0.38057145 
1.0 1:0.3778106 2:0.23581357 3:0.25796272 
1.0 1:0.38619958 2:0.23318628 3:0.36477411 
1.0 1:0.51382241 2:0.34389479 3:0.40397935 
1.0 1:0.46114057 2:0.28042771 3:0.38719138 
1.0 1:0.38484378 2:0.18848318 3:0.40088186 
1.0 1:0.77776304 2:0.88504793 3:0.87228591 
1.0 1:0.83676576 2:0.93274513 3:0.56566419 
1.0 1:0.36865358 2:0.20693878 3:0.33422725 
1.0 1:0.7316437 2:0.82499758 3:0.84672985 
1.0 1:0.47249023 2:0.27395259 3:0.42068664 
1.0 1:0.3891836 2:0.32861955 3:0.45913219 
1.0 1:0.48423968 2:0.29914711 3:0.4308131 
1.0 1:0.37196346 2:0.16815315 3:0.29442328 
1.0 1:0.53036449 2:0.42605799 3:0.49940816 
1.0 1:0.4339196 2:0.19837946 3:0.3266508 
1.0 1:0.45593006 2:0.20138815 3:0.14802428 
1.0 1:0.50169614 2:0.34178278 3:0.42106962 
1.0 1:0.42046914 2:0.28091735 3:0.22522329 
1.0 1:0.50130965 2:0.32736553 3:0.38058404 
1.0 1:0.48550095 2:0.30333393 3:0.34116862 
1.0 1:0.5409137 2:0.44111924 3:0.56587145 
1.0 1:0.41753046 2:0.24249105 3:0.37690759 
1.0 1:0.86524191 2:1.05278741 3:0.98483192 
1.0 1:0.49055825 2:0.31825199 3:0.42264172 
1.0 1:0.45515714 2:0.26852511 3:0.40736551 
1.0 1:0.48351754 2:0.29937083 3:0.42863151 
1.0 1:0.85484889 2:1.06122449 3:1.01329214 
1.0 1:0.38614529 2:0.31188933 3:0.40540399 
1.0 1:0.39536761 2:0.30244898 3:0.40319478 
1.0 1:0.55030897 2:0.42979592 3:0.49868828 
1.0 1:0.53783906 2:0.41049152 3:0.53300767 
1.0 1:0.86858258 2:1.09277267 3:1.05728613 
1.0 1:0.69285031 2:0.75087578 3:0.77399448 
1.0 1:0.44833524 2:0.24072635 3:0.40397935 
1.0 1:0.45320492 2:0.25033599 3:0.30190453 
1.0 1:0.43587677 2:0.39821166 3:0.4262975 
1.0 1:0.47302779 2:0.29964518 3:0.47492736 
1.0 1:0.42648965 2:0.320814 3:0.56587145 
1.0 1:0.4534023 2:0.25739074 3:0.20821101 
1.0 1:0.74264997 2:0.82244898 3:0.81699994 
1.0 1:0.44332669 2:0.25739074 3:0.28438577 
1.0 1:0.44298963 2:0.25259485 3:0.12040104 
1.0 1:0.42771413 2:0.24249105 3:0.31408966 
1.0 1:0.35401628 2:0.12189283 3:0.02114633 
1.0 1:0.7640212 2:0.93918367 3:0.98676616 
1.0 1:0.44015847 2:0.21310485 3:0.36745679 
1.0 1:0.84749352 2:1.05993764 3:1.03616993 
1.0 1:0.39497124 2:0.22320377 3:0.46684976 
1.0 1:0.44332669 2:0.28708967 3:0.23868091 
1.0 1:0.48044365 2:0.26852511 3:0.30552414 
1.0 1:0.55110601 2:0.45174488 3:0.59318944 
1.0 1:0.4378978 2:0.24754295 3:0.41878621 
1.0 1:0.31726669 2:0.22557234 3:0.36732006 
1.0 1:0.41786173 2:0.18660982 3:0.38767555 
1.0 1:0.47250355 2:0.29461338 3:0.40293158 
1.0 1:0.44965113 2:0.24607262 3:0.2937362 
1.0 1:0.33286997 2:0.2155469 3:0.37724763 
1.0 1:0.79710003 2:0.96666899 3:0.96525174 
1.0 1:0.44560858 2:0.47616804 3:0.43132858 
1.0 1:0.4378978 2:0.23238726 3:0.28791552 
1.0 1:0.46129394 2:0.29148285 3:0.5075118 
1.0 1:0.34328852 2:0.22788659 3:0.32776804 
1.0 1:0.47202171 2:0.30208223 3:0.38592043 
1.0 1:0.45009984 2:0.21879824 3:0.24951138 
1.0 1:0.47738559 2:0.28618316 3:0.2537559 
1.0 1:0.51889374 2:0.37123664 3:0.49259678 
1.0 1:0.45810316 2:0.25240855 3:0.12700577 
1.0 1:0.3808357 2:0.13779189 3:0.30133513 
1.0 1:0.52893484 2:0.40776096 3:0.51592544 
1.0 1:0.48516295 2:0.40358665 3:0.52807977 
1.0 1:0.45826514 2:0.24249105 3:0.30362 
1.0 1:0.45337272 2:0.43723766 3:0.47212045 
1.0 1:0.35952511 2:0.24304411 3:0.30954169 
1.0 1:0.39528309 2:0.1353434 3:0.40703034 
1.0 1:0.74264997 2:0.81714286 3:0.83291552 
1.0 1:0.77871772 2:0.92306005 3:0.91849609 
1.0 1:0.86374604 2:1.0463384 3:1.00068074 
1.0 1:0.33256075 2:0.19608846 3:0.31190829 
1.0 1:0.45466919 2:0.25099016 3:0.33269736 
1.0 1:0.45593006 2:0.29678254 3:0.41235334 
1.0 1:0.35262517 2:0.26 3:0.44033114 
1.0 1:0.43447453 2:0.31798129 3:0.31190829 
1.0 1:0.50573015 2:0.35803349 3:0.35135276 
1.0 1:0.37424031 2:0.37295155 3:0.40736551 
1.0 1:0.38201653 2:0.33136063 3:0.44671119 
1.0 1:0.54404726 2:0.42249931 3:0.47698767 
1.0 1:0.47885372 2:0.26519715 3:0.23338472 
1.0 1:0.36263078 2:0.19801442 3:0.12796252 
1.0 1:0.40229123 2:0.22788659 3:0.29604855 
1.0 1:0.45466919 2:0.30308246 3:0.44690691 
1.0 1:0.37010793 2:0.12189283 3:0.27490223 
1.0 1:0.48372431 2:0.31321761 3:0.2460369 
1.0 1:0.38781347 2:0.29207126 3:0.37365057 
1.0 1:0.81103341 2:0.97273097 3:0.92963924 
1.0 1:0.43262095 2:0.23450715 3:0.31637088 
1.0 1:0.4886072 2:0.29438131 3:0.34188466 
1.0 1:0.44913749 2:0.22473388 3:0.3770042 
1.0 1:0.31522553 2:0.38204082 3:0.4721623 
1.0 1:0.30206872 2:0.11294805 3:0.32878812 
1.0 1:0.36865358 2:0.22816327 3:0.36075322 
1.0 1:0.78849081 2:0.99634138 3:1.00445044 
1.0 1:0.48044365 2:0.27847049 3:0.3768131 
1.0 1:0.48105472 2:0.29760503 3:0.33491396 
1.0 1:0.8601917 2:1.1355102 3:1.10348044 
1.0 1:0.40003498 2:0.35712603 3:0.32476505 
1.0 1:0.45413847 2:0.27591837 3:0.42972075 
1.0 1:0.46482408 2:0.38734694 3:0.4774675 
1.0 1:0.38172437 2:0.26943375 3:0.37250119 
1.0 1:0.35796797 2:0.07959184 3:0.19629219 
1.0 1:0.86773764 2:1.09753603 3:1.16641403 
1.0 1:0.61148267 2:0.65716134 3:0.66610924 
1.0 1:0.45810316 2:0.28210368 3:0.4267394 
1.0 1:0.41720226 2:0.22255564 3:0.29442328 
1.0 1:0.48732089 2:0.31878445 3:0.38091267 
1.0 1:0.44345286 2:0.24408163 3:0.40849997 
1.0 1:0.49337891 2:0.31920101 3:0.40239741 
1.0 1:0.31129693 2:0.23159776 3:0.24967577 
1.0 1:0.44071985 2:0.23229014 3:0.43125445 
1.0 1:0.48105472 2:0.34224578 3:0.36536068 
1.0 1:0.45593006 2:0.28088348 3:0.34891436 
1.0 1:0.76976181 2:0.9373784 3:0.9034088 
1.0 1:0.41012136 2:0.16404842 3:0.25946698 
1.0 1:0.48740957 2:0.26091508 3:0.12458488 
1.0 1:0.80142083 2:0.93387755 3:0.87535708 
1.0 1:0.42494502 2:0.2171229 3:0.23988457 
1.0 1:0.46482408 2:0.33428571 3:0.46155192 
1.0 1:0.384682 2:0.25469388 3:0.32892205 
1.0 1:0.43447453 2:0.3126816 3:0.23789616 
1.0 1:0.46771626 2:0.23192451 3:0.14950186 
1.0 1:0.75630751 2:0.91684606 3:0.80356035 
1.0 1:0.48611845 2:0.28768486 3:0.37043513 
1.0 1:0.78004961 2:0.91795918 3:0.89127266 
1.0 1:0.46844881 2:0.31826951 3:0.10993138 
1.0 1:0.47320547 2:0.24251018 3:0.21844993 
1.0 1:0.37424031 2:0.21382555 3:0.29534 
1.0 1:0.72107328 2:0.84888324 3:0.86967604 
1.0 1:0.84416328 2:1.01877551 3:1.06634408 
1.0 1:0.40765511 2:0.15899065 3:0.36477411 
1.0 1:0.81434533 2:1.02783984 3:1.03585948 
1.0 1:0.41139603 2:0.13795918 3:0.11671428 
1.0 1:0.40499163 2:0.21254943 3:0.3266508 
1.0 1:0.49118219 2:0.34720586 3:0.53281766 
1.0 1:0.42643107 2:0.26592283 3:0.43075041 
1.0 1:0.45056618 2:0.33918005 3:0.48636548 
1.0 1:0.68654431 2:0.80203499 3:0.85377096 
1.0 1:0.78016399 2:0.9925183 3:1.05232234 
1.0 1:0.44345286 2:0.26 3:0.38727919 
1.0 1:0.38619958 2:0.20668784 3:0.37006069 
1.0 1:0.45337272 2:0.29967974 3:0.39424491 
1.0 1:0.43907893 2:0.33345219 3:0.5557916 
1.0 1:0.50573015 2:0.3530608 3:0.46337827 
1.0 1:0.32766888 2:0.30076312 3:0.38221142 
1.0 1:0.45773781 2:0.30910256 3:0.34323801 
1.0 1:0.44345286 2:0.36612245 3:0.48807789 
1.0 1:0.45219645 2:0.28673696 3:0.36948212 
1.0 1:0.39796049 2:0.26529026 3:0.46725323 
1.0 1:0.43976869 2:0.21229795 3:0.31821422 
1.0 1:0.53169206 2:0.37696637 3:0.3958074 
1.0 1:0.44329777 2:0.26037748 3:0.40397935 
1.0 1:0.39699335 2:0.13471687 3:0.30616536 
1.0 1:0.53101666 2:0.41770573 3:0.5244831 
1.0 1:0.52531042 2:0.42106837 3:0.50630603 
1.0 1:0.50130965 2:0.34720586 3:0.46684976 
1.0 1:0.40003498 2:0.23808402 3:0.45162639 
1.0 1:0.16643499 2:0.22055962 3:0.45666819 
1.0 1:0.77470681 2:0.92857143 3:0.91779864 
1.0 1:0.50896583 2:0.34926597 3:0.50007009 
1.0 1:0.47850058 2:0.4561574 3:0.61054551 
1.0 1:0.45515714 2:0.28841586 3:0.50411482 
1.0 1:0.45249512 2:0.28572497 3:0.41199412 
1.0 1:0.36407653 2:0.2155469 3:0.46659576 
1.0 1:0.89576847 2:1.11823421 3:1.13132839 
1.0 1:0.29126122 2:0.27068681 3:0.46163197 
1.0 1:0.46313726 2:0.24251018 3:0.28449293 
1.0 1:0.43817886 2:0.22276622 3:0.24056954 
1.0 1:0.49561555 2:0.34808811 3:0.56012758 
1.0 1:0.37399639 2:0.30244898 3:0.35014283 
1.0 1:0.48248624 2:0.31406444 3:0.35880445 
1.0 1:0.79849735 2:0.95974873 3:0.94551426 
1.0 1:0.37967981 2:0.20552147 3:0.39710277 
1.0 1:0.79880435 2:0.95144899 3:0.94225765 
1.0 1:0.41226232 2:0.3991611 3:0.3827067 
1.0 1:0.47847117 2:0.27722018 3:0.31222856 
1.0 1:0.3920696 2:0.22750132 3:0.10660153 
1.0 1:0.81434533 2:0.95798665 3:0.85726302 
1.0 1:0.48274947 2:0.28618316 3:0.34891436 
1.0 1:0.41088637 2:0.160407 3:0.36732006 
1.0 1:0.45948128 2:0.31306122 3:0.48807789 
1.0 1:0.49369685 2:0.38419256 3:0.40311773 
1.0 1:0.49370472 2:0.33163806 3:0.37071716 
1.0 1:0.51650086 2:0.38688654 3:0.63938119 
1.0 1:0.40229123 2:0.16429033 3:0.30662171 
1.0 1:0.43314232 2:0.25246838 3:0.25080655 
1.0 1:0.50918349 2:0.3283733 3:0.32979414 
1.0 1:0.82110836 2:1.04642271 3:1.08052309 
1.0 1:0.43002526 2:0.24346171 3:0.3770042 
1.0 1:0.30574133 2:0.22788659 3:0.35948753 
1.0 1:0.45806925 2:0.33429742 3:0.31126812 
1.0 1:0.4825839 2:0.32773691 3:0.36721188 
1.0 1:0.40806207 2:0.35638717 3:0.46212687 
1.0 1:0.48351754 2:0.32930791 3:0.43883702 
1.0 1:0.49260026 2:0.32641494 3:0.40102482 
1.0 1:0.44303412 2:0.29955788 3:0.4710994 
1.0 1:0.3486524 2:0.19608846 3:0.39649359 
1.0 1:0.37399639 2:0.2122449 3:0.41380517 
1.0 1:0.4378978 2:0.25259485 3:0.14657517 
1.0 1:0.50537807 2:0.36421234 3:0.41743449 
1.0 1:0.43811006 2:0.35020408 3:0.35544803 
1.0 1:0.47329949 2:0.28071225 3:0.42688548 
1.0 1:0.42314787 2:0.30459253 3:0.48672211 
1.0 1:0.46313726 2:0.28705286 3:0.37593709 
1.0 1:0.41673883 2:0.26 3:0.3766688 
1.0 1:0.49960077 2:0.31771069 3:0.35691907 
1.0 1:0.39156346 2:0.23848597 3:0.43878624 
1.0 1:0.44729402 2:0.25063593 3:0.30775465 
1.0 1:0.42028991 2:0.3670462 3:0.33998841 
1.0 1:0.46021444 2:0.26355243 3:0.39718138 
1.0 1:0.46114057 2:0.28042771 3:0.3775116 
1.0 1:0.41088637 2:0.22055962 3:0.38221142 
1.0 1:0.79398669 2:0.98792373 3:1.00524294 
1.0 1:0.43907893 2:0.22230146 3:0.39630357 
1.0 1:0.34193956 2:0.22285714 3:0.34483764 
1.0 1:0.43817628 2:0.2947374 3:0.4186052 
1.0 1:0.37920453 2:0.13048129 3:0.27064634 
1.0 1:0.76703528 2:0.87444856 3:0.80356035 
1.0 1:0.80676364 2:1.01346939 3:1.07695447 
1.0 1:0.4310337 2:0.1896246 3:0.35690023 
1.0 1:0.75956008 2:0.97713651 3:0.95907178 
1.0 1:0.83068898 2:1.01162168 3:0.99127166 
1.0 1:0.51043185 2:0.44788274 3:0.57837309 
1.0 1:0.46344767 2:0.30950531 3:0.45751879 
1.0 1:0.42619062 2:0.22280891 3:0.3222016 
1.0 1:0.45306906 2:0.20786587 3:0.15240693 
1.0 1:0.48811336 2:0.30738192 3:0.40706676 
1.0 1:0.46079978 2:0.27280461 3:0.33998841 
1.0 1:0.54618857 2:0.42267842 3:0.47356241 
1.0 1:0.86374604 2:1.11676502 3:1.07252448 
1.0 1:0.46494783 2:0.26577657 3:0.34702385 
1.0 1:0.4640266 2:0.34795011 3:0.53645972 
1.0 1:0.38181843 2:0.31388008 3:0.33079258 
1.0 1:0.42911064 2:0.23318628 3:0.28547539 
1.0 1:0.43548111 2:0.34720586 3:0.35521177 
1.0 1:0.53607396 2:0.41273305 3:0.5244831 
1.0 1:0.2885115 2:0.31836735 3:0.48807789 
1.0 1:0.44120024 2:0.2219029 3:0.40528388 
1.0 1:0.51906175 2:0.3524791 3:0.38407467 
1.0 1:0.51824762 2:0.46783399 3:0.56448657 
1.0 1:0.47302779 2:0.28091735 3:0.3182503 
1.0 1:0.81943498 2:0.94301811 3:0.83685199 
1.0 1:0.47842788 2:0.27442326 3:0.24493229 
1.0 1:0.39035647 2:0.2171229 3:0.21540655 
1.0 1:0.44332669 2:0.25739074 3:0.33516894 
1.0 1:0.41301899 2:0.23318628 3:0.33305462 
1.0 1:0.41813767 2:0.30193913 3:0.32501231 
1.0 1:0.40371298 2:0.17877514 3:0.32890408 
1.0 1:0.61148267 2:0.70485853 3:0.68196898 
1.0 1:0.43041738 2:0.28768486 3:0.38058404 
1.0 1:0.40229123 2:0.21728722 3:0.39120701 
1.0 1:0.43314232 2:0.19306406 3:0.28151755 
1.0 1:0.51290933 2:0.40857143 3:0.42972075 
1.0 1:0.53675579 2:0.3968067 3:0.42117967 
1.0 1:0.33256075 2:0.20138815 3:0.3383412 
1.0 1:0.5538382 2:0.46393348 3:0.66211695 
1.0 1:0.51603031 2:0.40264821 3:0.48471968 
1.0 1:0.44560858 2:0.23808402 3:0.28924387 
1.0 1:0.46844881 2:0.3334252 3:0.49730862 
1.0 1:0.5085229 2:0.2844369 3:0.09418201 
1.0 1:0.39534897 2:0.25978263 3:0.30685379 
1.0 1:0.769364 2:0.88081633 3:0.86474669 
1.0 1:0.37663471 2:0.21454909 3:0.25003505 
1.0 1:0.45413847 2:0.23877551 3:0.3766688 
1.0 1:0.46482408 2:0.32367347 3:0.31831167 
1.0 1:0.40003498 2:0.23808402 3:0.33491396 
1.0 1:0.41522618 2:0.23808402 3:0.49729648 
1.0 1:0.44504253 2:0.2337163 3:0.45319413 
1.0 1:0.49320565 2:0.3318416 3:0.32828359 
1.0 1:0.4320577 2:0.27954944 3:0.38592467 
1.0 1:0.53675579 2:0.40672687 3:0.40595631 
1.0 1:0.43262095 2:0.26444423 3:0.3367819 
1.0 1:0.78080857 2:1.05133549 3:1.012382 
1.0 1:0.41469873 2:0.24863437 3:0.33098448 
1.0 1:0.30574133 2:0.19608846 3:0.32776804 
1.0 1:0.39002481 2:0.23346939 3:0.39258439 
1.0 1:0.7685384 2:0.85819637 3:0.8827768 
1.0 1:0.44470991 2:0.22194786 3:0.35737905 
1.0 1:0.35796797 2:0.40857143 3:0.40319478 
1.0 1:0.29501357 2:0.20668784 3:0.22203641 
1.0 1:0.41753046 2:0.18692019 3:0.35596828 
1.0 1:0.36423593 2:0.21263618 3:0.34797387 
1.0 1:0.48370168 2:0.31580128 3:0.48148711 
1.0 1:0.45618207 2:0.28042771 3:0.34847224 
1.0 1:0.43041738 2:0.25296427 3:0.38565849 
1.0 1:0.49736875 2:0.49043762 3:0.51122489 
1.0 1:0.48611845 2:0.30256511 3:0.34506286 
1.0 1:0.39292302 2:0.225988 3:0.32610382 
1.0 1:0.49367251 2:0.39302261 3:0.38937769 
1.0 1:0.37684606 2:0.16438866 3:0.34847224 
1.0 1:0.42494502 2:0.21229795 3:0.13707689 
1.0 1:0.47929846 2:0.32327188 3:0.46508232 
1.0 1:0.76870983 2:0.96967402 3:0.94203275 
1.0 1:0.52662832 2:0.40176679 3:0.51251984 
1.0 1:0.46313726 2:0.26230693 3:0.28449293 
1.0 1:0.39143978 2:0.40210259 3:0.5680543 
1.0 1:0.32591114 2:0.32897959 3:0.56235061 
1.0 1:0.49410386 2:0.31580128 3:0.41695791 
1.0 1:0.44280027 2:0.25945472 3:0.36739844 
1.0 1:0.37010793 2:0.13249221 3:0.21146325 
1.0 1:0.50573015 2:0.35803349 3:0.44301 
1.0 1:0.49561555 2:0.32819736 3:0.36153689 
1.0 1:0.80676364 2:1.01877551 3:0.99737655 
1.0 1:0.52893484 2:0.58953392 3:0.5986682 
1.0 1:0.43771061 2:0.20457007 3:0.36739844 
1.0 1:0.39708021 2:0.17848711 3:0.18781448 
1.0 1:0.3778106 2:0.08843009 3:0.29690049 
1.0 1:0.36474405 2:0.16959002 3:0.31719488 
1.0 1:0.41139603 2:0.20693878 3:0.32892205 
1.0 1:0.47333822 2:0.38918208 3:0.37250119 
1.0 1:0.4808525 2:0.29183673 3:0.40849997 
1.0 1:0.46347167 2:0.26687149 3:0.23991176 
1.0 1:0.452388 2:0.23739269 3:0.42640613 
1.0 1:0.43280596 2:0.23238726 3:0.16227966 
1.0 1:0.46335697 2:0.25764674 3:0.32455931 
1.0 1:0.52332848 2:0.42759021 3:0.49777452 
1.0 1:0.37154505 2:0.3243184 3:0.43883702 
1.0 1:0.4378978 2:0.29301002 3:0.28791552 
1.0 1:0.49153811 2:0.34489796 3:0.39258439 
1.0 1:0.76703528 2:0.91684606 3:1.06260283 
1.0 1:0.47850058 2:0.28572497 3:0.44674062 
1.0 1:0.43276725 2:0.31836735 3:0.40849997 
1.0 1:0.7640212 2:0.83306122 3:0.74272722 
1.0 1:0.45948128 2:0.31836735 3:0.3766688 
1.0 1:0.75094363 2:0.95394388 3:0.90929198 
1.0 1:0.46482408 2:0.24408163 3:0.08488311 
1.0 1:0.25746639 2:0.19608846 3:0.35420094 
1.0 1:0.50303825 2:0.36464608 3:0.54621955 
1.0 1:0.34327216 2:0.19048331 3:0.31271843 
1.0 1:0.44985352 2:0.29532033 3:0.38893638 
1.0 1:0.47352261 2:0.2849414 3:0.35043992 
1.0 1:0.47355351 2:0.25244091 3:0.22852428 
1.0 1:0.34327216 2:0.13033069 3:0.31271843 
1.0 1:0.41469873 2:0.22377093 3:0.26987965 
1.0 1:0.44329777 2:0.29476696 3:0.47698767 
1.0 1:0.49410386 2:0.36592846 3:0.47652332 
1.0 1:0.3360611 2:0.15660881 3:0.32979414 
1.0 1:0.44280027 2:0.22452812 3:0.30106261 
1.0 1:0.44788993 2:0.29937083 3:0.37760395 
1.0 1:0.45413847 2:0.31836735 3:0.41911036 
1.0 1:0.85586137 2:1.0361756 3:1.0452518 
1.0 1:0.47850058 2:0.34086487 3:0.40703034 
1.0 1:0.45593006 2:0.2702841 3:0.45464599 
1.0 1:0.81210645 2:0.96571429 3:1.00798694 
1.0 1:0.87378367 2:1.05768364 3:1.0026845 
1.0 1:0.6651215 2:0.82145167 3:0.74012138 
1.0 1:0.87043846 2:1.06730934 3:1.01545989 
1.0 1:0.54873278 2:0.46280352 3:0.5285647 
1.0 1:0.46844881 2:0.27280243 3:0.41355138 
1.0 1:0.45294627 2:0.27541036 3:0.43355538 
1.0 1:0.44298963 2:0.21723157 3:0.29315035 
1.0 1:0.72782113 2:0.76838512 3:0.69907758 
1.0 1:0.46129394 2:0.44517381 3:0.45993257 
1.0 1:0.47092725 2:0.28272478 3:0.35013732 
1.0 1:0.38435492 2:0.32322467 3:0.30043207 
1.0 1:0.46665783 2:0.28088348 3:0.4229265 
1.0 1:0.41735198 2:0.23949666 3:0.32657639 
1.0 1:0.3775859 2:0.18169904 3:0.3042517 
1.0 1:0.42987063 2:0.24366168 3:0.3106162 
1.0 1:0.79399634 2:0.90502909 3:0.90638827 
1.0 1:0.40135691 2:0.32305496 3:0.43086194 
1.0 1:0.43041738 2:0.23312394 3:0.29431832 
1.0 1:0.4825472 2:0.3115779 3:0.46701624 
1.0 1:0.43482746 2:0.18817318 3:0.15665931 
1.0 1:0.80676364 2:0.97632653 3:1.06634408 
1.0 1:0.757048 2:0.86524137 3:0.83133476 
1.0 1:0.42374676 2:0.23848597 3:0.38063385 
1.0 1:0.38894299 2:0.33339149 3:0.33887087 
1.0 1:0.42147257 2:0.28042771 3:0.4404302 
1.0 1:0.33792463 2:0.18548909 3:0.31719488 
1.0 1:0.51490824 2:0.38597934 3:0.39710277 
1.0 1:0.83622079 2:1.05624828 3:1.02698366 
1.0 1:0.4200038 2:0.19782309 3:0.33290103 
1.0 1:0.43276725 2:0.21755102 3:0.39788958 
1.0 1:0.52172267 2:0.38154847 3:0.48749746 
1.0 1:0.69194091 2:0.78965354 3:0.74012138 
1.0 1:0.42028991 2:0.22320377 3:0.35521177 
1.0 1:0.41139603 2:0.14857143 3:0.24934414 
1.0 1:0.52305213 2:0.36502736 3:0.46099614 
1.0 1:0.43689184 2:0.20552147 3:0.34250114 
1.0 1:0.47550969 2:0.29183673 3:0.36605842 
1.0 1:0.49021673 2:0.34452519 3:0.52807977 
1.0 1:0.45009984 2:0.25360705 3:0.3768131 
1.0 1:0.41016244 2:0.22320377 3:0.29939278 
1.0 1:0.45806925 2:0.25945472 3:0.33167914 
1.0 1:0.81019742 2:0.94241592 3:0.71042354 
1.0 1:0.72273148 2:0.76339561 3:0.76031065 
1.0 1:0.41307292 2:0.25055192 3:0.4137138 
1.0 1:0.81210645 2:0.9922449 3:0.954935 
1.0 1:0.41469873 2:0.18398943 3:0.35644482 
1.0 1:0.45593006 2:0.24908535 3:0.35948753 
1.0 1:0.49234482 2:0.31388008 3:0.31074454 
1.0 1:0.72656284 2:0.81996711 3:0.69277897 
-1.0 1:0.44809554 2:0.33260338 3:0.34183798 
-1.0 1:0.38401966 2:0.18843867 3:0.34883766 
-1.0 1:0.41301899 2:0.21198753 3:0.17974376 
-1.0 1:0.48740957 2:0.4541855 3:0.61794101 
-1.0 1:0.452388 2:0.41049152 3:0.62945667 
-1.0 1:0.54141032 2:0.56024839 3:0.70637387 
-1.0 1:0.48105472 2:0.3670462 3:0.36028622 
-1.0 1:0.66736511 2:0.78116991 3:0.88483026 
-1.0 1:0.39855002 2:0.25008352 3:0.50467477 
-1.0 1:0.42340629 2:0.30440092 3:0.28405353 
-1.0 1:0.40688466 2:0.23637482 3:0.37562896 
-1.0 1:0.40803544 2:0.30459253 3:0.4380499 
-1.0 1:0.35264623 2:0.16334412 3:0.37579548 
-1.0 1:0.30884017 2:0.09165554 3:0.25700929 
-1.0 1:0.4825472 2:0.42038288 3:0.41117734 
-1.0 1:0.50067285 2:0.50224142 3:0.62123241 
-1.0 1:0.41226232 2:0.31932888 3:0.50007009 
-1.0 1:0.36331078 2:0.22816327 3:0.39788958 
-1.0 1:0.63492664 2:0.71479966 3:0.58698674 
-1.0 1:0.55395141 2:0.46792567 3:0.61286831 
-1.0 1:0.34805796 2:0.15436723 3:0.12356216 
-1.0 1:0.39699335 2:0.27941277 3:0.40311773 
-1.0 1:0.61291229 2:0.59570754 3:0.62837864 
-1.0 1:0.48445764 2:0.40963788 3:0.34031933 
-1.0 1:0.43817628 2:0.35755029 3:0.53322329 
-1.0 1:0.68509655 2:0.88430088 3:1.06592143 
-1.0 1:0.48423968 2:0.33292179 3:0.26925819 
-1.0 1:0.40430246 2:0.23624584 3:0.29673054 
-1.0 1:0.45297959 2:0.36922402 3:0.5459949 
-1.0 1:0.45100469 2:0.31355844 3:0.28666421 
-1.0 1:0.41117709 2:0.31670056 3:0.52727645 
-1.0 1:0.39446952 2:0.12928987 3:0.14257793 
-1.0 1:0.41178689 2:0.23155085 3:0.42505383 
-1.0 1:0.33249502 2:0.12374555 3:0.10664466 
-1.0 1:0.63238701 2:0.56922917 3:0.36080151 
-1.0 1:0.49044014 2:0.38867797 3:0.6005093 
-1.0 1:0.53859311 2:0.50179516 3:0.49445594 
-1.0 1:0.35627608 2:0.15966444 3:0.15818544 
-1.0 1:0.50756653 2:0.50938776 3:0.6684545 
-1.0 1:0.46571136 2:0.31355844 3:0.28172172 
-1.0 1:0.4891809 2:0.30397207 3:0.23988457 
-1.0 1:0.66985964 2:0.74750442 3:0.87526366 
-1.0 1:0.40430246 2:0.31499446 3:0.5481971 
-1.0 1:0.36136574 2:0.1796225 3:0.16328819 
-1.0 1:0.53783906 2:0.55391627 3:0.67006678 
-1.0 1:0.36367689 2:0.18275334 3:0.38218089 
-1.0 1:0.58938453 2:0.62883618 3:0.60353542 
-1.0 1:0.41016244 2:0.26288444 3:0.24864824 
-1.0 1:0.45484026 2:0.34944697 3:0.3872585 
-1.0 1:0.80616946 2:1.02760733 3:1.18138074 
-1.0 1:0.36276464 2:0.18813506 3:0.2916067 
-1.0 1:0.39053218 2:0.25245125 3:0.26253206 
-1.0 1:0.48532026 2:0.40039001 3:0.59309836 
-1.0 1:0.4921912 2:0.4395052 3:0.4278039 
-1.0 1:0.53551808 2:0.46899117 3:0.54690783 
-1.0 1:0.47551581 2:0.40039001 3:0.40528388 
-1.0 1:0.58770861 2:0.62081633 3:0.67375969 
-1.0 1:0.51936716 2:0.42941124 3:0.61247483 
-1.0 1:0.43629801 2:0.36662218 3:0.52390356 
-1.0 1:0.53664286 2:0.49283959 3:0.67774175 
-1.0 1:0.51885989 2:0.53549331 3:0.76415372 
-1.0 1:0.53883554 2:0.53824512 3:0.60771309 
-1.0 1:0.35952511 2:0.15872268 3:0.30954169 
-1.0 1:0.48234737 2:0.44916465 3:0.49744639 
-1.0 1:0.47327814 2:0.43764616 3:0.60756962 
-1.0 1:0.58200915 2:0.51131564 3:0.50772995 
-1.0 1:0.3808357 2:0.22258691 3:0.19031693 
-1.0 1:0.50710289 2:0.47351255 3:0.46843915 
-1.0 1:0.57812288 2:0.56451955 3:0.53362077 
-1.0 1:0.64764378 2:0.69734828 3:0.61736913 
-1.0 1:0.48351754 2:0.36922402 3:0.35209017 
-1.0 1:0.37747131 2:0.14954326 3:0.16804454 
-1.0 1:0.41522618 2:0.22320377 3:0.31969059 
-1.0 1:0.54394617 2:0.48018496 3:0.48625759 
-1.0 1:0.46494783 2:0.23132405 3:0.40234649 
-1.0 1:0.60261124 2:0.49145872 3:0.61832459 
-1.0 1:0.45832501 2:0.35147559 3:0.30711006 
-1.0 1:0.48010917 2:0.37897771 3:0.51802111 
-1.0 1:0.59294654 2:0.39564618 3:0.64132404 
-1.0 1:0.40292309 2:0.27722018 3:0.28663605 
-1.0 1:0.45294627 2:0.34788677 3:0.32392069 
-1.0 1:0.54633223 2:0.48780247 3:0.55713996 
-1.0 1:0.45324606 2:0.32267492 3:0.28654066 
-1.0 1:0.40430246 2:0.31991624 3:0.52305044 
-1.0 1:0.42987063 2:0.33814274 3:0.57031172 
-1.0 1:0.44825194 2:0.34652523 3:0.38900607 
-1.0 1:0.43492793 2:0.35803349 3:0.45319413 
-1.0 1:0.46941601 2:0.34739665 3:0.38185706 
-1.0 1:0.5089324 2:0.49776196 3:0.64761804 
-1.0 1:0.48822377 2:0.43764616 3:0.60756962 
-1.0 1:0.49412212 2:0.43424581 3:0.56299439 
-1.0 1:0.52020287 2:0.45670911 3:0.60827053 
-1.0 1:0.33469001 2:0.14972155 3:0.3581614 
-1.0 1:0.36582185 2:0.24146271 3:0.50290622 
-1.0 1:0.44054485 2:0.30752519 3:0.33491396 
-1.0 1:0.55885363 2:0.57887712 3:0.57332842 
-1.0 1:0.43708163 2:0.26483632 3:0.37590066 
-1.0 1:0.72127875 2:0.74816327 3:0.87535708 
-1.0 1:0.35742115 2:0.14847562 3:0.30481386 
-1.0 1:0.52871067 2:0.53074488 3:0.49445594 
-1.0 1:0.49895333 2:0.430105 3:0.58478942 
-1.0 1:0.39699335 2:0.27442326 3:0.32147363 
-1.0 1:0.46567043 2:0.41267043 3:0.52239427 
-1.0 1:0.52511772 2:0.52303578 3:0.73232841 
-1.0 1:0.53101666 2:0.55694098 3:0.71798172 
-1.0 1:0.71059314 2:0.79061224 3:0.92840902 
-1.0 1:0.61102019 2:0.42941124 3:0.48160414 
-1.0 1:0.34162702 2:0.12260941 3:0.22554039 
-1.0 1:0.374173 2:0.12562578 3:0.13455167 
-1.0 1:0.43817628 2:0.35271853 3:0.36378785 
-1.0 1:0.47202171 2:0.34447973 3:0.38592043 
-1.0 1:0.39172156 2:0.26592283 3:0.50818869 
-1.0 1:0.51382241 2:0.47162714 3:0.51592544 
-1.0 1:0.58800532 2:0.62241899 3:0.75392292 
-1.0 1:0.44298963 2:0.37384037 3:0.4920738 
-1.0 1:0.65699149 2:0.65951964 3:0.60351974 
-1.0 1:0.54688326 2:0.53568905 3:0.72057245 
-1.0 1:0.44836449 2:0.39103593 3:0.57384985 
-1.0 1:0.4194638 2:0.3396034 3:0.52305044 
-1.0 1:0.47826002 2:0.47612055 3:0.69576521 
-1.0 1:0.48929973 2:0.41699528 3:0.41221639 
-1.0 1:0.32117938 2:0.12544879 3:0.27904939 
-1.0 1:0.74021586 2:0.96454326 3:0.97801753 
-1.0 1:0.39855002 2:0.28374861 3:0.48017599 
-1.0 1:0.42987063 2:0.30333393 3:0.44301 
-1.0 1:0.43314232 2:0.37127703 3:0.5579166 
-1.0 1:0.52944028 2:0.55958122 3:0.66723566 
-1.0 1:0.47384816 2:0.41699528 3:0.52783806 
-1.0 1:0.41441002 2:0.32483803 3:0.52807977 
-1.0 1:0.36458884 2:0.13888235 3:0.09641462 
-1.0 1:0.53890963 2:0.46533388 3:0.63469412 
-1.0 1:0.56096966 2:0.59553639 3:0.61860774 
-1.0 1:0.58826698 2:0.57887712 3:0.5436735 
-1.0 1:0.34871087 2:0.18702796 3:0.27158388 
-1.0 1:0.52172267 2:0.47814302 3:0.45267621 
-1.0 1:0.52172267 2:0.4926322 3:0.58201228 
-1.0 1:0.53156649 2:0.55058893 3:0.68647602 
-1.0 1:0.48350771 2:0.46038352 3:0.62445711 
-1.0 1:0.5242348 2:0.38918208 3:0.37760395 
-1.0 1:0.44985352 2:0.39534819 3:0.58340457 
-1.0 1:0.72295197 2:0.96745471 3:1.12677911 
-1.0 1:0.3592464 2:0.15947713 3:0.17398694 
-1.0 1:0.6523919 2:0.57185904 3:0.57031172 
-1.0 1:0.54760802 2:0.53948138 3:0.3408166 
-1.0 1:0.43312825 2:0.15455128 3:0.20395302 
-1.0 1:0.52453806 2:0.49204555 3:0.53378853 
-1.0 1:0.47016689 2:0.3555102 3:0.381974 
-1.0 1:0.40689135 2:0.28792531 3:0.33681095 
-1.0 1:0.37679578 2:0.26269864 3:0.46066483 
-1.0 1:0.54459344 2:0.56381506 3:0.51537836 
-1.0 1:0.61102019 2:0.44961883 3:0.54442207 
-1.0 1:0.54080496 2:0.58577908 3:0.75405437 
-1.0 1:0.4640266 2:0.39144387 3:0.32380902 
-1.0 1:0.36692906 2:0.21273826 3:0.27103397 
-1.0 1:0.43325295 2:0.35755029 3:0.54319008 
-1.0 1:0.7075293 2:0.83670402 3:0.99580757 
-1.0 1:0.58200915 2:0.58081485 3:0.58313538 
-1.0 1:0.50918349 2:0.41425555 3:0.55489173 
-1.0 1:0.4825472 2:0.39565448 3:0.32488086 
-1.0 1:0.50710289 2:0.42036318 3:0.43355538 
-1.0 1:0.44338689 2:0.26932071 3:0.48507575 
-1.0 1:0.44090073 2:0.32629755 3:0.30757793 
-1.0 1:0.70047119 2:0.51627987 3:0.52783806 
-1.0 1:0.53365189 2:0.53074488 3:0.48466473 
-1.0 1:0.46336155 2:0.35642595 3:0.24568804 
-1.0 1:0.45590691 2:0.31838242 3:0.182872 
-1.0 1:0.49861732 2:0.41583027 3:0.58862761 
-1.0 1:0.45810316 2:0.42068092 3:0.61470795 
-1.0 1:0.35688386 2:0.16815315 3:0.14213538 
-1.0 1:0.41088637 2:0.33083943 3:0.54105252 
-1.0 1:0.47400567 2:0.39144387 3:0.56545754 
-1.0 1:0.80096837 2:1.04264549 3:0.8736261 
-1.0 1:0.43482746 2:0.36187151 3:0.59236801 
-1.0 1:0.52020287 2:0.50635141 3:0.4825948 
-1.0 1:0.47899868 2:0.44678065 3:0.59821647 
-1.0 1:0.5388696 2:0.53159045 3:0.72977853 
-1.0 1:0.36263078 2:0.13365973 3:0.15355503 
-1.0 1:0.62799084 2:0.55909889 3:0.41098472 
-1.0 1:0.43264397 2:0.32267492 3:0.43735154 
-1.0 1:0.35401628 2:0.17488971 3:0.23260958 
-1.0 1:0.51385594 2:0.5197313 3:0.56877154 
-1.0 1:0.66315833 2:0.54929014 3:0.30573253 
-1.0 1:0.66709905 2:0.73826826 3:0.86504496 
-1.0 1:0.4891809 2:0.17852328 3:0.19582413 
-1.0 1:0.59997859 2:0.70106927 3:0.81794179 
-1.0 1:0.43817628 2:0.35755029 3:0.56312366 
-1.0 1:0.36197056 2:0.19339842 3:0.16939623 
-1.0 1:0.43293266 2:0.34149392 3:0.53342425 
-1.0 1:0.43280596 2:0.30311382 3:0.29315035 
-1.0 1:0.4696273 2:0.37153203 3:0.59312798 
-1.0 1:0.46824856 2:0.38918208 3:0.3827067 
-1.0 1:0.69990753 2:0.53591837 3:0.58887658 
-1.0 1:0.40191414 2:0.30407133 3:0.52124891 
-1.0 1:0.54898271 2:0.52968856 3:0.65516812 
-1.0 1:0.50365386 2:0.51483748 3:0.67052362 
-1.0 1:0.43280596 2:0.36373658 3:0.47113449 
-1.0 1:0.47355351 2:0.41578504 3:0.48244014 
-1.0 1:0.41204188 2:0.32763915 3:0.50772995 
-1.0 1:0.69177097 2:0.78164245 3:0.60215921 
-1.0 1:0.68859777 2:0.80614689 3:0.53704083 
-1.0 1:0.33241155 2:0.11880865 3:0.31734706 
-1.0 1:0.41848297 2:0.23675627 3:0.12458488 
-1.0 1:0.43811006 2:0.3555102 3:0.381974 
-1.0 1:0.37154505 2:0.21454909 3:0.27044607 
-1.0 1:0.66450129 2:0.38603661 3:0.51310333 
-1.0 1:0.40023892 2:0.11579888 3:0.08322526 
-1.0 1:0.47899868 2:0.37231721 3:0.49767589 
-1.0 1:0.4194638 2:0.29038551 3:0.29673054 
-1.0 1:0.4808525 2:0.42979592 3:0.45624672 
-1.0 1:0.72269064 2:0.80717329 3:0.72925302 
-1.0 1:0.54904918 2:0.40039001 3:0.37068648 
-1.0 1:0.42244164 2:0.26444423 3:0.26024056 
-1.0 1:0.42643107 2:0.31910739 3:0.45494987 
-1.0 1:0.40659706 2:0.28526267 3:0.41139084 
-1.0 1:0.46331439 2:0.40398107 3:0.38708065 
-1.0 1:0.34895381 2:0.14918062 3:0.39208931 
-1.0 1:0.4578696 2:0.4058679 3:0.55315687 
-1.0 1:0.52893775 2:0.53061224 3:0.63662333 
-1.0 1:0.47859131 2:0.47023308 3:0.6754162 
-1.0 1:0.374173 2:0.26091508 3:0.46345575 
-1.0 1:0.41413127 2:0.21746882 3:0.20298476 
-1.0 1:0.48757373 2:0.33630631 3:0.31472834 
-1.0 1:0.46447479 2:0.37152141 3:0.53362077 
-1.0 1:0.43771061 2:0.33928694 3:0.40822048 
-1.0 1:0.58118478 2:0.60045818 3:0.44761048 
-1.0 1:0.63492664 2:0.70996994 3:0.83073547 
-1.0 1:0.37010793 2:0.19608846 3:0.20089009 
-1.0 1:0.37547181 2:0.1801894 3:0.24318274 
-1.0 1:0.79263053 2:0.97889266 3:0.7372106 
-1.0 1:0.53859311 2:0.48249534 3:0.40633508 
-1.0 1:0.7024444 2:0.75505986 3:0.71536423 
-1.0 1:0.42648965 2:0.2155469 3:0.22833409 
-1.0 1:0.37699 2:0.14342475 3:0.34518592 
-1.0 1:0.5086904 2:0.48018496 3:0.50161309 
-1.0 1:0.44491008 2:0.39534819 3:0.60285139 
-1.0 1:0.40509871 2:0.22816385 3:0.23849933 
-1.0 1:0.50365386 2:0.44553244 3:0.40948007 
-1.0 1:0.5827755 2:0.56400326 3:0.35585262 
-1.0 1:0.48740957 2:0.37204557 3:0.48837273 
-1.0 1:0.45576255 2:0.38867797 3:0.54192302 
-1.0 1:0.43996663 2:0.34295264 3:0.50561729 
-1.0 1:0.46265973 2:0.29461338 3:0.22882534 
-1.0 1:0.45618207 2:0.39646676 3:0.5614275 
-1.0 1:0.34254827 2:0.18668574 3:0.35043992 
-1.0 1:0.68682975 2:0.66584357 3:0.5776812 
-1.0 1:0.37929761 2:0.17404406 3:0.3106162 
-1.0 1:0.51187885 2:0.51195111 3:0.5919612 
-1.0 1:0.40430246 2:0.27562015 3:0.46269847 
-1.0 1:0.35881843 2:0.18702796 3:0.2263199 
-1.0 1:0.49874253 2:0.39103593 3:0.54337995 
-1.0 1:0.45741453 2:0.42038288 3:0.60407536 
-1.0 1:0.40174083 2:0.28296108 3:0.32172987 
-1.0 1:0.45324606 2:0.28296108 3:0.4474056 
-1.0 1:0.36172273 2:0.22069693 3:0.43103275 
-1.0 1:0.39228909 2:0.27021506 3:0.39159887 
-1.0 1:0.43779449 2:0.26310416 3:0.28151363 
-1.0 1:0.7316299 2:0.78116991 3:0.44241513 
-1.0 1:0.66706486 2:0.7768175 3:0.86162619 
-1.0 1:0.40430246 2:0.31991624 3:0.52305044 
-1.0 1:0.69355171 2:0.83013936 3:0.86902971 
-1.0 1:0.3664554 2:0.20457007 3:0.19390473 
-1.0 1:0.54141032 2:0.50712138 3:0.50242085 
-1.0 1:0.54633223 2:0.55058893 3:0.52231871 
-1.0 1:0.37783525 2:0.18809323 3:0.41642202 
-1.0 1:0.53890963 2:0.43563171 3:0.41459858 
-1.0 1:0.43548111 2:0.31744536 3:0.50744539 
-1.0 1:0.68631148 2:0.61746893 3:0.33608907 
-1.0 1:0.47384816 2:0.44181642 3:0.68367597 
-1.0 1:0.39268934 2:0.18660982 3:0.23064242 
-1.0 1:0.54113126 2:0.50224142 3:0.44301 
-1.0 1:0.55141285 2:0.48317607 3:0.5182731 
-1.0 1:0.34871087 2:0.17226259 3:0.17099726 
-1.0 1:0.45100469 2:0.35697422 3:0.31631913 
-1.0 1:0.46817136 2:0.44047767 3:0.61978818 
-1.0 1:0.42128856 2:0.31078856 3:0.31768222 
-1.0 1:0.54633223 2:0.55058893 3:0.53226764 
-1.0 1:0.6436498 2:0.43493764 3:0.57512348 
-1.0 1:0.51290933 2:0.49877551 3:0.51460386 
-1.0 1:0.44985352 2:0.31437326 3:0.4132449 
-1.0 1:0.45841019 2:0.36354592 3:0.51592544 
-1.0 1:0.55141285 2:0.54598896 3:0.53820668 
-1.0 1:0.43817886 2:0.23266694 3:0.19962154 
-1.0 1:0.44203474 2:0.32195028 3:0.28737498 
-1.0 1:0.51143712 2:0.51088863 3:0.62923228 
-1.0 1:0.52359494 2:0.38734694 3:0.54112983 
-1.0 1:0.42818534 2:0.29967974 3:0.24822828 
-1.0 1:0.51187885 2:0.47814302 3:0.47257407 
-1.0 1:0.68501962 2:0.68009944 3:0.51275697 
-1.0 1:0.42147257 2:0.29009763 3:0.3097531 
-1.0 1:0.61075899 2:0.62867874 3:0.5102756 
-1.0 1:0.33256075 2:0.14309158 3:0.16388402 
-1.0 1:0.54394617 2:0.45543316 3:0.47602059 
-1.0 1:0.62753509 2:0.58381936 3:0.61195042 
-1.0 1:0.39528309 2:0.2957504 3:0.51126982 
-1.0 1:0.40689135 2:0.29785377 3:0.46248668 
-1.0 1:0.41735198 2:0.27442326 3:0.35719292 
-1.0 1:0.7075293 2:0.66444143 3:0.64878372 
-1.0 1:0.40191414 2:0.24521881 3:0.39093668 
-1.0 1:0.52376945 2:0.44872067 3:0.41612629 
-1.0 1:0.42374676 2:0.25968472 3:0.25904248 
-1.0 1:0.62413119 2:0.55641177 3:0.65521957 
-1.0 1:0.43280596 2:0.23238726 3:0.21462793 
-1.0 1:0.48248624 2:0.46384902 3:0.58305724 
-1.0 1:0.52871067 2:0.44872067 3:0.52872516 
-1.0 1:0.41441002 2:0.27562015 3:0.41743449 
-1.0 1:0.5717081 2:0.58081485 3:0.58816241 
-1.0 1:0.33241155 2:0.09900721 3:0.10237002 
-1.0 1:0.41803271 2:0.23266694 3:0.42483558 
-1.0 1:0.4275313 2:0.23949666 3:0.24493229 
-1.0 1:0.46354711 2:0.38224567 3:0.48762183 
-1.0 1:0.42340629 2:0.34788677 3:0.47342254 
-1.0 1:0.47847117 2:0.43563171 3:0.41971708 
-1.0 1:0.33096927 2:0.1616607 3:0.30885483 
-1.0 1:0.47727304 2:0.26483632 3:0.3408166 
-1.0 1:0.402083 2:0.1446959 3:0.15308268 
-1.0 1:0.44836877 2:0.3126044 3:0.51447428 
-1.0 1:0.36924968 2:0.18843867 3:0.12458488 
-1.0 1:0.55591588 2:0.56600566 3:0.47778646 
-1.0 1:0.43629801 2:0.35215025 3:0.58321339 
-1.0 1:0.74554624 2:0.90395201 3:1.00264755 
-1.0 1:0.47859131 2:0.38608611 3:0.5586149 
-1.0 1:0.5047513 2:0.47656603 3:0.48762183 
-1.0 1:0.59282336 2:0.51005513 3:0.2856845 
-1.0 1:0.38990751 2:0.23312394 3:0.29939278 
-1.0 1:0.3508267 2:0.11097393 3:0.11259888 
-1.0 1:0.42742444 2:0.24408163 3:0.38727919 
-1.0 1:0.48234737 2:0.40086738 3:0.6068846 
-1.0 1:0.3438965 2:0.16907137 3:0.34116862 
-1.0 1:0.4171924 2:0.2184261 3:0.26140552 
-1.0 1:0.35701206 2:0.21273826 3:0.45010998 
-1.0 1:0.55341677 2:0.55486964 3:0.52872516 
-1.0 1:0.44836877 2:0.322223 3:0.5340733 
-1.0 1:0.42234292 2:0.29785377 3:0.40718936 
-1.0 1:0.41178689 2:0.25084675 3:0.43988129 
-1.0 1:0.6104928 2:0.51699839 3:0.49833952 
-1.0 1:0.49688092 2:0.47755102 3:0.64192853 
-1.0 1:0.55110601 2:0.53613679 3:0.64848676 
-1.0 1:0.48822377 2:0.44245546 3:0.61736913 
-1.0 1:0.38408733 2:0.255933 3:0.43252248 
-1.0 1:0.48550095 2:0.35803349 3:0.30552414 
-1.0 1:0.39207129 2:0.15155691 3:0.10469655 
-1.0 1:0.92709422 2:0.75456288 3:0.87470307 
-1.0 1:0.48097458 2:0.38679684 3:0.34847224 
-1.0 1:0.45215341 2:0.27954944 3:0.37088865 
-1.0 1:0.43312825 2:0.23182692 3:0.22882534 
-1.0 1:0.44985352 2:0.31437326 3:0.4132449 
-1.0 1:0.62666881 2:0.6349107 3:0.53813844 
-1.0 1:0.62771628 2:0.6300181 3:0.36748163 
-1.0 1:0.45903707 2:0.36728067 3:0.30447714 
-1.0 1:0.44985352 2:0.39534819 3:0.63202161 
-1.0 1:0.41597394 2:0.30781812 3:0.34759426 
-1.0 1:0.54543509 2:0.52701069 3:0.72114395 
-1.0 1:0.6463866 2:0.63865777 3:0.62763899 
-1.0 1:0.78016399 2:0.88725121 3:0.93319151 
-1.0 1:0.6426619 2:0.73582267 3:0.64186791 
-1.0 1:0.42832962 2:0.30440092 3:0.26411995 
-1.0 1:0.58715967 2:0.59570754 3:0.58313538 
-1.0 1:0.49884112 2:0.36567849 3:0.44935941 
-1.0 1:0.50983139 2:0.2604947 3:0.45470875 
-1.0 1:0.49390798 2:0.490034 3:0.65435345 
-1.0 1:0.53950378 2:0.42410867 3:0.60212521 
-1.0 1:0.60438078 2:0.61900565 3:0.46380799 
-1.0 1:0.80348166 2:0.98291744 3:1.1210275 
-1.0 1:0.41243863 2:0.29301002 3:0.26174138 
-1.0 1:0.55633618 2:0.44935374 3:0.42857199 
-1.0 1:0.40518014 2:0.29914711 3:0.4357087 
-1.0 1:0.44585467 2:0.32149906 3:0.37592858 
-1.0 1:0.4152494 2:0.25721448 3:0.25280865 
-1.0 1:0.45328848 2:0.40097919 3:0.5527981 
-1.0 1:0.40765511 2:0.13249221 3:0.15859744 
-1.0 1:0.43967892 2:0.27562015 3:0.36211185 
-1.0 1:0.38858627 2:0.24527422 3:0.40177991 
-1.0 1:0.41204188 2:0.32763915 3:0.64345973 
-1.0 1:0.57465713 2:0.64779661 3:0.73232841 
-1.0 1:0.38914112 2:0.255933 3:0.36714118 
-1.0 1:0.64902985 2:0.74195635 3:0.57095078 
-1.0 1:0.44788993 2:0.29937083 3:0.28575434 
-1.0 1:0.45841019 2:0.38319705 3:0.60353542 
-1.0 1:0.47263958 2:0.23192451 3:0.42857199 
-1.0 1:0.54080496 2:0.4716018 3:0.59821647 
-1.0 1:0.37154505 2:0.22452812 3:0.34188466 
-1.0 1:0.4152494 2:0.35724234 3:0.63202161 
-1.0 1:0.62419654 2:0.71017702 3:0.65909557 
-1.0 1:0.64477047 2:0.44916465 3:0.56708888 
-1.0 1:0.53101666 2:0.52710485 3:0.69252137 
-1.0 1:0.67016472 2:0.81713446 3:0.73743894 
-1.0 1:0.45249512 2:0.31580128 3:0.31271843 
-1.0 1:0.68387911 2:0.76938776 3:0.59948697 
-1.0 1:0.69419011 2:0.61403998 3:0.82278168 
-1.0 1:0.73547129 2:0.98746932 3:1.16813307 
-1.0 1:0.4841492 2:0.37728144 3:0.3619461 
-1.0 1:0.42262229 2:0.1667126 3:0.17798414 
-1.0 1:0.37188756 2:0.24174802 3:0.50818869 
-1.0 1:0.51490824 2:0.43610653 3:0.62047308 
-1.0 1:0.57602949 2:0.47834431 3:0.43355538 
-1.0 1:0.43695388 2:0.29176744 3:0.42593077 
-1.0 1:0.59807143 2:0.54028531 3:0.59309836 
-1.0 1:0.40863631 2:0.20293395 3:0.19933581 
-1.0 1:0.43462514 2:0.31007267 3:0.46269847 
-1.0 1:0.56140706 2:0.56095793 3:0.56302727 
-1.0 1:0.72889961 2:0.69623431 3:0.77922265 
-1.0 1:0.49118219 2:0.35712603 3:0.34506286 
-1.0 1:0.37978004 2:0.18848318 3:0.35013732 
-1.0 1:0.42345939 2:0.25008352 3:0.3380831 
-1.0 1:0.42234292 2:0.28792531 3:0.27145957 
-1.0 1:0.59784728 2:0.57381202 3:0.60144105 
-1.0 1:0.47899868 2:0.43188797 3:0.43735154 
-1.0 1:0.32354684 2:0.04341578 3:0.0 
-1.0 1:0.51963583 2:0.45345374 3:0.46459372 
-1.0 1:0.44504253 2:0.3132793 3:0.5244831 
-1.0 1:0.42643107 2:0.35295212 3:0.56626739 
-1.0 1:0.43002526 2:0.33710083 3:0.58753901 
-1.0 1:0.44298963 2:0.34352899 3:0.33502897 
-1.0 1:0.50217956 2:0.28024212 3:0.23421957 
-1.0 1:0.42832962 2:0.30440092 3:0.26411995 
-1.0 1:0.49370472 2:0.49993201 3:0.69065115 
-1.0 1:0.45479697 2:0.30484679 3:0.38407467 
-1.0 1:0.40003498 2:0.24304411 3:0.37043513 
-1.0 1:0.34945575 2:0.10142428 3:0.09948928 
-1.0 1:0.70334974 2:0.63266453 3:0.41599673 
-1.0 1:0.36248246 2:0.24062846 3:0.46619212 
-1.0 1:0.69013402 2:0.87447532 3:0.97344423 
-1.0 1:0.42957136 2:0.29038551 3:0.44258114 
-1.0 1:0.48593308 2:0.2079033 3:0.19359569 
-1.0 1:0.52664458 2:0.41535656 3:0.4128805 
-1.0 1:0.4531733 2:0.37384037 3:0.37167276 
-1.0 1:0.70803256 2:0.82145167 3:0.53394471 
-1.0 1:0.34709505 2:0.16438866 3:0.16455634 
-1.0 1:0.46817136 2:0.42068092 3:0.55374517 
-1.0 1:0.70345959 2:0.82054237 3:0.91296942 
-1.0 1:0.46335697 2:0.29806192 3:0.23033242 
-1.0 1:0.45297959 2:0.38419256 3:0.59702246 
-1.0 1:0.34895381 2:0.15912599 3:0.42773379 
-1.0 1:0.673587 2:0.86987528 3:1.05842052 
-1.0 1:0.47343463 2:0.41583027 3:0.36853207 
-1.0 1:0.49260026 2:0.38576312 3:0.39087229 
-1.0 1:0.41030596 2:0.20481894 3:0.25280865 
-1.0 1:0.85484889 2:0.60489796 3:0.61540255 
-1.0 1:0.3317512 2:0.11375066 3:0.07106769 
-1.0 1:0.39217799 2:0.23155085 3:0.13344713 
-1.0 1:0.4891809 2:0.37152141 3:0.38675267 
-1.0 1:0.37188756 2:0.2079033 3:0.40655095 
-1.0 1:0.6098956 2:0.63337982 3:0.72598384 
-1.0 1:0.41243863 2:0.3334252 3:0.50777828 
-1.0 1:0.53050391 2:0.49642295 3:0.65854082 
-1.0 1:0.39709613 2:0.27201245 3:0.45178745 
-1.0 1:0.36674665 2:0.22560131 3:0.44606878 
-1.0 1:0.57929937 2:0.5829657 3:0.55509103 
-1.0 1:0.39417313 2:0.18847298 3:0.22714961 
-1.0 1:0.48929973 2:0.36735298 3:0.3971353 
-1.0 1:0.39657885 2:0.25750758 3:0.47003121 
-1.0 1:0.59002714 2:0.62006352 3:0.71368847 
-1.0 1:0.44789399 2:0.3863782 3:0.55713996 
-1.0 1:0.39716312 2:0.21723157 3:0.20415828 
-1.0 1:0.38390913 2:0.13040264 3:0.16913177 
-1.0 1:0.56010184 2:0.60117574 3:0.67005794 
-1.0 1:0.49539408 2:0.42706591 3:0.4149861 
-1.0 1:0.57220193 2:0.56544955 3:0.50744539 
-1.0 1:0.43280596 2:0.31321761 3:0.47636931 
-1.0 1:0.49928797 2:0.4286908 3:0.46672365 
-1.0 1:0.42019285 2:0.23816156 3:0.35976615 
-1.0 1:0.54459344 2:0.55383603 3:0.47965907 
-1.0 1:0.4923329 2:0.43485846 3:0.43853878 
-1.0 1:0.37783525 2:0.23264163 3:0.29962072 
-1.0 1:0.50896583 2:0.47899332 3:0.47455631 
-1.0 1:0.50918349 2:0.44456693 3:0.58630069 
-1.0 1:0.46284757 2:0.42509885 3:0.66320012 
-1.0 1:0.47863248 2:0.1667126 3:0.16751448 
-1.0 1:0.3360611 2:0.05557087 3:0.07328759 
-1.0 1:0.44309961 2:0.30440092 3:0.35880445 
-1.0 1:0.45215341 2:0.4119676 3:0.59141703 
-1.0 1:0.55625653 2:0.5559937 3:0.55800024 
