svm_type c_svc
kernel_type linear
nr_class 2
total_sv 35007
rho 3.764905901405067
label 1 -1
nr_sv 17503 17504
SV
1.0 1:0.58942299 2:0.24749109 3:0.34024726 
1.0 1:0.53998884 2:0.28812255 3:0.38604186 
1.0 1:0.63836973 2:0.2868495 3:0.40102482 
1.0 1:0.48044365 2:0.17901674 3:0.32589241 
1.0 1:0.677252 2:0.34771587 3:0.42296831 
1.0 1:0.299372 2:0.71523078 3:0.65728398 
1.0 1:1.09936619 2:0.98293422 3:0.7194886 
1.0 1:0.24668222 2:0.59669359 3:0.4767007 
1.0 1:0.56885338 2:0.22271343 3:0.33529524 
1.0 1:0.56849621 2:0.25245125 3:0.36948956 
1.0 1:0.12353053 2:0.14957356 3:0.23009336 
1.0 1:0.56601988 2:0.24148637 3:0.23877427 
1.0 1:0.3139515 2:0.63985081 3:0.61908337 
1.0 1:0.54898271 2:0.21781586 3:0.26616205 
1.0 1:0.69017014 2:0.302818 3:0.40216233 
1.0 1:0.35354449 2:0.46932089 3:0.44612529 
1.0 1:0.14216452 2:0.45345374 3:0.48436366 
1.0 1:0.60297366 2:0.24602278 3:0.36080151 
1.0 1:0.59634612 2:0.2953073 3:0.37217051 
1.0 1:1.03360151 2:0.97077522 3:0.84565886 
1.0 1:0.42988624 2:0.16404842 3:0.26436258 
1.0 1:0.43280596 2:0.18186829 3:0.30362 
1.0 1:0.51043185 2:0.26085478 3:0.32690653 
1.0 1:0.63018611 2:0.32372797 3:0.32890408 
1.0 1:0.52029666 2:0.36567849 3:0.43878624 
1.0 1:1.08226253 2:1.11388196 3:0.95221689 
1.0 1:0.58779943 2:0.31388008 3:0.37088865 
1.0 1:0.67498605 2:0.3448024 3:0.40583888 
1.0 1:0.56320772 2:0.38687724 3:0.31719488 
1.0 1:0.90595917 2:0.34926597 3:0.43883702 
1.0 1:0.58556101 2:0.18692019 3:0.30885483 
1.0 1:0.63980102 2:0.34153771 3:0.42657865 
1.0 1:0.45953357 2:0.16404842 3:0.30352741 
1.0 1:0.19217746 2:0.21382555 3:0.23932724 
1.0 1:0.56602344 2:0.34452519 3:0.40234649 
1.0 1:0.23880037 2:0.33201122 3:0.35921873 
1.0 1:0.22292734 2:0.34549153 3:0.39545734 
1.0 1:0.75835908 2:0.26943375 3:0.38780946 
1.0 1:0.1832277 2:0.29937083 3:0.32657639 
1.0 1:1.04040574 2:1.08716626 3:0.88978416 
1.0 1:0.65760753 2:0.322223 3:0.42627869 
1.0 1:0.3438965 2:0.64644935 3:0.55503551 
1.0 1:0.63070371 2:0.21536997 3:0.35741956 
1.0 1:0.74099051 2:0.43613658 3:0.49569477 
1.0 1:0.2521025 2:0.22788659 3:0.30133513 
1.0 1:0.58022104 2:0.24448618 3:0.37250119 
1.0 1:0.64863933 2:0.35761539 3:0.41080249 
1.0 1:0.57413707 2:0.29176744 3:0.40540399 
1.0 1:0.43276725 2:0.36081633 3:0.41380517 
1.0 1:0.30635571 2:0.55004469 3:0.49935154 
1.0 1:0.29919711 2:0.29183673 3:0.36605842 
1.0 1:0.69255976 2:0.38873043 3:0.44612529 
1.0 1:0.76742799 2:0.47656603 3:0.53286509 
1.0 1:0.63138753 2:0.18186829 3:0.27221104 
1.0 1:0.2412736 2:0.21760996 3:0.34010965 
1.0 1:0.99249184 2:0.96721634 3:0.715498 
1.0 1:0.19112234 2:0.2762354 3:0.37210804 
1.0 1:0.6965145 2:0.36938174 3:0.40718185 
1.0 1:0.18290748 2:0.48108635 3:0.48617047 
1.0 1:0.18282518 2:0.19782309 3:0.24478017 
1.0 1:0.3388392 2:0.64644935 3:0.57540379 
1.0 1:0.19768381 2:0.30244898 3:0.25464933 
1.0 1:0.3438965 2:0.27847049 3:0.30552414 
1.0 1:0.16795872 2:0.24947569 3:0.34698741 
1.0 1:0.61022748 2:0.31762121 3:0.30237381 
1.0 1:0.67489618 2:0.31187271 3:0.41459858 
1.0 1:0.61964981 2:0.22274198 3:0.36056053 
1.0 1:0.66415012 2:0.25750758 3:0.38190036 
1.0 1:0.62468761 2:0.27719002 3:0.26915082 
1.0 1:0.9013416 2:0.91341823 3:0.81940575 
1.0 1:0.53924473 2:0.30391049 3:0.34103156 
1.0 1:0.25686347 2:0.18316333 3:0.31734706 
1.0 1:1.10281463 2:1.05131727 3:0.80443243 
1.0 1:0.59316921 2:0.28943856 3:0.37562896 
1.0 1:0.53904495 2:0.26729038 3:0.35548221 
1.0 1:0.22653453 2:0.53946142 3:0.55374517 
1.0 1:0.54991817 2:0.1717645 3:0.25650655 
1.0 1:0.28062975 2:0.56048424 3:0.55814026 
1.0 1:0.24576906 2:0.29714286 3:0.30770128 
1.0 1:0.62831666 2:0.25222973 3:0.3756435 
1.0 1:0.23890292 2:0.26218953 3:0.33293877 
1.0 1:0.12255562 2:0.44862977 3:0.46459372 
1.0 1:0.66265616 2:0.20363353 3:0.29297231 
1.0 1:0.99861421 2:0.99725661 3:0.79807382 
1.0 1:0.64381543 2:0.31274646 3:0.38205422 
1.0 1:0.62296692 2:0.27464507 3:0.38592467 
1.0 1:0.54789213 2:0.24728405 3:0.34518592 
1.0 1:0.53502561 2:0.31190207 3:0.35151764 
1.0 1:0.42208164 2:0.21755102 3:0.29709089 
1.0 1:0.598744 2:0.15947713 3:0.23681555 
1.0 1:0.49284333 2:0.30182838 3:0.40027229 
1.0 1:0.30382403 2:0.28272478 3:0.21312706 
1.0 1:0.79318061 2:0.32763915 3:0.39210827 
1.0 1:0.65865823 2:0.23229014 3:0.32715855 
1.0 1:0.53441412 2:0.23949666 3:0.33167914 
1.0 1:0.18380244 2:0.54460129 3:0.54125392 
1.0 1:0.57602949 2:0.19810219 3:0.34385427 
1.0 1:0.35701206 2:0.36262204 3:0.40655095 
1.0 1:0.74151679 2:0.33342618 3:0.35490444 
1.0 1:0.65147626 2:0.30436034 3:0.28065158 
1.0 1:0.46331439 2:0.58673441 3:0.5879706 
1.0 1:1.06551369 2:1.01551392 3:0.68794639 
1.0 1:0.74290577 2:0.39866486 3:0.45766914 
1.0 1:0.53434251 2:0.18331109 3:0.27677924 
1.0 1:0.2835691 2:0.35216595 3:0.3958074 
1.0 1:0.62296692 2:0.35801946 3:0.44105677 
1.0 1:0.38408733 2:0.6349107 3:0.60854907 
1.0 1:0.72889961 2:0.30460251 3:0.3775116 
1.0 1:0.96235679 2:0.9851199 3:0.83233759 
1.0 1:0.67753503 2:0.37993458 3:0.43117844 
1.0 1:0.59294654 2:0.22194786 3:0.34758784 
1.0 1:0.63847163 2:0.31728945 3:0.37242242 
1.0 1:0.65760753 2:0.29817651 3:0.35768212 
1.0 1:0.65689813 2:0.33767832 3:0.41516886 
1.0 1:0.50848235 2:0.19152061 3:0.31406627 
1.0 1:0.57356031 2:0.17848711 3:0.30643416 
1.0 1:1.10061795 2:1.10367347 3:0.89657786 
1.0 1:0.56865808 2:0.27979061 3:0.36080151 
1.0 1:0.6211476 2:0.25282562 3:0.32314645 
1.0 1:0.54258409 2:0.37763697 3:0.37590066 
1.0 1:0.13970693 2:0.47359876 3:0.4736311 
1.0 1:0.51372694 2:0.19306406 3:0.33782106 
1.0 1:0.6148541 2:0.26592283 3:0.36783181 
1.0 1:0.68273571 2:0.26852511 3:0.32080034 
1.0 1:0.68771668 2:0.35080551 3:0.44116835 
1.0 1:0.28696528 2:0.32902258 3:0.37786098 
1.0 1:0.42244164 2:0.20457007 3:0.27044607 
1.0 1:0.51936716 2:0.13640122 3:0.29838517 
1.0 1:0.49434453 2:0.75735375 3:0.6174365 
1.0 1:0.09118601 2:0.43987412 3:0.38592043 
1.0 1:0.57028551 2:0.18692019 3:0.30362 
1.0 1:1.06069236 2:1.03913052 3:0.73248968 
1.0 1:0.72825142 2:0.26852511 3:0.32589241 
1.0 1:0.52172267 2:0.25597556 3:0.34323801 
1.0 1:0.31705221 2:0.54702825 3:0.51262989 
1.0 1:0.14706675 2:0.22672687 3:0.31137664 
1.0 1:0.53924473 2:0.19778302 3:0.34103156 
1.0 1:0.6182636 2:0.30663222 3:0.39594855 
1.0 1:0.46129394 2:0.30208223 3:0.39649359 
1.0 1:0.6142064 2:0.3241118 3:0.36804641 
1.0 1:0.68201421 2:0.24448618 3:0.34698741 
1.0 1:1.09417538 2:1.01130248 3:0.88620467 
1.0 1:1.04337995 2:1.13760915 3:0.88787955 
1.0 1:0.51372694 2:0.24256766 3:0.28151755 
1.0 1:1.22857419 2:1.0607886 3:0.85408875 
1.0 1:0.53570076 2:0.37897771 3:0.41240516 
1.0 1:0.69330189 2:0.29916695 3:0.40597271 
1.0 1:0.58423848 2:0.24256766 3:0.29687305 
1.0 1:0.3291427 2:0.2132836 3:0.22835042 
1.0 1:0.22439783 2:0.23346939 3:0.34483764 
1.0 1:0.68219545 2:0.26674094 3:0.37921297 
1.0 1:0.7327982 2:0.22148048 3:0.34702385 
1.0 1:0.62666881 2:0.27562015 3:0.35708251 
1.0 1:0.58466325 2:0.28088348 3:0.29604855 
1.0 1:0.46844881 2:0.37384037 3:0.38737724 
1.0 1:0.60789514 2:0.28445382 3:0.39594869 
1.0 1:0.95012064 2:1.01112508 3:0.86212494 
1.0 1:0.73800045 2:0.24448618 3:0.32147363 
1.0 1:0.3952977 2:0.40529609 3:0.46508232 
1.0 1:0.58466325 2:0.37627786 3:0.44407283 
1.0 1:0.22664424 2:0.2128655 3:0.28663605 
1.0 1:0.73335415 2:0.320814 3:0.40703034 
1.0 1:0.71240815 2:0.37512528 3:0.40177991 
1.0 1:0.11275117 2:0.41486194 3:0.45965123 
1.0 1:0.66250789 2:0.32367347 3:0.381974 
1.0 1:0.70715265 2:0.318373 3:0.39658883 
1.0 1:0.59839422 2:0.31306122 3:0.34483764 
1.0 1:1.05767311 2:1.03462532 3:0.78313064 
1.0 1:0.5783831 2:0.25721448 3:0.36462785 
1.0 1:0.30884017 2:0.09165554 3:0.25700929 
1.0 1:0.75835908 2:0.34427645 3:0.40822048 
1.0 1:0.56927177 2:0.23759145 3:0.36563885 
1.0 1:1.03546586 2:1.06826709 3:0.90865116 
1.0 1:0.26902126 2:0.29336721 3:0.37728114 
1.0 1:0.5428656 2:0.28190382 3:0.36549097 
1.0 1:0.68710387 2:0.27442326 3:0.32657639 
1.0 1:0.26190001 2:0.2376173 3:0.33270256 
1.0 1:0.61159148 2:0.31369105 3:0.40148499 
1.0 1:0.51520984 2:0.31670056 3:0.39545734 
1.0 1:0.27045685 2:0.27068681 3:0.34250114 
1.0 1:0.52332848 2:0.35213311 3:0.40540399 
1.0 1:0.55835799 2:0.207473 3:0.33779663 
1.0 1:0.52559319 2:0.24608942 3:0.33193586 
1.0 1:0.68859777 2:0.31190207 3:0.40033953 
1.0 1:1.10906423 2:1.05241654 3:0.88233669 
1.0 1:0.75301333 2:0.4232738 3:0.47275713 
1.0 1:0.49688092 2:0.14326531 3:0.2864805 
1.0 1:0.15697575 2:0.26784452 3:0.35521177 
1.0 1:0.71905021 2:0.39184662 3:0.44147749 
1.0 1:0.18831736 2:0.56381506 3:0.51537836 
1.0 1:0.58770861 2:0.26 3:0.30239608 
1.0 1:0.4976268 2:0.23739269 3:0.32995713 
1.0 1:0.54258409 2:0.27954944 3:0.28067249 
1.0 1:0.71258308 2:0.27562015 3:0.39731716 
1.0 1:0.57388748 2:0.21776424 3:0.34545571 
1.0 1:0.16076566 2:0.21579255 3:0.30072053 
1.0 1:1.18987894 2:1.02290329 3:0.80443243 
1.0 1:0.18206286 2:0.21879824 3:0.28006379 
1.0 1:0.22762454 2:0.54043012 3:0.48082393 
1.0 1:1.11875038 2:1.01923224 3:0.90216448 
1.0 1:0.62666881 2:0.26577657 3:0.3218772 
1.0 1:0.46244106 2:0.12858771 3:0.26904196 
1.0 1:0.65298235 2:0.23678317 3:0.35255989 
1.0 1:0.45056618 2:0.23848597 3:0.2537559 
1.0 1:0.18282518 2:0.17852328 3:0.23988457 
1.0 1:0.52187287 2:0.20293395 3:0.29402032 
1.0 1:0.52955083 2:0.21723157 3:0.31932449 
1.0 1:0.16623666 2:0.53549331 3:0.51105822 
1.0 1:0.60438463 2:0.22276622 3:0.34805806 
1.0 1:1.06551369 2:1.04385384 3:0.64835235 
1.0 1:0.56927177 2:0.22769181 3:0.31993399 
1.0 1:0.48423968 2:0.15439851 3:0.2888406 
1.0 1:0.81702753 2:0.27893931 3:0.35278236 
1.0 1:0.69330189 2:0.26974069 3:0.36587664 
1.0 1:0.60203536 2:0.26218953 3:0.32804261 
1.0 1:0.55701073 2:0.68945165 3:0.37043513 
1.0 1:0.54404726 2:0.16212183 3:0.30663493 
1.0 1:0.6198126 2:0.27559275 3:0.38719138 
1.0 1:0.69611593 2:0.31355844 3:0.36080151 
1.0 1:0.52552485 2:0.35897236 3:0.42068664 
1.0 1:0.49884112 2:0.37627786 3:0.43878624 
1.0 1:0.13409708 2:0.2702841 3:0.26432906 
1.0 1:1.03765645 2:0.97946554 3:0.85673059 
1.0 1:0.83979362 2:0.29937083 3:0.29085709 
1.0 1:0.66350131 2:0.29865875 3:0.37672803 
1.0 1:0.6142871 2:0.31728945 3:0.27807541 
1.0 1:0.49659688 2:0.21254943 3:0.28210751 
1.0 1:0.58942299 2:0.26729038 3:0.36056053 
1.0 1:0.29723645 2:0.2159322 3:0.31246012 
1.0 1:0.30219039 2:0.27351412 3:0.35151764 
1.0 1:1.04610425 2:1.02397285 3:0.90216448 
1.0 1:0.29413349 2:0.24602278 3:0.35585902 
1.0 1:0.73800045 2:0.24947569 3:0.27554883 
1.0 1:0.34327216 2:0.42608109 3:0.45666819 
1.0 1:0.16950763 2:0.54991135 3:0.5303934 
1.0 1:0.53962336 2:0.23346939 3:0.33422725 
1.0 1:0.53361467 2:0.20786587 3:0.28449293 
1.0 1:0.24668222 2:0.27940414 3:0.34759426 
1.0 1:0.59062944 2:0.2463161 3:0.3581614 
1.0 1:0.48359756 2:0.28985418 3:0.37477603 
1.0 1:0.71739003 2:0.3029858 3:0.30378481 
1.0 1:0.63476322 2:0.34153771 3:0.42657865 
1.0 1:0.85070729 2:0.87297475 3:0.78654035 
1.0 1:0.67048538 2:0.4027763 3:0.43349966 
1.0 1:0.67614213 2:0.30577584 3:0.39213899 
1.0 1:0.60777021 2:0.36187151 3:0.4357087 
1.0 1:0.26700357 2:0.22769181 3:0.18281942 
1.0 1:0.24616645 2:0.19327043 3:0.31893729 
1.0 1:1.03765645 2:1.02289012 3:0.79798335 
1.0 1:0.49390798 2:0.27280243 3:0.38737724 
1.0 1:0.16109122 2:0.24251018 3:0.34037547 
1.0 1:0.55565178 2:0.26 3:0.29178569 
1.0 1:0.63159408 2:0.37314232 3:0.45533142 
1.0 1:0.48532026 2:0.11095145 3:0.26195178 
1.0 1:0.23263587 2:0.26355243 3:0.32080034 
1.0 1:0.53034618 2:0.31646248 3:0.29695528 
1.0 1:1.05587103 2:1.00606728 3:0.89581508 
1.0 1:0.61445771 2:0.2871209 3:0.38388757 
1.0 1:0.55425478 2:0.18259628 3:0.22032713 
1.0 1:0.62831666 2:0.21760996 3:0.30965207 
1.0 1:1.07512032 2:1.00539712 3:0.86206551 
1.0 1:1.04184708 2:1.10897959 3:0.93371422 
1.0 1:0.51143712 2:0.36208612 3:0.44655194 
1.0 1:0.32233847 2:0.57424181 3:0.5323241 
1.0 1:0.61150747 2:0.255933 3:0.36714118 
1.0 1:0.25318669 2:0.57536972 3:0.5277432 
1.0 1:0.65847586 2:0.40060016 3:0.46701624 
1.0 1:1.14084942 2:0.99552479 3:0.82315884 
1.0 1:0.72846938 2:0.41687198 3:0.47614083 
1.0 1:0.33860331 2:0.58077103 3:0.56831442 
1.0 1:0.5085229 2:0.24651198 3:0.18836401 
1.0 1:0.58942299 2:0.19799287 3:0.2945424 
1.0 1:0.40430246 2:0.23624584 3:0.29673054 
1.0 1:0.51588219 2:0.31646248 3:0.32170155 
1.0 1:0.25752617 2:0.32763915 3:0.3971353 
1.0 1:0.63444286 2:0.1896246 3:0.27263212 
1.0 1:1.02546574 2:0.98848964 3:0.79091468 
1.0 1:0.24717226 2:0.27626741 3:0.37435126 
1.0 1:0.27850536 2:0.27280461 3:0.31969059 
1.0 1:0.9201843 2:0.92916055 3:0.83276721 
1.0 1:0.56885338 2:0.28210368 3:0.33529524 
1.0 1:0.19129583 2:0.33159555 3:0.38101732 
1.0 1:0.59313093 2:0.18793588 3:0.3198046 
1.0 1:0.62666881 2:0.255933 3:0.38222917 
1.0 1:0.73330872 2:0.33317005 3:0.32080034 
1.0 1:0.14425575 2:0.22285714 3:0.25995453 
1.0 1:0.66334914 2:0.25296427 3:0.30446723 
1.0 1:0.73845093 2:0.28995843 3:0.40596952 
1.0 1:0.2199192 2:0.22788659 3:0.3383412 
1.0 1:0.39716312 2:0.19702398 3:0.30362 
1.0 1:0.52187287 2:0.16427986 3:0.26910334 
1.0 1:0.29977068 2:0.23140176 3:0.32329685 
1.0 1:0.53064698 2:0.27562015 3:0.3872585 
1.0 1:0.12057424 2:0.47082012 3:0.46611681 
1.0 1:0.1720101 2:0.58056253 3:0.53857742 
1.0 1:0.62321334 2:0.31771069 3:0.35691907 
1.0 1:0.15754653 2:0.19810219 3:0.28903692 
1.0 1:0.47557832 2:0.60461017 3:0.37104639 
1.0 1:0.55291866 2:0.30168654 3:0.34010965 
1.0 1:0.57537734 2:0.20712777 3:0.28791552 
1.0 1:0.40964142 2:0.71109428 3:0.66196896 
1.0 1:0.35701206 2:0.33361227 3:0.41623073 
1.0 1:0.25774282 2:0.24116763 3:0.27158388 
1.0 1:0.37663471 2:0.35425548 3:0.418426 
1.0 1:0.63510738 2:0.45777305 3:0.45672095 
1.0 1:0.34193956 2:0.27061224 3:0.36605842 
1.0 1:1.06509727 2:1.01248211 3:0.85926533 
1.0 1:0.61277065 2:0.25970212 3:0.35768212 
1.0 1:0.58587615 2:0.24158803 3:0.35382106 
1.0 1:0.6142871 2:0.26046149 3:0.33269736 
1.0 1:1.25936865 2:1.01203323 3:0.86149814 
1.0 1:1.18062279 2:1.04463213 3:0.88211354 
1.0 1:0.57892158 2:0.29200205 3:0.31497432 
1.0 1:0.58014459 2:0.30943747 3:0.40655095 
1.0 1:0.63453338 2:0.44613196 3:0.49637846 
1.0 1:1.06100783 2:1.11198741 3:0.86464902 
1.0 1:0.33249502 2:0.49993201 3:0.52306668 
1.0 1:0.54496617 2:0.19102041 3:0.12732467 
1.0 1:0.64330854 2:0.28887547 3:0.37242242 
1.0 1:1.04180411 2:1.02934627 3:0.89620413 
1.0 1:0.24588777 2:0.25505931 3:0.34149857 
1.0 1:0.21455532 2:0.35507911 3:0.40178018 
1.0 1:0.57388748 2:0.3117988 3:0.39625802 
1.0 1:0.55882773 2:0.22230146 3:0.35763981 
1.0 1:0.32493971 2:0.28990564 3:0.35880445 
1.0 1:0.89577986 2:0.87316491 3:0.73989963 
1.0 1:0.25265098 2:0.25432015 3:0.36128202 
1.0 1:0.63247631 2:0.28949721 3:0.40633508 
1.0 1:0.53664286 2:0.26091508 3:0.38372143 
1.0 1:0.56824044 2:0.30879702 3:0.35737905 
1.0 1:0.58951895 2:0.24472316 3:0.36128202 
1.0 1:0.5397345 2:0.22228347 3:0.35073345 
1.0 1:0.58078561 2:0.3863782 3:0.45267621 
1.0 1:1.08809452 2:1.05624828 3:0.82256037 
1.0 1:1.08816551 2:1.07411134 3:0.9394887 
1.0 1:0.66165558 2:0.2544652 3:0.35719292 
1.0 1:0.41299617 2:0.28217054 3:0.31222856 
1.0 1:0.47856009 2:0.21124966 3:0.0924772 
1.0 1:0.64815794 2:0.22320377 3:0.27909496 
1.0 1:0.603184 2:0.3115779 3:0.39594855 
1.0 1:0.62453079 2:0.31682307 3:0.38900607 
1.0 1:0.25792238 2:0.60666785 3:0.54994344 
1.0 1:0.18086136 2:0.23541006 3:0.35084061 
1.0 1:0.08054561 2:0.46522361 3:0.49786263 
1.0 1:0.48041804 2:0.19295904 3:0.31631913 
1.0 1:0.25404295 2:0.33704169 3:0.3951406 
1.0 1:0.31501326 2:0.66402244 3:0.62093523 
1.0 1:0.25111186 2:0.23877551 3:0.35544803 
1.0 1:1.14043137 2:0.97597087 3:0.87710153 
1.0 1:0.95198197 2:0.96225625 3:0.81191262 
1.0 1:0.3317512 2:0.55391627 3:0.51777888 
1.0 1:0.62757432 2:0.28618316 3:0.37534727 
1.0 1:0.65689813 2:0.32803037 3:0.34597405 
1.0 1:0.25459174 2:0.27280243 3:0.34549862 
1.0 1:0.67215284 2:0.255933 3:0.29170121 
1.0 1:0.29977068 2:0.27164555 3:0.37974551 
1.0 1:0.51885989 2:0.21616244 3:0.30176771 
1.0 1:0.69285031 2:0.24366168 3:0.37172103 
1.0 1:0.21376565 2:0.29438131 3:0.34188466 
1.0 1:0.6329382 2:0.25968472 3:0.35420094 
1.0 1:0.56125951 2:0.31406444 3:0.4186052 
1.0 1:0.6142871 2:0.27940414 3:0.36745679 
1.0 1:0.70224591 2:0.28917752 3:0.36681413 
1.0 1:0.54988743 2:0.27351412 3:0.34175326 
1.0 1:0.49153811 2:0.31836735 3:0.39788958 
1.0 1:0.4674676 2:0.2077186 3:0.29949955 
1.0 1:0.61611202 2:0.31321761 3:0.41878621 
1.0 1:0.49021673 2:0.31991624 3:0.26152522 
1.0 1:0.52955083 2:0.21217967 3:0.35073345 
1.0 1:0.43779449 2:0.54110101 3:0.54794618 
1.0 1:0.27129204 2:0.58362077 3:0.56635699 
1.0 1:0.61768033 2:0.26531868 3:0.36080151 
1.0 1:0.59247925 2:0.28559931 3:0.22522329 
1.0 1:0.67183489 2:0.28440229 3:0.31637088 
1.0 1:0.69285031 2:0.2734978 3:0.3106162 
1.0 1:0.51882822 2:0.22194786 3:0.31331862 
1.0 1:0.18839789 2:0.19702398 3:0.27221104 
1.0 1:0.63070371 2:0.26218953 3:0.32314645 
1.0 1:0.2067203 2:0.1931891 3:0.20395302 
1.0 1:1.09816947 2:1.07098662 3:0.76902094 
1.0 1:0.57892158 2:0.18311993 3:0.29973363 
1.0 1:0.60789514 2:0.24521881 3:0.3408166 
1.0 1:1.16194026 2:1.02496056 3:0.90571359 
1.0 1:0.64971348 2:0.37127703 3:0.45554658 
1.0 1:0.52566054 2:0.35507911 3:0.34362778 
1.0 1:1.06709062 2:1.04923702 3:0.71798172 
1.0 1:0.6545221 2:0.27559275 3:0.3775116 
1.0 1:0.6053844 2:0.21332768 3:0.34698634 
1.0 1:1.01580992 2:0.96467052 3:0.774517 
1.0 1:0.66204527 2:0.26577657 3:0.35205318 
1.0 1:0.57602949 2:0.23192451 3:0.33388748 
1.0 1:0.93533781 2:0.92104751 3:0.76713446 
1.0 1:0.21158774 2:0.2029427 3:0.24883755 
1.0 1:0.6346881 2:0.17405858 3:0.27587386 
1.0 1:0.6211476 2:0.29496322 3:0.3525234 
1.0 1:0.52393154 2:0.29698931 3:0.29962072 
1.0 1:0.25645467 2:0.18571429 3:0.29178569 
1.0 1:0.18635193 2:0.2128655 3:0.30199155 
1.0 1:0.29311928 2:0.28054194 3:0.35708251 
1.0 1:0.18931126 2:0.26932071 3:0.33318334 
1.0 1:0.52393154 2:0.24749109 3:0.33516894 
1.0 1:0.46901613 2:0.29479107 3:0.33830793 
1.0 1:0.20340916 2:0.29865875 3:0.2181057 
1.0 1:0.57775158 2:0.25993194 3:0.37088865 
1.0 1:0.3047251 2:0.29361113 3:0.337663 
1.0 1:0.54175219 2:0.31798129 3:0.34891436 
1.0 1:0.20215123 2:0.27562015 3:0.34702385 
1.0 1:0.4789952 2:0.23196674 3:0.30931011 
1.0 1:0.24667093 2:0.29200205 3:0.34545571 
1.0 1:0.28164961 2:0.66101862 3:0.60705482 
1.0 1:0.91473431 2:0.86623475 3:0.73931168 
1.0 1:0.45515714 2:0.25857974 3:0.34116862 
1.0 1:0.60409208 2:0.20786587 3:0.33529524 
1.0 1:0.37154505 2:0.60373117 3:0.55620041 
1.0 1:0.56386161 2:0.31429023 3:0.39258283 
1.0 1:0.17294274 2:0.19299814 3:0.2937362 
1.0 1:1.04610425 2:1.00501039 3:0.68901573 
1.0 1:0.88606825 2:1.0361756 3:0.88821866 
1.0 1:0.73330872 2:0.20885287 3:0.35135276 
1.0 1:0.70659463 2:0.5693445 3:0.59236801 
1.0 1:0.66360793 2:0.20780354 3:0.33347496 
1.0 1:0.58623856 2:0.23624584 3:0.23637857 
1.0 1:0.58556101 2:0.26269864 3:0.38214242 
1.0 1:0.54904918 2:0.19295904 3:0.31631913 
1.0 1:0.31418193 2:0.24821147 3:0.32172987 
1.0 1:0.68005907 2:0.15229626 3:0.31150215 
1.0 1:0.75562119 2:0.41267375 3:0.47698767 
1.0 1:0.68287361 2:0.35554613 3:0.44116835 
1.0 1:0.15961791 2:0.63931456 3:0.60084151 
1.0 1:0.59245686 2:0.25296427 3:0.31969059 
1.0 1:1.02212173 2:1.0344072 3:0.83147477 
1.0 1:0.36172273 2:0.27464507 3:0.33079258 
1.0 1:0.58927502 2:0.25741874 3:0.30711006 
1.0 1:0.45484026 2:0.34944697 3:0.3872585 
1.0 1:1.08993233 2:1.06653061 3:0.89127266 
1.0 1:0.57775158 2:0.27464507 3:0.38091267 
1.0 1:0.44298963 2:0.22228347 3:0.31932449 
1.0 1:0.63476322 2:0.28708967 3:0.40118707 
1.0 1:0.64863933 2:0.1788077 3:0.32864199 
1.0 1:0.72269064 2:0.32483803 3:0.25146656 
1.0 1:0.59555135 2:0.25597556 3:0.36811033 
1.0 1:0.58587615 2:0.18843867 3:0.31893729 
1.0 1:0.78565417 2:0.32327188 3:0.39164827 
1.0 1:0.527786 2:0.26212109 3:0.27919449 
1.0 1:1.02771187 2:1.05431206 3:0.85315731 
1.0 1:0.39002481 2:0.14857143 3:0.25464933 
1.0 1:0.36276464 2:0.18813506 3:0.2916067 
1.0 1:0.15910385 2:0.21727275 3:0.30685379 
1.0 1:0.27202363 2:0.32424366 3:0.39911213 
1.0 1:0.75226316 2:0.3270323 3:0.38218089 
1.0 1:0.60748744 2:0.22671939 3:0.34644782 
1.0 1:0.5638109 2:0.37455647 3:0.27908103 
1.0 1:0.40765511 2:0.46637256 3:0.40178018 
1.0 1:0.48532026 2:0.14471928 3:0.28666421 
1.0 1:0.37933919 2:0.26530612 3:0.29178569 
1.0 1:0.6731935 2:0.3077551 3:0.41911036 
1.0 1:0.58307786 2:0.2077186 3:0.32995713 
1.0 1:1.09937808 2:1.08560085 3:0.60474762 
1.0 1:1.09527514 2:1.03469388 3:0.72150644 
1.0 1:0.23508344 2:0.29183673 3:0.38727919 
1.0 1:0.70385901 2:0.26784452 3:0.37043513 
1.0 1:0.65311048 2:0.26974069 3:0.39093668 
1.0 1:0.6822604 2:0.26577657 3:0.26655455 
1.0 1:0.40779277 2:0.25536081 3:0.34350998 
1.0 1:0.76720972 2:0.31188933 3:0.42079908 
1.0 1:0.64227729 2:0.29836124 3:0.26478758 
1.0 1:0.21213847 2:0.59986171 3:0.42068664 
1.0 1:0.30322684 2:0.22148048 3:0.25146656 
1.0 1:0.57920194 2:0.2623691 3:0.33782106 
1.0 1:0.23612456 2:0.3089757 3:0.39594869 
1.0 1:0.6452691 2:0.24649318 3:0.37461381 
1.0 1:0.23283522 2:0.2879096 3:0.33687107 
1.0 1:0.49895333 2:0.14981185 3:0.29964417 
1.0 1:0.26999442 2:0.50067198 3:0.4800777 
1.0 1:0.6028069 2:0.27413001 3:0.36258187 
1.0 1:0.57537734 2:0.25259485 3:0.30362 
1.0 1:0.15013533 2:0.57835504 3:0.56013509 
1.0 1:0.62879782 2:0.26519715 3:0.23338472 
1.0 1:0.68863506 2:0.38081743 3:0.4314824 
1.0 1:0.19204367 2:0.26577657 3:0.27158388 
1.0 1:0.38558873 2:0.71448467 3:0.67577696 
1.0 1:0.6446051 2:0.26592283 3:0.3775116 
1.0 1:0.35167487 2:0.25502756 3:0.37088865 
1.0 1:0.5399206 2:0.29964518 3:0.23991176 
1.0 1:0.26803698 2:0.56688635 3:0.55503551 
1.0 1:0.56858895 2:0.26218953 3:0.31335414 
1.0 1:0.78767659 2:0.27831262 3:0.37104639 
1.0 1:0.60912618 2:0.21776424 3:0.31497432 
1.0 1:0.30884017 2:0.31838242 3:0.41022637 
1.0 1:0.28085904 2:0.23058506 3:0.28293572 
1.0 1:0.83951205 2:0.42267842 3:0.46337827 
1.0 1:0.64018824 2:0.38734643 3:0.41053569 
1.0 1:1.08106692 2:1.02918987 3:0.89665517 
1.0 1:0.62468761 2:0.24254127 3:0.36563885 
1.0 1:0.57148288 2:0.29865875 3:0.29741686 
1.0 1:0.64503789 2:0.26218953 3:0.38190036 
1.0 1:0.74342332 2:0.30830661 3:0.29024793 
1.0 1:1.01580992 2:1.00896662 3:0.89522095 
1.0 1:0.60872307 2:0.33345219 3:0.41080249 
1.0 1:0.13059647 2:0.5303943 3:0.45187254 
1.0 1:0.18229442 2:0.24304411 3:0.34506286 
1.0 1:0.16445481 2:0.60142925 3:0.59091024 
1.0 1:0.86913933 2:0.85826584 3:0.77184935 
1.0 1:0.52393154 2:0.19304305 3:0.31993399 
1.0 1:1.06059853 2:1.10288686 3:0.94926127 
1.0 1:0.67823011 2:0.3089757 3:0.38592467 
1.0 1:0.53962336 2:0.23877551 3:0.29709089 
1.0 1:1.1059763 2:0.98590619 3:0.87705615 
1.0 1:0.16929172 2:0.28887547 3:0.37738805 
1.0 1:0.21100492 2:0.22560131 3:0.29069651 
1.0 1:0.50787516 2:0.36938174 3:0.41214748 
1.0 1:0.54991817 2:0.23238726 3:0.26697621 
1.0 1:0.31623816 2:0.50179516 3:0.39164827 
1.0 1:0.52511772 2:0.22552919 3:0.31734231 
1.0 1:0.3664554 2:0.34926597 3:0.42863151 
1.0 1:0.51473361 2:0.21707892 3:0.26195178 
1.0 1:0.6825169 2:0.25489282 3:0.37238138 
1.0 1:0.66841287 2:0.25296427 3:0.35521177 
1.0 1:0.55565178 2:0.31836735 3:0.40849997 
1.0 1:0.64647947 2:0.71102041 3:0.67375969 
1.0 1:1.10320694 2:1.05133549 3:0.76902094 
1.0 1:0.61794299 2:0.29426257 3:0.35585262 
1.0 1:0.64647947 2:0.19632653 3:0.26525972 
1.0 1:0.81434533 2:0.7584061 3:0.70928309 
1.0 1:0.52354647 2:0.34149392 3:0.38101732 
1.0 1:0.13017588 2:0.57152179 3:0.50977322 
1.0 1:0.70025466 2:0.22274198 3:0.35040389 
1.0 1:0.55030897 2:0.3555102 3:0.41911036 
1.0 1:0.60054133 2:0.43613658 3:0.26767518 
1.0 1:0.51936716 2:0.21723157 3:0.25650655 
1.0 1:0.60282898 2:0.10614898 3:0.27415379 
1.0 1:0.43629801 2:0.19295904 3:0.30643416 
1.0 1:0.09571826 2:0.19799287 3:0.21836764 
1.0 1:0.33876751 2:0.3174137 3:0.32828359 
1.0 1:0.59910296 2:0.28482552 3:0.37295369 
1.0 1:0.56793377 2:0.36550668 3:0.42627869 
1.0 1:0.50239267 2:0.70623017 3:0.63652511 
1.0 1:0.62757432 2:0.33388036 3:0.41763992 
1.0 1:0.21569789 2:0.16401518 3:0.20758443 
1.0 1:0.6227344 2:0.24527422 3:0.37238138 
1.0 1:0.43492793 2:0.23868899 3:0.35135276 
1.0 1:0.31569376 2:0.59107194 3:0.58630069 
1.0 1:0.66052206 2:0.28812255 3:0.31180304 
1.0 1:0.6495636 2:0.27075779 3:0.3726717 
1.0 1:0.31650739 2:0.35801946 3:0.41599673 
1.0 1:0.55211058 2:0.33184305 3:0.42134055 
1.0 1:0.25459174 2:0.23743916 3:0.34549862 
1.0 1:0.6973048 2:0.22258691 3:0.35420094 
1.0 1:0.18203827 2:0.28572497 3:0.22337031 
1.0 1:0.15275505 2:0.21217967 3:0.29315035 
1.0 1:0.26283027 2:0.29678254 3:0.39120701 
1.0 1:0.57028551 2:0.30816571 3:0.40831656 
1.0 1:0.38697945 2:0.3233214 3:0.33502897 
1.0 1:0.60945019 2:0.22257618 3:0.32773173 
1.0 1:0.23799549 2:0.5208088 3:0.53789211 
1.0 1:0.24215376 2:0.25599321 3:0.18340707 
1.0 1:0.57513139 2:0.30934986 3:0.39291222 
1.0 1:0.80616946 2:0.31078856 3:0.40206656 
1.0 1:0.6142064 2:0.32902258 3:0.42202655 
1.0 1:0.67489618 2:0.33167415 3:0.43507258 
1.0 1:0.58292313 2:0.40264821 3:0.47003121 
1.0 1:0.6297296 2:0.42064156 3:0.46462966 
1.0 1:0.76870983 2:0.30830661 3:0.3768131 
1.0 1:0.55835799 2:0.21229795 3:0.35248344 
1.0 1:0.40779277 2:0.20625296 3:0.30915898 
1.0 1:1.10765154 2:1.01343196 3:0.769673 
1.0 1:0.56891681 2:0.26450595 3:0.22271646 
1.0 1:0.53514254 2:0.2762354 3:0.3770042 
1.0 1:0.68631148 2:0.25567073 3:0.30643416 
1.0 1:0.66736511 2:0.27626741 3:0.37921297 
1.0 1:1.05263657 2:1.02967496 3:0.83943415 
1.0 1:0.18138232 2:0.54028531 3:0.45470875 
1.0 1:0.33446409 2:0.65079187 3:0.53857742 
1.0 1:0.28574144 2:0.24177137 3:0.31724465 
1.0 1:0.5397345 2:0.24249105 3:0.32979414 
1.0 1:0.62629569 2:0.31321761 3:0.41878621 
1.0 1:0.29531472 2:0.30427283 3:0.33826355 
1.0 1:0.58200915 2:0.51131564 3:0.50772995 
1.0 1:0.53169206 2:0.28272478 3:0.37043513 
1.0 1:0.25675841 2:0.20134218 3:0.32388084 
1.0 1:0.56858895 2:0.26218953 3:0.36721188 
1.0 1:0.45832501 2:0.19801442 3:0.25080655 
1.0 1:0.29153893 2:0.23244701 3:0.3198046 
1.0 1:0.56927177 2:0.19304305 3:0.33516894 
1.0 1:0.29153893 2:0.25717541 3:0.31472834 
1.0 1:1.08805571 2:1.02433326 3:0.86212737 
1.0 1:0.2427431 2:0.24952166 3:0.32710669 
1.0 1:0.69790761 2:0.35803349 3:0.42773379 
1.0 1:1.01836698 2:0.9901718 3:0.87421621 
1.0 1:0.56799826 2:0.16815315 3:0.27919449 
1.0 1:0.65937206 2:0.33710083 3:0.41127731 
1.0 1:0.48532026 2:0.20260699 3:0.30149167 
1.0 1:0.576131 2:0.34452519 3:0.43755181 
1.0 1:0.47538634 2:0.30830661 3:0.37172103 
1.0 1:0.53361467 2:0.24745937 3:0.30989409 
1.0 1:0.65978656 2:0.36137631 3:0.35317656 
1.0 1:0.62508282 2:0.3332512 3:0.41785497 
1.0 1:0.68434273 2:0.39137261 3:0.46345575 
1.0 1:0.55882713 2:0.17678825 3:0.32878812 
1.0 1:0.18931126 2:0.51940424 3:0.52917354 
1.0 1:0.99801508 2:1.07691709 3:0.74733744 
1.0 1:0.678582 2:0.32641494 3:0.42640613 
1.0 1:0.5741654 2:0.21781586 3:0.34805806 
1.0 1:0.41016244 2:0.17856302 3:0.29939278 
1.0 1:0.53998884 2:0.28812255 3:0.29695528 
1.0 1:0.58118478 2:0.17226259 3:0.3218772 
1.0 1:0.45717733 2:0.57381202 3:0.58139302 
1.0 1:0.66204527 2:0.34452519 3:0.44258114 
1.0 1:1.02188888 2:1.0381947 3:0.71380047 
1.0 1:0.89666328 2:0.85413183 3:0.78603249 
1.0 1:0.53388007 2:0.2271341 3:0.35280684 
1.0 1:1.0680549 2:1.05288059 3:0.87550565 
1.0 1:0.93679077 2:1.05153776 3:0.91847615 
1.0 1:0.55903284 2:0.25750758 3:0.33293877 
1.0 1:0.49512471 2:0.22672687 3:0.35091653 
1.0 1:1.06882824 2:0.99790276 3:0.8827768 
1.0 1:0.69742174 2:0.34944697 3:0.44761048 
1.0 1:0.57726566 2:0.19840335 3:0.31969059 
1.0 1:0.19709745 2:0.24608942 3:0.34199452 
1.0 1:0.58292313 2:0.30900909 3:0.38679651 
1.0 1:0.6473346 2:0.39781498 3:0.46847034 
1.0 1:1.07005121 2:1.02687759 3:0.66885995 
1.0 1:0.48350771 2:0.29702162 3:0.35829507 
1.0 1:0.2199192 2:0.20668784 3:0.31719488 
1.0 1:0.64764378 2:0.69734828 3:0.61736913 
1.0 1:0.6473346 2:0.11437181 3:0.26987965 
1.0 1:0.47859131 2:0.20789252 3:0.30469904 
1.0 1:0.44470991 2:0.207473 3:0.30842301 
1.0 1:0.18803183 2:0.28339923 3:0.25241198 
1.0 1:0.60611878 2:0.18548909 3:0.32248146 
1.0 1:0.69219353 2:0.2544652 3:0.37760395 
1.0 1:0.54482633 2:0.18692019 3:0.31932449 
1.0 1:0.7133976 2:0.24521881 3:0.36587664 
1.0 1:0.52393154 2:0.19799287 3:0.34024726 
1.0 1:0.58395568 2:0.17817074 3:0.33021501 
1.0 1:1.03206062 2:1.0300303 3:0.89599699 
1.0 1:0.59493947 2:0.2462545 3:0.27807541 
1.0 1:0.52566054 2:0.19608846 3:0.29076197 
1.0 1:0.75353793 2:0.22874362 3:0.34116862 
1.0 1:0.25752617 2:0.40706682 3:0.46751371 
1.0 1:0.2507091 2:0.25505931 3:0.34149857 
1.0 1:0.67854034 2:0.31248528 3:0.40088186 
1.0 1:0.67318746 2:0.23703075 3:0.34698634 
1.0 1:0.14598892 2:0.15342481 3:0.28449293 
1.0 1:0.26578325 2:0.21250801 3:0.21390195 
1.0 1:0.3443339 2:0.38688654 3:0.45670085 
1.0 1:0.65253478 2:0.2905571 3:0.38407467 
1.0 1:0.37154556 2:0.53743126 3:0.51262989 
1.0 1:0.57878587 2:0.37694595 3:0.44946625 
1.0 1:0.52172267 2:0.26563501 3:0.34821247 
1.0 1:0.5758637 2:0.33808092 3:0.24872319 
1.0 1:0.32117938 2:0.19299814 3:0.30352741 
1.0 1:0.64944775 2:0.36339808 3:0.37786098 
1.0 1:0.66998412 2:0.2554647 3:0.29690049 
1.0 1:0.16177342 2:0.56922917 3:0.55850096 
1.0 1:0.64729998 2:0.18334823 3:0.32800543 
1.0 1:0.757048 2:0.41249879 3:0.45672095 
1.0 1:0.51746445 2:0.25012319 3:0.32076856 
1.0 1:0.56419716 2:0.27020305 3:0.30176771 
1.0 1:0.54408276 2:0.17324377 3:0.32501231 
1.0 1:0.24699684 2:0.58783627 3:0.51552256 
1.0 1:0.66204527 2:0.18210617 3:0.3067892 
1.0 1:0.6776784 2:0.22874362 3:0.31570827 
1.0 1:0.1568712 2:0.4631017 3:0.47447869 
1.0 1:0.619124 2:0.21310485 3:0.26317851 
1.0 1:1.10078717 2:1.10720595 3:0.95829867 
1.0 1:0.33924215 2:0.36987452 3:0.44065426 
1.0 1:0.66212364 2:0.19782309 3:0.34269224 
1.0 1:0.45297959 2:0.3243184 3:0.41332324 
1.0 1:0.43002526 2:0.22473388 3:0.3525234 
1.0 1:0.70525033 2:0.29183673 3:0.39788958 
1.0 1:0.62120386 2:0.1667126 3:0.28791552 
1.0 1:0.28842931 2:0.36735298 3:0.43232451 
1.0 1:0.57518609 2:0.22240818 3:0.34847224 
1.0 1:0.51889374 2:0.23759145 3:0.25899418 
1.0 1:0.23601085 2:0.30738192 3:0.35420094 
1.0 1:0.70895938 2:0.23675627 3:0.36378785 
1.0 1:0.55903284 2:0.35582865 3:0.2350156 
1.0 1:0.63434431 2:0.20625296 3:0.28462256 
1.0 1:0.61656125 2:0.23132405 3:0.34199452 
1.0 1:0.53864877 2:0.18806912 3:0.28957316 
1.0 1:0.75806711 2:0.30022909 3:0.41743449 
1.0 1:0.58307786 2:0.16815315 3:0.28427076 
1.0 1:0.6098956 2:0.38196188 3:0.44527009 
1.0 1:0.65689813 2:0.34732627 3:0.42999631 
1.0 1:0.56099458 2:0.24938776 3:0.3766688 
1.0 1:0.57685863 2:0.35246029 3:0.21616225 
1.0 1:0.55986241 2:0.28440229 3:0.39291222 
1.0 1:0.45948128 2:0.15387755 3:0.190987 
1.0 1:1.02188888 2:1.05715716 3:0.7484991 
1.0 1:0.56865808 2:0.2604947 3:0.37068648 
1.0 1:0.67215284 2:0.26577657 3:0.38222917 
1.0 1:0.13654714 2:0.52213217 3:0.53466724 
1.0 1:0.41506258 2:0.42942085 3:0.46508232 
1.0 1:0.50130965 2:0.27776469 3:0.38058404 
1.0 1:0.61478394 2:0.24649318 3:0.36435042 
1.0 1:0.21301945 2:0.25432015 3:0.31734231 
1.0 1:1.06550703 2:1.01130248 3:0.72463144 
1.0 1:0.54394617 2:0.48018496 3:0.48625759 
1.0 1:0.53055958 2:0.30460251 3:0.36783181 
1.0 1:0.54618857 2:0.2337163 3:0.33098448 
1.0 1:1.15464271 2:1.09277267 3:0.94808286 
1.0 1:0.60461328 2:0.32676077 3:0.337663 
1.0 1:0.98060579 2:1.06142982 3:0.82620307 
1.0 1:0.44297208 2:0.46848356 3:0.51236978 
1.0 1:0.24137474 2:0.26498441 3:0.37006069 
1.0 1:0.24668945 2:0.26518238 3:0.37295369 
1.0 1:0.5508621 2:0.22148048 3:0.34702385 
1.0 1:0.49390798 2:0.21723157 3:0.29838517 
1.0 1:0.59574468 2:0.23238726 3:0.32455931 
1.0 1:0.26124419 2:0.24521881 3:0.35585262 
1.0 1:0.80083814 2:0.37629526 3:0.46186195 
1.0 1:1.06290714 2:0.98746932 3:0.80795871 
1.0 1:0.49899982 2:0.22228347 3:0.35073345 
1.0 1:0.63928593 2:0.30813998 3:0.40646971 
1.0 1:0.6142064 2:0.19643139 3:0.30915898 
1.0 1:0.25635603 2:0.2841398 3:0.32773173 
1.0 1:0.64339626 2:0.21760996 3:0.35533844 
1.0 1:0.46844881 2:0.26775054 3:0.12563586 
1.0 1:0.52445899 2:0.20712777 3:0.34549862 
1.0 1:0.26636914 2:0.65894549 3:0.57004899 
1.0 1:0.58623856 2:0.23624584 3:0.31684786 
1.0 1:0.65847586 2:0.21266428 3:0.32995713 
1.0 1:0.46482408 2:0.23877551 3:0.17507142 
1.0 1:0.24114848 2:0.27954944 3:0.36086463 
1.0 1:0.52380002 2:0.2623691 3:0.35829507 
1.0 1:0.54385913 2:0.31412163 3:0.38663763 
1.0 1:0.62879782 2:0.25572582 3:0.33269736 
1.0 1:1.03995284 2:1.00049275 3:0.8570535 
1.0 1:0.72735378 2:0.24527422 3:0.36748163 
1.0 1:0.63847163 2:0.40253139 3:0.47173507 
1.0 1:0.51290933 2:0.17510204 3:0.2864805 
1.0 1:0.56375586 2:0.21225494 3:0.28666421 
1.0 1:1.07801957 2:1.08081219 3:0.84689648 
1.0 1:0.5430244 2:0.3029858 3:0.32338383 
1.0 1:0.60821053 2:0.20277292 3:0.33503339 
1.0 1:0.55633618 2:0.29956916 3:0.39368822 
1.0 1:0.67320618 2:0.28445382 3:0.35585262 
1.0 1:0.56970319 2:0.29750659 3:0.35151764 
1.0 1:0.51473361 2:0.19778302 3:0.20758443 
1.0 1:0.59065285 2:0.3334252 3:0.39261207 
1.0 1:0.44303412 2:0.27009317 3:0.35332455 
1.0 1:0.59002714 2:0.22258691 3:0.35420094 
1.0 1:1.05070678 2:1.11695164 3:0.92497337 
1.0 1:0.60852792 2:0.24562322 3:0.35739249 
1.0 1:0.23601085 2:0.30208223 3:0.39120701 
1.0 1:0.60566934 2:0.22951763 3:0.27044607 
1.0 1:0.60970308 2:0.34207217 3:0.41053569 
1.0 1:0.51427532 2:0.30311382 3:0.38737724 
1.0 1:0.52896935 2:0.24749109 3:0.37071716 
1.0 1:0.13891294 2:0.39795918 3:0.36605842 
1.0 1:0.35538612 2:0.33260338 3:0.40216233 
1.0 1:0.41847752 2:0.67811109 3:0.64676766 
1.0 1:0.74375634 2:0.31078856 3:0.40206656 
1.0 1:0.59784728 2:0.26483632 3:0.37088865 
1.0 1:0.7223719 2:0.28374861 3:0.2939853 
1.0 1:0.54873278 2:0.22134081 3:0.34895533 
1.0 1:0.59949859 2:0.24749109 3:0.35040389 
1.0 1:0.69419011 2:0.32877731 3:0.39687117 
1.0 1:0.58438518 2:0.31183878 3:0.36056053 
1.0 1:0.31385814 2:0.27893931 3:0.26948653 
1.0 1:0.30032307 2:0.2947374 3:0.35382106 
1.0 1:0.55039359 2:0.30943747 3:0.38719138 
1.0 1:0.57685863 2:0.38224567 3:0.42227045 
1.0 1:0.65411648 2:0.36735298 3:0.42227045 
1.0 1:0.6973048 2:0.27558379 3:0.39120701 
1.0 1:0.63510738 2:0.34710264 3:0.42079908 
1.0 1:0.63045106 2:0.24408163 3:0.30770128 
1.0 1:0.60970308 2:0.29176744 3:0.37461381 
1.0 1:0.60764807 2:0.25792436 3:0.33998841 
1.0 1:0.56409233 2:0.20791514 3:0.34805806 
1.0 1:0.44808147 2:0.24754295 3:0.36643793 
1.0 1:0.26477541 2:0.20712777 3:0.23556724 
1.0 1:0.22105278 2:0.27464507 3:0.28067249 
1.0 1:0.13499721 2:0.58569175 3:0.47512844 
1.0 1:0.69790761 2:0.2337163 3:0.33098448 
1.0 1:1.06895629 2:1.04184594 3:0.63560093 
1.0 1:0.58022104 2:0.1796225 3:0.2551378 
1.0 1:0.51824762 2:0.30685886 3:0.3951406 
1.0 1:0.61323706 2:0.19288156 3:0.28934702 
1.0 1:0.22786802 2:0.31744536 3:0.36028622 
1.0 1:0.63363472 2:0.31255378 3:0.36745679 
1.0 1:0.63367073 2:0.33345219 3:0.40596952 
1.0 1:0.57846253 2:0.23155085 3:0.35585902 
1.0 1:0.34109772 2:0.30008356 3:0.36462785 
1.0 1:1.09250141 2:1.02885793 3:0.89455367 
1.0 1:0.53565444 2:0.24324725 3:0.3619461 
1.0 1:0.63444286 2:0.22280891 3:0.35194329 
1.0 1:0.65951671 2:0.36339808 3:0.4367484 
1.0 1:0.65972609 2:0.32372797 3:0.37873804 
1.0 1:0.6825169 2:0.25008352 3:0.36748163 
1.0 1:0.33354953 2:0.28546373 3:0.34702385 
1.0 1:0.46901613 2:0.09665281 3:0.26581337 
1.0 1:0.26093644 2:0.22226099 3:0.3089705 
1.0 1:0.98307622 2:1.07714286 3:0.83291552 
1.0 1:0.96297993 2:0.9568628 3:0.86026873 
1.0 1:0.60181888 2:0.2337163 3:0.35135276 
1.0 1:0.73330872 2:0.2734978 3:0.32589241 
1.0 1:0.23064697 2:0.23318628 3:0.3383412 
1.0 1:0.66534339 2:0.30701584 3:0.37614335 
1.0 1:0.62296692 2:0.27464507 3:0.38592467 
1.0 1:0.61611202 2:0.23238726 3:0.36120311 
1.0 1:0.56495207 2:0.33429742 3:0.418426 
1.0 1:0.63641541 2:0.39203561 3:0.44048366 
1.0 1:0.50378033 2:0.21779216 3:0.27930745 
1.0 1:0.52187287 2:0.29956916 3:0.37375464 
1.0 1:0.72622381 2:0.37231721 3:0.4474056 
1.0 1:0.58739313 2:0.21824369 3:0.24357379 
1.0 1:0.20923876 2:0.29336721 3:0.32828359 
1.0 1:0.59954137 2:0.34710264 3:0.33356025 
1.0 1:0.5671382 2:0.31744536 3:0.32476505 
1.0 1:1.04140704 2:1.06274713 3:0.71269266 
1.0 1:0.58938453 2:0.26529026 3:0.35530714 
1.0 1:0.18291093 2:0.5785044 3:0.55935487 
1.0 1:0.63866491 2:0.35742452 3:0.42729748 
1.0 1:0.26975189 2:0.29937083 3:0.34698741 
1.0 1:0.30649361 2:0.34295264 3:0.4083832 
1.0 1:0.70410711 2:0.37712692 3:0.45494987 
1.0 1:0.23624707 2:0.2077186 3:0.32488086 
1.0 1:0.58739313 2:0.3372857 3:0.41610522 
1.0 1:0.34549841 2:0.29679791 3:0.3900089 
1.0 1:0.60181888 2:0.36300617 3:0.43791793 
1.0 1:0.67215284 2:0.24116763 3:0.36211185 
1.0 1:0.52552485 2:0.27395259 3:0.3810926 
1.0 1:0.65362887 2:0.23679938 3:0.34797387 
1.0 1:0.23122053 2:0.24233837 3:0.34518592 
1.0 1:0.66670258 2:0.34732627 3:0.42505383 
1.0 1:0.70345959 2:0.2159322 3:0.25387385 
1.0 1:0.57379633 2:0.26096258 3:0.34797387 
1.0 1:0.62710539 2:0.19890749 3:0.28515586 
1.0 1:1.01294839 2:1.08621377 3:0.79807382 
1.0 1:0.57855947 2:0.27867591 3:0.33160006 
1.0 1:0.55695365 2:0.36976797 3:0.4262975 
1.0 1:0.71679957 2:0.26197771 3:0.32573422 
1.0 1:0.577023 2:0.29183673 3:0.38727919 
1.0 1:1.00266268 2:1.01786081 3:0.87257128 
1.0 1:0.43779449 2:0.41699528 3:0.4474056 
1.0 1:0.29873036 2:0.50635141 3:0.42729748 
1.0 1:0.62427536 2:0.4223275 3:0.48582126 
1.0 1:0.56858895 2:0.32305496 3:0.39658883 
1.0 1:0.627903 2:0.27280461 3:0.38565849 
1.0 1:0.59788776 2:0.18817318 3:0.29863181 
1.0 1:0.50956889 2:0.26498441 3:0.37534727 
1.0 1:0.95198197 2:0.98209659 3:0.82713598 
1.0 1:0.18635193 2:0.2623691 3:0.25592505 
1.0 1:0.56375586 2:0.22672687 3:0.35585902 
1.0 1:0.50067285 2:0.29338855 3:0.34116862 
1.0 1:0.5397345 2:0.23743916 3:0.25650655 
1.0 1:0.50239267 2:0.24031443 3:0.27064847 
1.0 1:0.55263194 2:0.3089757 3:0.35585262 
1.0 1:0.55445282 2:0.30229252 3:0.1633254 
1.0 1:0.45741453 2:0.24728405 3:0.14213538 
1.0 1:0.43805017 2:0.50712138 3:0.51734425 
1.0 1:0.3443339 2:0.59024997 3:0.55818993 
1.0 1:0.63476322 2:0.36628682 3:0.39610875 
1.0 1:0.24949991 2:0.15660881 3:0.29838517 
1.0 1:0.40299797 2:0.71235349 3:0.60840264 
1.0 1:0.59446051 2:0.33704169 3:0.40027229 
1.0 1:0.69418939 2:0.32855973 3:0.37375464 
1.0 1:0.5688068 2:0.23196674 3:0.29964417 
1.0 1:0.24106644 2:0.368419 3:0.44048366 
1.0 1:0.47756291 2:0.21742923 3:0.28405353 
1.0 1:0.61964981 2:0.4306345 3:0.44181361 
1.0 1:0.63002652 2:0.16097514 3:0.28224328 
1.0 1:0.47016689 2:0.24938776 3:0.32361686 
1.0 1:0.31500237 2:0.26080528 3:0.20892748 
1.0 1:0.2260767 2:0.25502756 3:0.35585262 
1.0 1:0.28085904 2:0.64664071 3:0.62047308 
1.0 1:0.76623402 2:0.30961002 3:0.3111491 
1.0 1:0.58526566 2:0.31728945 3:0.27310978 
1.0 1:0.64113667 2:0.27591837 3:0.39788958 
1.0 1:0.67753503 2:0.25489282 3:0.34788261 
1.0 1:0.26005466 2:0.31078856 3:0.3871752 
1.0 1:0.37399639 2:0.19102041 3:0.19629219 
1.0 1:0.28636382 2:0.31878445 3:0.39093668 
1.0 1:1.02694305 2:1.04857716 3:0.83642403 
1.0 1:0.19270763 2:0.27019739 3:0.35248344 
1.0 1:0.1870865 2:0.44935374 3:0.47840594 
1.0 1:0.69746253 2:0.25970212 3:0.31848408 
1.0 1:0.34879827 2:0.34646474 3:0.38190036 
1.0 1:0.17821422 2:0.1667126 3:0.28791552 
1.0 1:0.25746639 2:0.37097818 3:0.44407283 
1.0 1:0.63247631 2:0.41494599 3:0.48956034 
1.0 1:1.04551893 2:1.09299549 3:0.9035749 
1.0 1:0.66749307 2:0.40253139 3:0.47173507 
1.0 1:0.57430958 2:0.19799287 3:0.34024726 
1.0 1:0.62016091 2:0.21733774 3:0.31836569 
1.0 1:0.75806711 2:0.28054194 3:0.39228783 
1.0 1:0.61150747 2:0.23132405 3:0.3218772 
1.0 1:0.63492664 2:0.19801883 3:0.32831462 
1.0 1:0.54385913 2:0.29962371 3:0.34797387 
1.0 1:1.00092923 2:1.06142982 3:0.82107137 
1.0 1:0.60139991 2:0.28054194 3:0.39228783 
1.0 1:0.54963149 2:0.24561267 3:0.14352838 
1.0 1:0.66956805 2:0.302818 3:0.41221639 
1.0 1:0.57318166 2:0.12062384 3:0.21051094 
1.0 1:0.69208234 2:0.38105849 3:0.42783002 
1.0 1:0.23156863 2:0.26725611 3:0.33021501 
1.0 1:0.25622026 2:0.32368883 3:0.3458286 
1.0 1:0.26420467 2:0.35716359 3:0.40027229 
1.0 1:0.45839659 2:0.38224567 3:0.3971353 
1.0 1:0.21569789 2:0.59334905 3:0.58321339 
1.0 1:0.25211571 2:0.39534819 3:0.38893638 
1.0 1:0.23158602 2:0.17678825 3:0.29934441 
1.0 1:1.00756066 2:1.02956295 3:0.86839226 
1.0 1:0.12220404 2:0.22733536 3:0.32455931 
1.0 1:0.6145719 2:0.29476696 3:0.40397935 
1.0 1:0.6346881 2:0.39646676 3:0.39687117 
1.0 1:0.23921394 2:0.31433937 3:0.32147363 
1.0 1:0.71763686 2:0.30022909 3:0.40234649 
1.0 1:1.13343179 2:1.11028889 3:0.94910812 
1.0 1:0.43811006 2:0.22285714 3:0.22281817 
1.0 1:0.25673914 2:0.26725611 3:0.3606964 
1.0 1:0.31209827 2:0.31190207 3:0.39057515 
1.0 1:0.64339626 2:0.29179518 3:0.40610108 
1.0 1:0.23371952 2:0.27667602 3:0.35921873 
1.0 1:1.23905698 2:1.05993764 3:0.90400539 
1.0 1:0.31714834 2:0.36129067 3:0.41657894 
1.0 1:0.67320618 2:0.3923501 3:0.47112882 
1.0 1:0.34100711 2:0.31932888 3:0.30106261 
1.0 1:0.51244053 2:0.28445382 3:0.37590066 
1.0 1:0.21885531 2:0.26444423 3:0.33167914 
1.0 1:0.26626812 2:0.22069693 3:0.3408166 
1.0 1:0.62468761 2:0.23264163 3:0.34024726 
1.0 1:0.73318324 2:0.29750659 3:0.30757793 
1.0 1:0.63018611 2:0.24641979 3:0.35382106 
1.0 1:0.62329013 2:0.27695813 3:0.39087229 
1.0 1:0.25692797 2:0.18314341 3:0.30469904 
1.0 1:0.47329949 2:0.14536884 3:0.26804437 
1.0 1:0.9846658 2:0.99051094 3:0.86212737 
1.0 1:1.0751627 2:1.06663839 3:0.71380047 
1.0 1:0.71255216 2:0.22951763 3:0.32657639 
1.0 1:0.62494566 2:0.36219406 3:0.44645756 
1.0 1:0.43708163 2:0.26483632 3:0.37590066 
1.0 1:0.25981792 2:0.18813506 3:0.32126161 
1.0 1:0.59431156 2:0.2376173 3:0.36853207 
1.0 1:0.89349693 2:0.99725661 3:0.87151619 
1.0 1:0.45297959 2:0.2893918 3:0.37760395 
1.0 1:1.02192244 2:1.07892283 3:0.93984273 
1.0 1:0.19856608 2:0.54991135 3:0.5502212 
1.0 1:0.56633739 2:0.2122449 3:0.26525972 
1.0 1:0.2521025 2:0.24378566 3:0.3383412 
1.0 1:0.66315833 2:0.26974069 3:0.36587664 
1.0 1:0.31060193 2:0.52034538 3:0.53395242 
1.0 1:0.64987663 2:0.30193913 3:0.38595211 
1.0 1:0.61976544 2:0.29183673 3:0.31831167 
1.0 1:0.28659083 2:0.57899441 3:0.5825768 
1.0 1:0.5730248 2:0.3115779 3:0.30457581 
1.0 1:0.64688393 2:0.21655869 3:0.35205318 
1.0 1:0.6912137 2:0.33767832 3:0.3262041 
1.0 1:0.65034996 2:0.22637129 3:0.36435042 
1.0 1:0.5508621 2:0.28546373 3:0.37719984 
1.0 1:0.57846253 2:0.2411988 3:0.32126161 
1.0 1:0.53361467 2:0.29200205 3:0.34037547 
1.0 1:0.71763686 2:0.31499446 3:0.3218772 
1.0 1:0.57789752 2:0.28855791 3:0.3380831 
1.0 1:0.65411648 2:0.32267492 3:0.34183798 
1.0 1:0.64969238 2:0.36705929 3:0.43277836 
1.0 1:0.16723205 2:0.61801818 3:0.56305822 
1.0 1:0.33267169 2:0.49594866 3:0.50977322 
1.0 1:0.87491316 2:0.87519296 3:0.73834999 
1.0 1:0.74554624 2:0.36354592 3:0.43318268 
1.0 1:0.20919144 2:0.37627786 3:0.37006069 
1.0 1:0.55617605 2:0.21733774 3:0.33826355 
1.0 1:0.44233493 2:0.26706677 3:0.36041471 
1.0 1:0.42789856 2:0.25735774 3:0.35053594 
1.0 1:0.24211984 2:0.24607262 3:0.35248344 
1.0 1:0.50423142 2:0.33818941 3:0.33059592 
1.0 1:0.59302345 2:0.31173916 3:0.29200602 
1.0 1:0.28452811 2:0.24146271 3:0.35408703 
1.0 1:0.62195143 2:0.26922927 3:0.39099111 
1.0 1:0.54711607 2:0.19608846 3:0.23789616 
1.0 1:0.589034 2:0.29955788 3:0.35332455 
1.0 1:0.41803271 2:0.65839793 3:0.62445711 
1.0 1:1.2430613 2:1.05267093 3:0.89348123 
1.0 1:0.63460387 2:0.31187271 3:0.41971708 
1.0 1:0.26819415 2:0.25968472 3:0.34362778 
1.0 1:0.69285031 2:0.27847049 3:0.32080034 
1.0 1:0.67373595 2:0.28311111 3:0.3661642 
1.0 1:0.71876033 2:0.26498441 3:0.39120701 
1.0 1:0.19242189 2:0.27776469 3:0.34506286 
1.0 1:0.57632595 2:0.26073383 3:0.35690023 
1.0 1:0.65381516 2:0.3460649 3:0.4262975 
1.0 1:0.73385811 2:0.28042771 3:0.40171106 
1.0 1:1.15323486 2:0.86914887 3:0.76655428 
1.0 1:0.42108497 2:0.63819962 3:0.59074492 
1.0 1:0.55882773 2:0.42527236 3:0.49296298 
1.0 1:0.93331565 2:0.9910417 3:0.85113958 
1.0 1:0.19846367 2:0.1801894 3:0.22732299 
1.0 1:1.18122558 2:1.00134396 3:0.78693148 
1.0 1:0.59085518 2:0.27969629 3:0.39655582 
1.0 1:0.6145719 2:0.29967974 3:0.20929051 
1.0 1:0.65847586 2:0.2868495 3:0.39087229 
1.0 1:0.72496493 2:0.25045003 3:0.38276826 
1.0 1:0.45413847 2:0.23877551 3:0.2864805 
1.0 1:0.22404073 2:0.1717645 3:0.30362 
1.0 1:0.69398959 2:0.2463161 3:0.3034423 
1.0 1:0.57028551 2:0.19702398 3:0.30885483 
1.0 1:0.61291906 2:0.25993194 3:0.35585262 
1.0 1:1.17478626 2:0.94241592 3:0.84235934 
1.0 1:0.59406848 2:0.27009317 3:0.36313912 
1.0 1:0.08717535 2:0.56887381 3:0.39655582 
1.0 1:0.21385706 2:0.19197208 3:0.27221104 
1.0 1:0.55765587 2:0.26483632 3:0.35585262 
1.0 1:0.66265616 2:0.29361113 3:0.40718185 
1.0 1:1.0818274 2:1.09277267 3:0.94808286 
1.0 1:0.31555881 2:0.44406673 3:0.40822048 
1.0 1:0.51963583 2:0.19778302 3:0.182872 
1.0 1:0.58800532 2:0.33774674 3:0.4357087 
1.0 1:0.80095846 2:0.26037748 3:0.35530714 
1.0 1:0.24588777 2:0.25505931 3:0.36129559 
1.0 1:0.79336012 2:0.2079033 3:0.33879246 
1.0 1:0.54394617 2:0.19801442 3:0.31222856 
1.0 1:0.48350771 2:0.2871209 3:0.23033254 
1.0 1:0.54156619 2:0.22709275 3:0.32890408 
1.0 1:0.21569789 2:0.49204555 3:0.4349388 
1.0 1:0.1809552 2:0.23739269 3:0.31472834 
1.0 1:0.41226232 2:0.59375214 3:0.55109765 
1.0 1:0.62879782 2:0.32676077 3:0.42207874 
1.0 1:0.76703528 2:0.50347038 3:0.43878624 
1.0 1:0.52453806 2:0.2411988 3:0.34103156 
1.0 1:0.48041804 2:0.21225494 3:0.2174694 
1.0 1:0.1568712 2:0.47274965 3:0.46459372 
1.0 1:0.56591803 2:0.26519715 3:0.31283483 
1.0 1:0.7860078 2:0.35724234 3:0.3111491 
1.0 1:0.34182191 2:0.55182674 3:0.51262989 
1.0 1:0.55701073 2:0.31248528 3:0.40088186 
1.0 1:0.29311928 2:0.25101121 3:0.33696519 
1.0 1:0.52531042 2:0.33585215 3:0.40206656 
1.0 1:0.64477047 2:0.37671874 3:0.43775282 
1.0 1:0.52595936 2:0.26852511 3:0.32080034 
1.0 1:0.71255216 2:0.22951763 3:0.36739844 
1.0 1:0.79399634 2:0.30333393 3:0.38190517 
1.0 1:0.20836942 2:0.24938776 3:0.35014283 
1.0 1:0.66998412 2:0.49619105 3:0.506191 
1.0 1:0.5741654 2:0.19306406 3:0.30711006 
1.0 1:0.63928593 2:0.35554613 3:0.44612529 
1.0 1:0.57934738 2:0.14849466 3:0.30977736 
1.0 1:0.25001347 2:0.61746893 3:0.58321339 
1.0 1:0.30888777 2:0.33232561 3:0.28924387 
1.0 1:0.76569614 2:0.26529026 3:0.37477603 
1.0 1:0.21885531 2:0.23450715 3:0.30106261 
1.0 1:0.22116747 2:0.24728405 3:0.33503339 
1.0 1:0.17700814 2:0.41337568 3:0.44407283 
1.0 1:0.98164964 2:0.96509153 3:0.79759626 
1.0 1:0.43983841 2:0.25968472 3:0.35948753 
1.0 1:0.63770444 2:0.23339833 3:0.36948956 
1.0 1:0.75795294 2:0.23512618 3:0.37104639 
1.0 1:0.66834438 2:0.25599321 3:0.38168497 
1.0 1:0.12288453 2:0.41918367 3:0.36075322 
1.0 1:0.51914515 2:0.40415062 3:0.44904253 
1.0 1:0.20545651 2:0.5946084 3:0.45534273 
1.0 1:0.75724503 2:0.37993458 3:0.42137893 
1.0 1:0.33096927 2:0.1616607 3:0.26697621 
1.0 1:0.37929761 2:0.57683173 3:0.56012758 
1.0 1:0.61102019 2:0.42941124 3:0.48160414 
1.0 1:0.64971348 2:0.24751802 3:0.36853207 
1.0 1:0.23172383 2:0.25055192 3:0.35530714 
1.0 1:0.21247251 2:0.19782309 3:0.31821422 
1.0 1:0.53365189 2:0.31362197 3:0.36227465 
1.0 1:0.45009984 2:0.72103966 3:0.56012758 
1.0 1:0.73533373 2:0.25567073 3:0.36080151 
1.0 1:0.72539635 2:0.21616244 3:0.35043992 
1.0 1:0.49260026 2:0.16815315 3:0.25381317 
1.0 1:0.54141032 2:0.28495392 3:0.37805926 
1.0 1:0.62422849 2:0.24745937 3:0.37085686 
1.0 1:0.41811039 2:0.24563913 3:0.3455727 
1.0 1:0.62972541 2:0.28708967 3:0.38595211 
1.0 1:0.44729402 2:0.60152624 3:0.60061794 
1.0 1:0.16800152 2:0.17369832 3:0.23988457 
1.0 1:0.4200038 2:0.13027374 3:0.25457138 
1.0 1:0.31923581 2:0.30308246 3:0.38235369 
1.0 1:0.66818226 2:0.25993194 3:0.32076856 
1.0 1:0.33225065 2:0.5840041 3:0.48262194 
1.0 1:0.65887413 2:0.27351412 3:0.34175326 
1.0 1:0.25189016 2:0.26234056 3:0.34532558 
1.0 1:0.65689813 2:0.37627013 3:0.43988129 
1.0 1:0.60181888 2:0.25360705 3:0.3768131 
1.0 1:0.34162702 2:0.12260941 3:0.22554039 
1.0 1:0.18598173 2:0.19782724 3:0.29949955 
1.0 1:0.32153131 2:0.36292384 3:0.36587664 
1.0 1:0.55381364 2:0.34207217 3:0.3900089 
1.0 1:0.59313093 2:0.21760996 3:0.35026218 
1.0 1:0.52955083 2:0.28795813 3:0.39261207 
1.0 1:0.54898271 2:0.18316333 3:0.31222856 
1.0 1:0.65887413 2:0.2927081 3:0.40522172 
1.0 1:0.58927502 2:0.2376173 3:0.27128055 
1.0 1:0.61102019 2:0.38899606 3:0.35596828 
1.0 1:0.64759133 2:0.33342618 3:0.42783002 
1.0 1:0.5626798 2:0.24521881 3:0.31575655 
1.0 1:0.60789514 2:0.28445382 3:0.33580459 
1.0 1:0.65781925 2:0.39779572 3:0.42704438 
1.0 1:0.61478394 2:0.32698075 3:0.37974551 
1.0 1:0.53950378 2:0.21953861 3:0.34188466 
1.0 1:0.57393549 2:0.29678254 3:0.38592043 
1.0 1:0.62283927 2:0.32736553 3:0.43132858 
1.0 1:0.50032429 2:0.25101121 3:0.33696519 
1.0 1:0.48350771 2:0.2623691 3:0.18938453 
1.0 1:0.60777021 2:0.18817318 3:0.26925819 
1.0 1:0.3296335 2:0.41699528 3:0.47756777 
1.0 1:0.68134322 2:0.35089031 3:0.42688548 
1.0 1:0.73800045 2:0.2893918 3:0.37760395 
1.0 1:0.52531042 2:0.2155469 3:0.27300815 
1.0 1:0.57846253 2:0.20743097 3:0.31137664 
1.0 1:0.24181456 2:0.19799287 3:0.30977736 
1.0 1:0.58951895 2:0.24952166 3:0.34175326 
1.0 1:0.48041804 2:0.18331109 3:0.31631913 
1.0 1:0.66834438 2:0.3792492 3:0.45603919 
1.0 1:0.47202171 2:0.34447973 3:0.38592043 
1.0 1:0.26119294 2:0.61563624 3:0.58097898 
1.0 1:0.59910296 2:0.27009317 3:0.38767555 
1.0 1:0.61445771 2:0.20296478 3:0.29687305 
1.0 1:0.69742174 2:0.24608942 3:0.31181853 
1.0 1:0.19634467 2:0.19643139 3:0.29443713 
1.0 1:0.66956805 2:0.49145872 3:0.52281103 
1.0 1:0.5972573 2:0.35582865 3:0.3525234 
1.0 1:0.34508507 2:0.40210259 3:0.46248668 
1.0 1:0.21746397 2:0.26852511 3:0.30552414 
1.0 1:0.54873278 2:0.31188933 3:0.37461381 
1.0 1:0.57022759 2:0.25141795 3:0.34363235 
1.0 1:0.66212364 2:0.38117132 3:0.35248344 
1.0 1:0.20259007 2:0.18334823 3:0.10280767 
1.0 1:0.23925029 2:0.25564865 3:0.36235628 
1.0 1:0.55477275 2:0.19958055 3:0.31126812 
1.0 1:0.49021673 2:0.58569282 3:0.58843175 
1.0 1:0.35940302 2:0.32855973 3:0.37375464 
1.0 1:0.32407272 2:0.58722226 3:0.58594461 
1.0 1:0.25108978 2:0.22709275 3:0.21926939 
1.0 1:0.603184 2:0.25717541 3:0.37056723 
1.0 1:0.6171301 2:0.24088935 3:0.34149857 
1.0 1:0.6822604 2:0.2953073 3:0.40234649 
1.0 1:0.17157787 2:0.45345374 3:0.45470875 
1.0 1:0.95198197 2:1.1011386 3:0.94892287 
1.0 1:0.4200038 2:0.10614898 3:0.21051094 
1.0 1:0.59954137 2:0.37225501 3:0.44645756 
1.0 1:0.31008045 2:0.26080528 3:0.37308479 
1.0 1:0.93697028 2:0.95799262 3:0.84689648 
1.0 1:0.18776641 2:0.53074488 3:0.52382956 
1.0 1:0.24706106 2:0.5693445 3:0.57278559 
1.0 1:1.16236956 2:1.02865377 3:0.89522095 
1.0 1:0.63905836 2:0.31670056 3:0.42475048 
1.0 1:0.47551581 2:0.20743097 3:0.3262041 
1.0 1:0.4191208 2:0.1788077 3:0.25614743 
1.0 1:0.13672081 2:0.26288444 3:0.34506286 
1.0 1:0.62629569 2:0.3334252 3:0.38214242 
1.0 1:0.513887 2:0.2171229 3:0.30842301 
1.0 1:0.29623962 2:0.65547383 3:0.62181212 
1.0 1:0.67318746 2:0.22280891 3:0.29741686 
1.0 1:0.54908473 2:0.36354592 3:0.35043992 
1.0 1:0.75795294 2:0.29750659 3:0.29781355 
1.0 1:0.627903 2:0.22816385 3:0.29939278 
1.0 1:0.23283522 2:0.5854162 3:0.57609835 
1.0 1:0.5685716 2:0.2702841 3:0.39120701 
1.0 1:0.58800532 2:0.24124767 3:0.33290103 
1.0 1:0.60261124 2:0.72477751 3:0.51275697 
1.0 1:0.62629569 2:0.42435934 3:0.45543 
1.0 1:0.55905579 2:0.34157487 3:0.41459858 
1.0 1:1.12335684 2:1.07098662 3:0.78848982 
1.0 1:0.26680734 2:0.22766262 3:0.32513478 
1.0 1:0.67370624 2:0.26218953 3:0.30845798 
1.0 1:0.41522618 2:0.3968067 3:0.3298395 
1.0 1:0.57814507 2:0.2013241 3:0.32804261 
1.0 1:1.22857419 2:0.98975365 3:0.84415749 
1.0 1:0.64944775 2:0.32902258 3:0.35332455 
1.0 1:0.2322374 2:0.36187151 3:0.42102189 
1.0 1:0.25746639 2:0.50877007 3:0.5075118 
1.0 1:0.52389736 2:0.1424707 3:0.28716605 
1.0 1:0.65865823 2:0.22754952 3:0.31724465 
1.0 1:0.68005907 2:0.38810983 3:0.37964325 
1.0 1:0.63301477 2:0.36782822 3:0.4009607 
1.0 1:0.97223691 2:0.99697684 3:0.80176371 
1.0 1:0.50400456 2:0.20264804 3:0.34269224 
1.0 1:0.54847555 2:0.1447486 3:0.30352741 
1.0 1:0.5666398 2:0.3792492 3:0.26271823 
1.0 1:0.57920194 2:0.19801442 3:0.30711006 
1.0 1:0.5758637 2:0.35739983 3:0.41785497 
1.0 1:0.59446079 2:0.27719002 3:0.29962072 
1.0 1:0.65699149 2:0.65951964 3:0.60351974 
1.0 1:0.65392018 2:0.32629755 3:0.40033953 
1.0 1:0.51584476 2:0.30830661 3:0.35644482 
1.0 1:0.83737602 2:0.40603021 3:0.44674062 
1.0 1:0.56927177 2:0.28213985 3:0.34532558 
1.0 1:0.63933079 2:0.26230693 3:0.38609755 
1.0 1:0.72269064 2:0.255933 3:0.34702385 
1.0 1:0.68273571 2:0.29338855 3:0.30043207 
1.0 1:0.23247391 2:0.24116763 3:0.33193586 
1.0 1:0.35627608 2:0.51890943 3:0.39291222 
1.0 1:0.63847163 2:0.44041669 3:0.4767007 
1.0 1:0.28177638 2:0.29532033 3:0.28197887 
1.0 1:0.51411831 2:0.23816156 3:0.35976615 
1.0 1:0.25183991 2:0.24177137 3:0.34202939 
1.0 1:0.65951671 2:0.25536081 3:0.35823184 
1.0 1:0.5853107 2:0.33928694 3:0.42863151 
1.0 1:0.53570076 2:0.36913413 3:0.41743449 
1.0 1:0.6825169 2:0.3077951 3:0.41157942 
1.0 1:0.42648965 2:0.30076312 3:0.36235628 
1.0 1:0.6095742 2:0.2029427 3:0.34532558 
1.0 1:0.62666881 2:0.30022909 3:0.41240516 
1.0 1:0.60566934 2:0.2544652 3:0.37760395 
1.0 1:0.70562171 2:0.39217413 3:0.47254074 
1.0 1:0.18136092 2:0.50488183 3:0.50783173 
1.0 1:1.12481448 2:1.09270352 3:0.69397482 
1.0 1:0.21339608 2:0.62377866 3:0.57474996 
1.0 1:0.63363472 2:0.27940414 3:0.39228495 
1.0 1:1.02058722 2:1.0607886 3:0.89877944 
1.0 1:0.58826999 2:0.29532033 3:0.37435126 
1.0 1:0.52932446 2:0.21953861 3:0.26534331 
1.0 1:0.72411395 2:0.49104829 3:0.50744539 
1.0 1:0.67232997 2:0.36938174 3:0.41214748 
1.0 1:0.62369167 2:0.2512973 3:0.34797387 
1.0 1:0.53387309 2:0.24751802 3:0.30199155 
1.0 1:1.03658571 2:1.05330049 3:0.54936726 
1.0 1:1.04497676 2:1.08877152 3:0.86707752 
1.0 1:0.47224911 2:0.64247328 3:0.62148909 
1.0 1:0.71402411 2:0.27075779 3:0.3775116 
1.0 1:0.37124232 2:0.6423716 3:0.52462099 
1.0 1:0.52070352 2:0.26922927 3:0.31675229 
1.0 1:0.44838359 2:0.51011862 3:0.49987471 
1.0 1:1.0557904 2:1.02397285 3:0.68901573 
1.0 1:0.29146156 2:0.32773691 3:0.36721188 
1.0 1:0.32117938 2:0.12544879 3:0.27904939 
1.0 1:0.45310308 2:0.20134218 3:0.3042517 
1.0 1:0.64896624 2:0.25911864 3:0.36128202 
1.0 1:0.59807143 2:0.36662218 3:0.42999631 
1.0 1:0.6846287 2:0.39675893 3:0.47512844 
1.0 1:0.35906841 2:0.20388018 3:0.19859069 
1.0 1:0.615239 2:0.28978365 3:0.33826355 
1.0 1:0.32246778 2:0.11529253 3:0.1290584 
1.0 1:0.76781827 2:0.43467547 3:0.50739532 
1.0 1:0.74375634 2:0.33083943 3:0.42688548 
1.0 1:0.6127118 2:0.43152729 3:0.38058404 
1.0 1:0.60970308 2:0.27667602 3:0.38487721 
1.0 1:0.28927973 2:0.34952572 3:0.30190453 
1.0 1:0.50918349 2:0.1667126 3:0.21986276 
1.0 1:0.63579386 2:0.22816327 3:0.24934414 
1.0 1:0.59002714 2:0.22258691 3:0.35420094 
1.0 1:0.22913257 2:0.21723157 3:0.28268069 
1.0 1:0.14257138 2:0.20207588 3:0.32455931 
1.0 1:0.49527051 2:0.35436876 3:0.37719984 
1.0 1:0.59812573 2:0.17544515 3:0.16876868 
1.0 1:0.41309987 2:0.16829394 3:0.17266279 
1.0 1:0.83140187 2:0.24908535 3:0.37006069 
1.0 1:0.22404073 2:0.26269864 3:0.28791552 
1.0 1:0.57602949 2:0.21259747 3:0.31893729 
1.0 1:0.91124064 2:0.96251383 3:0.79988753 
1.0 1:0.55110601 2:0.28792531 3:0.3971353 
1.0 1:0.34115294 2:0.18186829 3:0.28268069 
1.0 1:0.55882773 2:0.36728067 3:0.4253014 
1.0 1:1.03206062 2:1.03939421 3:0.85193156 
1.0 1:0.50387617 2:0.21454909 3:0.21431575 
1.0 1:1.11766359 2:1.01270282 3:0.86464902 
1.0 1:0.43099285 2:0.57581921 3:0.45404361 
1.0 1:1.09376652 2:1.03169743 3:0.87280607 
1.0 1:0.59313093 2:0.21266428 3:0.33503339 
1.0 1:0.14463987 2:0.54790519 3:0.45038217 
1.0 1:0.5267962 2:0.23192451 3:0.33887087 
1.0 1:0.98739371 2:1.07773498 3:0.90318782 
1.0 1:0.21905503 2:0.36081633 3:0.41911036 
1.0 1:0.60047326 2:0.15938101 3:0.31339123 
1.0 1:0.67370624 2:0.24814366 3:0.32804261 
1.0 1:0.64939899 2:0.26725611 3:0.38101732 
1.0 1:0.68427311 2:0.25625291 3:0.36783181 
1.0 1:0.64306262 2:0.25012319 3:0.33580459 
1.0 1:0.72656284 2:0.41249879 3:0.44645756 
1.0 1:0.64219146 2:0.43415784 3:0.48436366 
1.0 1:0.67489618 2:0.30197198 3:0.35829507 
1.0 1:0.71859915 2:0.3332512 3:0.42282943 
1.0 1:0.53171953 2:0.16911162 3:0.25913655 
1.0 1:0.66573994 2:0.23559778 3:0.32760979 
1.0 1:0.58937965 2:0.33201122 3:0.40027229 
1.0 1:0.97212473 2:0.91807054 3:0.80623546 
1.0 1:0.54580832 2:0.25101121 3:0.29170121 
1.0 1:0.54789213 2:0.21760996 3:0.33503339 
1.0 1:0.96220226 2:0.92234024 3:0.75945905 
1.0 1:0.67922385 2:0.23182692 3:0.36811033 
1.0 1:0.6028069 2:0.23084633 3:0.32828359 
1.0 1:0.17834187 2:0.32149906 3:0.33687107 
1.0 1:0.42513629 2:0.55253481 3:0.56395775 
1.0 1:0.2342244 2:0.25259485 3:0.32455931 
1.0 1:0.38284807 2:0.14738348 3:0.27256438 
1.0 1:0.46493522 2:0.31762121 3:0.30237381 
1.0 1:0.5334902 2:0.27164555 3:0.30277007 
1.0 1:0.30645953 2:0.35801946 3:0.42602074 
1.0 1:0.58434706 2:0.15229626 3:0.30176771 
1.0 1:0.62677276 2:0.27395259 3:0.34644782 
1.0 1:0.6750216 2:0.23581357 3:0.36504159 
1.0 1:0.28514275 2:0.3283733 3:0.38737724 
1.0 1:0.63830208 2:0.33388036 3:0.34891436 
1.0 1:1.18987894 2:1.0086963 3:0.83422622 
1.0 1:0.21240666 2:0.27847049 3:0.35135276 
1.0 1:1.05928247 2:1.04184594 3:0.58594461 
1.0 1:1.01153416 2:1.0395165 3:0.83730136 
1.0 1:0.58292313 2:0.24814366 3:0.22522329 
1.0 1:0.16183365 2:0.34808811 3:0.41245758 
1.0 1:0.64939899 2:0.24251018 3:0.37593709 
1.0 1:0.55878518 2:0.17322156 3:0.30989409 
1.0 1:0.73851723 2:0.34821071 3:0.41599673 
1.0 1:0.63770444 2:0.27626741 3:0.35004274 
1.0 1:0.45573605 2:0.61505039 3:0.54804102 
1.0 1:0.19858156 2:0.1717645 3:0.15704483 
1.0 1:0.18634428 2:0.58056253 3:0.50430432 
1.0 1:0.16624751 2:0.53458076 3:0.528145 
1.0 1:0.30849539 2:0.14918062 3:0.2291431 
1.0 1:0.63367073 2:0.2754605 3:0.3914706 
1.0 1:0.61416029 2:0.15837399 3:0.2946534 
1.0 1:0.99640269 2:1.01343196 3:0.87891692 
1.0 1:0.61949425 2:0.2376173 3:0.36341357 
1.0 1:0.39772381 2:0.43705985 3:0.48091397 
1.0 1:0.49870999 2:0.21616244 3:0.32610382 
1.0 1:0.49118219 2:0.33232561 3:0.33998841 
1.0 1:0.26196577 2:0.2722402 3:0.32501231 
1.0 1:0.56381928 2:0.24251018 3:0.28957316 
1.0 1:0.28671983 2:0.33342618 3:0.41810661 
1.0 1:0.48097458 2:0.25625291 3:0.33879246 
1.0 1:0.49899982 2:0.23238726 3:0.36120311 
1.0 1:0.55979531 2:0.41267043 3:0.46380799 
1.0 1:0.21774056 2:0.21824369 3:0.32476505 
1.0 1:0.23778916 2:0.57102072 3:0.56145178 
1.0 1:0.29369657 2:0.17360293 3:0.26894606 
1.0 1:0.67215284 2:0.37405592 3:0.41240516 
1.0 1:0.67160481 2:0.28943856 3:0.37562896 
1.0 1:0.99755558 2:0.95233609 3:0.81191262 
1.0 1:0.52944028 2:0.18813506 3:0.11367719 
1.0 1:0.62508282 2:0.4395052 3:0.50242085 
1.0 1:0.52445899 2:0.24754295 3:0.19368862 
1.0 1:0.47827547 2:0.26518238 3:0.34350998 
1.0 1:0.44406847 2:0.25612994 3:0.25614743 
1.0 1:0.67931461 2:0.2320781 3:0.36783181 
1.0 1:0.53950378 2:0.29438131 3:0.34188466 
1.0 1:0.53859311 2:0.21229795 3:0.32310982 
1.0 1:0.63018611 2:0.22709275 3:0.32890408 
1.0 1:0.42208164 2:0.33428571 3:0.38727919 
1.0 1:0.34871087 2:0.18702796 3:0.27158388 
1.0 1:0.63172259 2:0.31991624 3:0.37719984 
1.0 1:0.18628454 2:0.49686953 3:0.51896107 
1.0 1:0.71592276 2:0.39217413 3:0.45745965 
1.0 1:0.24667093 2:0.17322156 3:0.30481386 
1.0 1:0.64436489 2:0.33159555 3:0.43181963 
1.0 1:0.56108113 2:0.34096776 3:0.43201001 
1.0 1:0.1146734 2:0.58992644 3:0.56305822 
1.0 1:0.49792419 2:0.28673696 3:0.31303346 
1.0 1:0.50344787 2:0.24062846 3:0.31406627 
1.0 1:0.18776641 2:0.207473 3:0.31821422 
1.0 1:1.09706149 2:1.06730934 3:0.89481119 
1.0 1:0.26283027 2:0.29148285 3:0.35420094 
1.0 1:0.39053218 2:0.30961002 3:0.38893638 
1.0 1:0.2420746 2:0.51131564 3:0.50270292 
1.0 1:0.50130965 2:0.3372857 3:0.33491396 
1.0 1:0.50409165 2:0.24249105 3:0.32979414 
1.0 1:0.63677637 2:0.26577657 3:0.37217051 
1.0 1:0.48532026 2:0.19778302 3:0.27183675 
1.0 1:1.05062084 2:0.97246743 3:0.84880717 
1.0 1:0.73652485 2:0.45670911 3:0.50772995 
1.0 1:0.34665095 2:0.2893582 3:0.35084061 
1.0 1:0.5629519 2:0.28855791 3:0.34298285 
1.0 1:1.06129395 2:1.01881019 3:0.86504496 
1.0 1:0.08861992 2:0.21742923 3:0.31893729 
1.0 1:0.74151679 2:0.22863509 3:0.33545763 
1.0 1:0.28204616 2:0.22771658 3:0.18426603 
1.0 1:0.64709368 2:0.34732627 3:0.41516886 
1.0 1:0.68945003 2:0.31173916 3:0.40583888 
1.0 1:0.83882047 2:0.55183673 3:0.51990905 
1.0 1:0.52558643 2:0.2762354 3:0.37210804 
1.0 1:0.69236796 2:0.32483803 3:0.41240516 
1.0 1:0.50695693 2:0.1931891 3:0.3034423 
1.0 1:0.52955083 2:0.21723157 3:0.31932449 
1.0 1:1.08000578 2:1.02871347 3:0.76832689 
1.0 1:0.59002714 2:0.83205105 3:0.55509103 
1.0 1:1.07065159 2:0.94462507 3:0.85281227 
1.0 1:0.23601085 2:0.44517381 3:0.43878624 
1.0 1:0.07971 2:0.25008352 3:0.23518824 
1.0 1:0.70334974 2:0.23541006 3:0.26563646 
1.0 1:1.03537363 2:1.05566855 3:0.79091468 
1.0 1:0.50815127 2:0.28855791 3:0.35278236 
1.0 1:0.22550234 2:0.15919121 3:0.30149167 
1.0 1:0.64709368 2:0.15919121 3:0.26195178 
1.0 1:0.16723205 2:0.28091735 3:0.3182503 
1.0 1:0.12152961 2:0.44640754 3:0.45162639 
1.0 1:0.61949425 2:0.16336189 3:0.29687305 
1.0 1:0.65978656 2:0.32672379 3:0.30711006 
1.0 1:0.49906334 2:0.15439851 3:0.24478017 
1.0 1:0.60064614 2:0.36238205 3:0.42358859 
1.0 1:0.51963583 2:0.20743097 3:0.31631913 
1.0 1:0.2169598 2:0.25033599 3:0.27715826 
1.0 1:0.523901 2:0.29962371 3:0.34797387 
1.0 1:0.63847163 2:0.29361113 3:0.35752552 
1.0 1:1.03320063 2:1.0477979 3:0.8470575 
1.0 1:0.76720878 2:0.27413001 3:0.37728114 
1.0 1:0.67753503 2:0.84643653 3:0.74476276 
1.0 1:0.22394496 2:0.22452812 3:0.3367819 
1.0 1:0.46824856 2:0.22452812 3:0.28065158 
1.0 1:0.48811336 2:0.22788659 3:0.34362778 
1.0 1:0.33792463 2:0.46637256 3:0.49165206 
1.0 1:0.20798697 2:0.47356634 3:0.27310978 
1.0 1:0.61298721 2:0.28579387 3:0.36948956 
1.0 1:0.54175219 2:0.16429033 3:0.29076197 
1.0 1:0.23064697 2:0.51406976 3:0.42821308 
1.0 1:0.59555135 2:0.21733774 3:0.35318694 
1.0 1:0.65411648 2:0.32267492 3:0.38205422 
1.0 1:0.54789213 2:0.20277292 3:0.33503339 
1.0 1:0.48248624 2:0.31406444 3:0.37873804 
1.0 1:0.59446051 2:0.22637129 3:0.34382364 
1.0 1:0.63770444 2:0.26674094 3:0.36948956 
1.0 1:0.23414813 2:0.46650195 3:0.42137893 
1.0 1:0.57356031 2:0.31838242 3:0.42011134 
1.0 1:0.62753509 2:0.2798473 3:0.38675267 
1.0 1:0.5085229 2:0.30813998 3:0.19827791 
1.0 1:0.44808147 2:0.22228347 3:0.17274931 
1.0 1:0.30453992 2:0.44571429 3:0.49338308 
1.0 1:0.70047119 2:0.34749606 3:0.41221639 
1.0 1:0.49691808 2:0.26687149 3:0.36721188 
1.0 1:0.5827755 2:0.21088818 3:0.31074454 
1.0 1:0.59905798 2:0.15837399 3:0.25909178 
1.0 1:0.26283027 2:0.23318628 3:0.34891436 
1.0 1:1.10824442 2:1.09555054 3:0.93450646 
1.0 1:0.34752117 2:0.56434109 3:0.5681536 
1.0 1:0.75859523 2:0.43759648 3:0.47356241 
1.0 1:0.61323706 2:0.26706677 3:0.38071976 
1.0 1:0.3052464 2:0.23192451 3:0.35382106 
1.0 1:0.58332654 2:0.30008356 3:0.33059592 
1.0 1:0.46844881 2:0.27280243 3:0.36120311 
1.0 1:0.67435611 2:0.34328219 3:0.4404302 
1.0 1:0.25645467 2:0.2122449 3:0.32361686 
1.0 1:0.63018611 2:0.26574684 3:0.35880445 
1.0 1:0.30887626 2:0.24527422 3:0.1420929 
1.0 1:0.28636382 2:0.55909889 3:0.53628494 
1.0 1:0.23412428 2:0.38918208 3:0.34188466 
1.0 1:0.70525033 2:0.37142857 3:0.38727919 
1.0 1:0.54904918 2:0.27496663 3:0.38551394 
1.0 1:0.61611202 2:0.30311382 3:0.39261207 
1.0 1:0.5944729 2:0.32149906 3:0.3661642 
1.0 1:0.84850346 2:0.90548515 3:0.76975441 
1.0 1:0.19831316 2:0.51145164 3:0.4915976 
1.0 1:1.06313299 2:1.04322113 3:0.88545457 
1.0 1:0.63548177 2:0.26218953 3:0.37210804 
1.0 1:0.63510944 2:0.30923268 3:0.4186052 
1.0 1:1.17540238 2:1.03471226 3:0.88130851 
1.0 1:0.29623962 2:0.24814366 3:0.36231572 
1.0 1:0.14598892 2:0.18311993 3:0.2946534 
1.0 1:0.58438518 2:0.24254127 3:0.34024726 
1.0 1:0.45590691 2:0.6222929 3:0.57827091 
1.0 1:0.27712739 2:0.29028127 3:0.3182503 
1.0 1:0.48776247 2:0.31188933 3:0.40027229 
1.0 1:0.63677637 2:0.22148048 3:0.3218772 
1.0 1:0.55247995 2:0.23318628 3:0.32776804 
1.0 1:0.19320369 2:0.52303578 3:0.49310113 
1.0 1:0.5688068 2:0.31895427 3:0.39630357 
1.0 1:0.44788993 2:0.33429742 3:0.38780946 
1.0 1:0.19646151 2:0.2849414 3:0.26282994 
1.0 1:0.39662631 2:0.37411741 3:0.44690691 
1.0 1:0.37663471 2:0.27442326 3:0.3827067 
1.0 1:0.68427311 2:0.40613668 3:0.48398923 
1.0 1:0.54912056 2:0.23264163 3:0.31485567 
1.0 1:0.51882822 2:0.18334823 3:0.26925819 
1.0 1:1.21979621 2:1.04385384 3:0.89086583 
1.0 1:0.51889374 2:0.29698931 3:0.35040389 
1.0 1:0.60461328 2:0.25572582 3:0.34759426 
1.0 1:0.70803256 2:0.28088348 3:0.39120701 
1.0 1:0.15317786 2:0.19299814 3:0.23988457 
1.0 1:0.56793377 2:0.26932071 3:0.34298285 
1.0 1:0.6731935 2:0.28122449 3:0.38727919 
1.0 1:0.41673883 2:0.15387755 3:0.30770128 
1.0 1:0.68657703 2:0.37097818 3:0.44935941 
1.0 1:0.62510825 2:0.40857143 3:0.45094153 
1.0 1:0.73881662 2:0.58503022 3:0.53238815 
1.0 1:0.60297366 2:0.2604947 3:0.36080151 
1.0 1:0.58292313 2:0.32305496 3:0.41617346 
1.0 1:0.40225496 2:0.27785433 3:0.09946172 
1.0 1:0.20259007 2:0.22677281 3:0.33779663 
1.0 1:0.51876348 2:0.1881137 3:0.29687305 
1.0 1:0.62508282 2:0.28978365 3:0.33328908 
1.0 1:0.44329777 2:0.27020305 3:0.36017436 
1.0 1:0.18863934 2:0.27940414 3:0.28800667 
1.0 1:0.31522553 2:0.57306122 3:0.54112983 
1.0 1:0.67575425 2:0.48292541 3:0.53369639 
1.0 1:0.55263194 2:0.26974069 3:0.38091267 
1.0 1:0.88406947 2:0.9155461 3:0.81593968 
1.0 1:1.07512032 2:1.04953651 3:0.88211354 
1.0 1:0.67721404 2:0.3233214 3:0.42925587 
1.0 1:0.68326236 2:0.33241887 3:0.40638115 
1.0 1:0.57846253 2:0.30391049 3:0.40528388 
1.0 1:0.66265616 2:0.35991042 3:0.41711311 
1.0 1:0.48044365 2:0.1939348 3:0.32589241 
1.0 1:0.67993271 2:0.41087991 3:0.48625759 
1.0 1:0.13891294 2:0.53061224 3:0.52521425 
1.0 1:0.64969238 2:0.46848356 3:0.38303372 
1.0 1:0.88915033 2:0.90548515 3:0.82107137 
1.0 1:0.58820212 2:0.25978263 3:0.36129559 
1.0 1:0.64441327 2:0.27991474 3:0.36804641 
1.0 1:0.40734679 2:0.3233214 3:0.06805276 
1.0 1:0.57094179 2:0.22216746 3:0.34821247 
1.0 1:0.26472014 2:0.19778302 3:0.2916067 
1.0 1:0.752999 2:0.28311111 3:0.37592858 
1.0 1:0.59442201 2:0.34880757 3:0.42344824 
1.0 1:0.61428866 2:0.23032768 3:0.36128202 
1.0 1:0.50573015 2:0.67131279 3:0.39208931 
1.0 1:0.48811336 2:0.16959002 3:0.31719488 
1.0 1:0.62677276 2:0.26922927 3:0.3810926 
1.0 1:0.70025466 2:0.48013272 3:0.37071716 
1.0 1:0.67868989 2:0.43186441 3:0.47845456 
1.0 1:0.55624422 2:0.27466848 3:0.36249116 
1.0 1:0.25407564 2:0.53864143 3:0.51447428 
1.0 1:0.49870999 2:0.225988 3:0.13628219 
1.0 1:0.25622026 2:0.24521881 3:0.32076856 
1.0 1:0.28668351 2:0.32305496 3:0.37210804 
1.0 1:0.80411094 2:0.85032953 3:0.75871827 
1.0 1:0.68326236 2:0.45883168 3:0.51409663 
1.0 1:0.29919711 2:0.39795918 3:0.3766688 
1.0 1:0.59129234 2:0.28546373 3:0.39228783 
1.0 1:1.0170458 2:0.98130732 3:0.82285332 
1.0 1:0.80096837 2:0.4010175 3:0.39213899 
1.0 1:0.27248308 2:0.46163265 3:0.45094153 
1.0 1:0.23731069 2:0.27969629 3:0.35194329 
1.0 1:0.49874253 2:0.23264163 3:0.35040389 
1.0 1:0.08894198 2:0.18817318 3:0.27415379 
1.0 1:1.13303157 2:1.02118603 3:0.87238833 
1.0 1:0.43976869 2:0.20264804 3:0.30352741 
1.0 1:0.5397345 2:0.27280243 3:0.30362 
1.0 1:0.19217746 2:0.20388018 3:0.30552414 
1.0 1:0.64306262 2:0.29426257 3:0.36587664 
1.0 1:0.3821156 2:0.39306006 3:0.45683817 
1.0 1:0.21979069 2:0.25282562 3:0.35741956 
1.0 1:0.63677637 2:0.26085478 3:0.35205318 
1.0 1:0.59574468 2:0.23743916 3:0.30362 
1.0 1:0.52453806 2:0.49204555 3:0.53378853 
1.0 1:0.68906768 2:0.3863782 3:0.45765068 
1.0 1:0.19858156 2:0.22228347 3:0.33502897 
1.0 1:0.619124 2:0.34096776 3:0.23338472 
1.0 1:0.4071492 2:0.15826179 3:0.27411823 
1.0 1:1.18076003 2:1.03469388 3:0.90188305 
1.0 1:0.59549002 2:0.24947569 3:0.34698741 
1.0 1:0.80331487 2:0.40110916 3:0.47846407 
1.0 1:0.73785198 2:0.42819559 3:0.45766914 
1.0 1:0.47016689 2:0.3555102 3:0.381974 
1.0 1:0.52883656 2:0.36632667 3:0.40948007 
1.0 1:0.82939745 2:0.33317005 3:0.42773379 
1.0 1:0.46844881 2:0.14650501 3:0.30362 
1.0 1:1.06550703 2:1.02066639 3:0.74421608 
1.0 1:1.04205884 2:1.01953259 3:0.89412065 
1.0 1:0.52359494 2:0.19102041 3:0.27056492 
1.0 1:1.21979621 2:0.96828072 3:0.81662701 
1.0 1:0.60539517 2:0.23665665 3:0.3581614 
1.0 1:0.59375447 2:0.2754605 3:0.29964417 
1.0 1:0.59282336 2:0.24521881 3:0.36587664 
1.0 1:0.68134322 2:0.20050875 3:0.27300815 
1.0 1:0.16620577 2:0.19801442 3:0.28663605 
1.0 1:0.58570752 2:0.16904046 3:0.23877427 
1.0 1:0.66334914 2:0.28272478 3:0.36536068 
1.0 1:0.2521025 2:0.26498441 3:0.34362778 
1.0 1:0.66859747 2:0.28029314 3:0.3431409 
1.0 1:0.30322684 2:0.53647493 3:0.53310911 
1.0 1:0.14823664 2:0.16404842 3:0.22519776 
1.0 1:0.15196897 2:0.49204555 3:0.51401858 
1.0 1:0.65699149 2:0.23132405 3:0.31684786 
1.0 1:0.47092725 2:0.25296427 3:0.37043513 
1.0 1:0.42374676 2:0.23848597 3:0.31190829 
1.0 1:0.21213847 2:0.25978263 3:0.30190453 
1.0 1:0.58526566 2:0.41673838 3:0.48166633 
1.0 1:0.72544367 2:0.39103593 3:0.44181361 
1.0 1:0.37268856 2:0.39796625 3:0.46513505 
1.0 1:0.53306065 2:0.25489282 3:0.37728114 
1.0 1:1.14295015 2:1.06912777 3:0.93184861 
1.0 1:0.41016244 2:0.27776469 3:0.29939278 
1.0 1:1.2334111 2:0.96133966 3:0.75477611 
1.0 1:0.66757128 2:0.25970212 3:0.38708065 
1.0 1:0.10870687 2:0.24124767 3:0.34758784 
1.0 1:0.80208191 2:0.26451142 3:0.3380831 
1.0 1:0.59555135 2:0.23665665 3:0.35318694 
1.0 1:0.60438463 2:0.16831225 3:0.30199155 
1.0 1:0.53281253 2:0.2077186 3:0.34518592 
1.0 1:0.46571136 2:0.1398953 3:0.19275697 
1.0 1:0.52354647 2:0.17322156 3:0.27433247 
1.0 1:0.58423848 2:0.21781586 3:0.33782106 
1.0 1:0.69853467 2:0.42527236 3:0.48329704 
1.0 1:0.54459344 2:0.56381506 3:0.51537836 
1.0 1:1.09797773 2:1.05605293 3:0.6157384 
1.0 1:0.59129234 2:0.32483803 3:0.31181853 
1.0 1:0.52053941 2:0.25101121 3:0.36714118 
1.0 1:0.54469866 2:0.38392038 3:0.46513505 
1.0 1:0.62396091 2:0.20363353 3:0.34759426 
1.0 1:0.58336476 2:0.16401518 3:0.31137664 
1.0 1:0.40717266 2:0.50394089 3:0.52048112 
1.0 1:0.69427136 2:0.23144271 3:0.35139708 
1.0 1:0.59949859 2:0.19304305 3:0.33516894 
1.0 1:0.11945146 2:0.54310689 3:0.54347358 
1.0 1:0.49837597 2:0.26230693 3:0.32513478 
1.0 1:0.60413744 2:0.33884415 3:0.43184112 
1.0 1:1.20533222 2:1.00134396 3:0.87106881 
1.0 1:0.36692906 2:0.21273826 3:0.27103397 
1.0 1:0.48234737 2:0.27046474 3:0.32831462 
1.0 1:0.62422849 2:0.2326118 3:0.32005455 
1.0 1:0.49736875 2:0.3089757 3:0.33580459 
1.0 1:0.64467694 2:0.24256766 3:0.36341357 
1.0 1:0.25825043 2:0.23312394 3:0.32476505 
1.0 1:0.55298815 2:0.25970212 3:0.3380831 
1.0 1:1.05786967 2:1.07098662 3:0.87123258 
1.0 1:0.57413707 2:0.28673696 3:0.28737498 
1.0 1:0.58937965 2:0.34710264 3:0.43619417 
1.0 1:0.51316676 2:0.35716359 3:0.40540399 
1.0 1:0.58937965 2:0.43262068 3:0.49264282 
1.0 1:0.30343809 2:0.34808811 3:0.3106162 
1.0 1:0.75301333 2:0.30515088 3:0.39228783 
1.0 1:0.64467694 2:0.21781586 3:0.34293956 
1.0 1:0.38408733 2:0.40850844 3:0.4677278 
1.0 1:0.56927177 2:0.32173842 3:0.39103043 
1.0 1:0.5127064 2:0.14342475 3:0.29949955 
1.0 1:0.48274947 2:0.21198753 3:0.25904248 
1.0 1:0.2813399 2:0.50515075 3:0.48616485 
1.0 1:0.17678816 2:0.60865427 3:0.54347358 
1.0 1:0.87491316 2:0.89011103 3:0.6874293 
1.0 1:0.64709368 2:0.31355844 3:0.41022637 
1.0 1:0.53904495 2:0.23759145 3:0.34532558 
1.0 1:0.2627966 2:0.56108388 3:0.56831442 
1.0 1:0.70524645 2:0.32915644 3:0.41858102 
1.0 1:0.36331078 2:0.41918367 3:0.45094153 
1.0 1:0.66212364 2:0.25572253 3:0.33290103 
1.0 1:0.93689762 2:0.93965283 3:0.84804208 
1.0 1:0.66956805 2:0.41203105 3:0.45745965 
1.0 1:0.46844881 2:0.3233214 3:0.40831656 
1.0 1:0.52955083 2:0.1667126 3:0.2460369 
1.0 1:0.5437237 2:0.20625296 3:0.33860269 
1.0 1:0.4584401 2:0.18314341 3:0.30469904 
1.0 1:0.57513139 2:0.35924499 3:0.35719292 
1.0 1:0.60057968 2:0.38419256 3:0.4643508 
1.0 1:0.48423968 2:0.19299814 3:0.31331862 
1.0 1:0.6731935 2:0.4244898 3:0.48277269 
1.0 1:0.68200379 2:0.49250899 3:0.47173507 
1.0 1:0.48929973 2:0.67513521 3:0.61329756 
1.0 1:0.34624477 2:0.490034 3:0.40308173 
1.0 1:0.58715967 2:0.23828302 3:0.31167581 
1.0 1:0.5626798 2:0.22069693 3:0.31575655 
1.0 1:0.58252245 2:0.23559778 3:0.33257357 
1.0 1:0.16723205 2:0.23877975 3:0.31335414 
1.0 1:0.74006836 2:0.38304122 3:0.4710994 
1.0 1:0.31129693 2:0.13992365 3:0.27415379 
1.0 1:0.57632595 2:0.27495567 3:0.36681413 
1.0 1:0.72352106 2:0.37188901 3:0.43775282 
1.0 1:0.53571261 2:0.19549603 3:0.322646 
1.0 1:0.55381364 2:0.24146271 3:0.33869194 
1.0 1:0.19632993 2:0.22271343 3:0.28957316 
1.0 1:0.25968358 2:0.25259485 3:0.35596828 
1.0 1:0.76623402 2:0.35724234 3:0.42783002 
1.0 1:0.55882773 2:0.23196674 3:0.34797387 
1.0 1:0.23731069 2:0.34132428 3:0.38664192 
1.0 1:1.10783287 2:1.07773452 3:0.86866231 
1.0 1:1.09816947 2:1.05133549 3:0.9199048 
1.0 1:0.60907983 2:0.20693878 3:0.31831167 
1.0 1:0.6595362 2:0.4395052 3:0.48749746 
1.0 1:0.17157787 2:0.2219029 3:0.3262041 
1.0 1:0.19858156 2:0.48498211 3:0.45543 
1.0 1:0.70047119 2:0.51627987 3:0.52783806 
1.0 1:1.21890038 2:1.04184594 3:0.88884818 
1.0 1:0.35133661 2:0.44961883 3:0.47113449 
1.0 1:0.70214759 2:0.2957504 3:0.35242871 
1.0 1:0.51385594 2:0.3167886 3:0.3808738 
1.0 1:0.22105278 2:0.3089757 3:0.35084061 
1.0 1:0.66841287 2:0.27280461 3:0.36028622 
1.0 1:0.58951895 2:0.25911864 3:0.37104639 
1.0 1:0.73785198 2:0.32975982 3:0.43252248 
1.0 1:0.07637752 2:0.1616607 3:0.26174138 
1.0 1:0.58046918 2:0.19197208 3:0.33502897 
1.0 1:0.47032904 2:0.32322467 3:0.40736551 
1.0 1:0.58095282 2:0.25125155 3:0.31893729 
1.0 1:0.59784728 2:0.22560131 3:0.32578057 
1.0 1:0.15018873 2:0.30208223 3:0.32248146 
1.0 1:0.61291906 2:0.31878445 3:0.42100874 
1.0 1:0.89931205 2:0.98597272 3:0.76975441 
1.0 1:0.67255315 2:0.3270323 3:0.42137893 
1.0 1:0.17081351 2:0.17655754 3:0.2856845 
1.0 1:0.5638109 2:0.24814366 3:0.36721188 
1.0 1:0.78803009 2:0.40210259 3:0.46751371 
1.0 1:0.57291565 2:0.27893931 3:0.37728114 
1.0 1:0.63453338 2:0.34587759 3:0.44177683 
1.0 1:0.96654733 2:0.98488827 3:0.8534788 
1.0 1:0.58395568 2:0.20291668 3:0.30989409 
1.0 1:0.64366597 2:0.47697194 3:0.51808496 
1.0 1:0.16689095 2:0.29836124 3:0.36153689 
1.0 1:0.56858895 2:0.16855041 3:0.30356182 
1.0 1:0.4891809 2:0.15439851 3:0.30842301 
1.0 1:0.20639813 2:0.21281505 3:0.19304878 
1.0 1:0.62120386 2:0.3283733 3:0.42925587 
1.0 1:0.48423968 2:0.1350987 3:0.26436258 
1.0 1:0.45948128 2:0.23346939 3:0.24403894 
1.0 1:0.42244164 2:0.24448618 3:0.3367819 
1.0 1:0.64815794 2:0.34224578 3:0.3298395 
1.0 1:0.64971348 2:0.2871209 3:0.36853207 
1.0 1:1.12481448 2:1.08771401 3:0.95421538 
1.0 1:0.5240052 2:0.26197771 3:0.25280865 
1.0 1:0.5437237 2:0.24062846 3:0.33860269 
1.0 1:0.6247711 2:0.26108787 3:0.3775116 
1.0 1:0.16091649 2:0.26498441 3:0.32248146 
1.0 1:0.63579386 2:0.48816327 3:0.53582464 
1.0 1:0.50848235 2:0.31920101 3:0.38767555 
1.0 1:0.63510944 2:0.31406444 3:0.40863841 
1.0 1:0.45056618 2:0.12189283 3:0.28547539 
1.0 1:0.18931126 2:0.25489282 3:0.36258187 
1.0 1:0.19642501 2:0.48513532 3:0.47090209 
1.0 1:0.55797002 2:0.75505986 3:0.55857207 
1.0 1:0.32183298 2:0.19608846 3:0.23789616 
1.0 1:0.35744799 2:0.35848729 3:0.41711926 
1.0 1:0.66841287 2:0.35712603 3:0.36028622 
1.0 1:0.55263194 2:0.22560131 3:0.35084061 
1.0 1:0.60777021 2:0.26054748 3:0.36717025 
1.0 1:0.24175385 2:0.24256766 3:0.35829507 
1.0 1:0.48881615 2:0.23743916 3:0.26697621 
1.0 1:0.79378043 2:0.36292384 3:0.45108079 
1.0 1:0.20641363 2:0.21116375 3:0.33369541 
1.0 1:0.55291866 2:0.20277292 3:0.29949955 
1.0 1:0.47249413 2:0.2868495 3:0.34518592 
1.0 1:0.97514746 2:0.97924483 3:0.86804106 
1.0 1:0.42128856 2:0.19048331 3:0.09431191 
1.0 1:0.3566988 2:0.23050568 3:0.31575655 
1.0 1:0.1809552 2:0.18793588 3:0.25381317 
1.0 1:0.21731257 2:0.24608942 3:0.33193586 
1.0 1:1.22943887 2:1.01551392 3:0.81167775 
1.0 1:0.34162702 2:0.55419451 3:0.54129695 
1.0 1:0.18634428 2:0.22941584 3:0.29866566 
1.0 1:0.66165558 2:0.24947569 3:0.26024056 
1.0 1:0.69728319 2:0.21953861 3:0.36229568 
1.0 1:0.28636382 2:0.27464507 3:0.26062446 
1.0 1:0.21632198 2:0.48153026 3:0.50270292 
1.0 1:0.61230877 2:0.25505931 3:0.30190453 
1.0 1:0.2694348 2:0.28512579 3:0.38180466 
1.0 1:0.65972609 2:0.2705786 3:0.34883766 
1.0 1:0.28396689 2:0.25970212 3:0.22048898 
1.0 1:0.61793066 2:0.2905571 3:0.37921297 
1.0 1:0.63453338 2:0.26066137 3:0.37724763 
1.0 1:0.71307952 2:0.33317005 3:0.40736551 
1.0 1:0.58078561 2:0.32842147 3:0.39795711 
1.0 1:0.88418586 2:0.94740383 3:0.8388796 
1.0 1:0.75634713 2:0.30484679 3:0.33059592 
1.0 1:0.49399367 2:0.54517073 3:0.52543646 
1.0 1:0.43548111 2:0.24304411 3:0.28416942 
1.0 1:0.48757373 2:0.16815315 3:0.3198046 
1.0 1:0.69990753 2:0.32897959 3:0.42972075 
1.0 1:0.57805133 2:0.31652358 3:0.37056723 
1.0 1:0.75861294 2:0.2893582 3:0.36086463 
1.0 1:0.43325295 2:0.14012106 3:0.28405353 
1.0 1:0.54904918 2:0.2219029 3:0.28666421 
1.0 1:0.2569435 2:0.2798473 3:0.23498896 
1.0 1:0.55425478 2:0.29028127 3:0.37210804 
1.0 1:0.54711607 2:0.32328098 3:0.36477411 
1.0 1:0.10376564 2:0.50662011 3:0.52382956 
1.0 1:0.12422952 2:0.56651667 3:0.56305822 
1.0 1:0.61684655 2:0.29148285 3:0.29076197 
1.0 1:0.58739313 2:0.27280461 3:0.37043513 
1.0 1:0.49624592 2:0.2132836 3:0.33491396 
1.0 1:0.63728923 2:0.29908651 3:0.38057145 
1.0 1:0.59085518 2:0.23229014 3:0.27758907 
1.0 1:0.56297173 2:0.24728405 3:0.3198046 
1.0 1:0.67255315 2:0.3029858 3:0.41647918 
1.0 1:0.22660246 2:0.24088935 3:0.31180304 
1.0 1:0.54968309 2:0.21454909 3:0.33167914 
1.0 1:0.55835799 2:0.17369832 3:0.25457138 
1.0 1:0.25101751 2:0.42018629 3:0.4128805 
1.0 1:0.2036734 2:0.24249105 3:0.30885483 
1.0 1:0.24137474 2:0.56706664 3:0.56037761 
1.0 1:0.62508282 2:0.23182692 3:0.34323801 
1.0 1:0.55263194 2:0.29426257 3:0.35585262 
1.0 1:0.58252245 2:0.15539428 3:0.24818923 
1.0 1:0.12353053 2:0.20264804 3:0.30352741 
1.0 1:0.21844592 2:0.62658984 3:0.5807628 
1.0 1:1.19568957 2:1.01551392 3:0.85127179 
1.0 1:1.0730521 2:1.05431206 3:0.9090188 
1.0 1:0.26698615 2:0.25055192 3:0.36504159 
1.0 1:0.29385431 2:0.59959184 3:0.52521425 
1.0 1:0.18628454 2:0.49204555 3:0.51401858 
1.0 1:0.52751231 2:0.67680392 3:0.46611681 
1.0 1:0.17700555 2:0.25360705 3:0.32589241 
1.0 1:0.47343463 2:0.24256766 3:0.35317656 
1.0 1:0.82309916 2:0.86021089 3:0.73896424 
1.0 1:0.61416029 2:0.22271343 3:0.30989409 
1.0 1:0.75196714 2:0.30685886 3:0.3951406 
1.0 1:0.67753503 2:0.41359967 3:0.47527624 
1.0 1:0.71518848 2:0.37622739 3:0.44019108 
1.0 1:0.57107722 2:0.24116763 3:0.33193586 
1.0 1:1.04140704 2:1.05330049 3:0.85127179 
1.0 1:0.18193611 2:0.2953073 3:0.30175987 
1.0 1:0.64808655 2:0.27954944 3:0.3408166 
1.0 1:0.49412212 2:0.16404842 3:0.17624172 
1.0 1:0.21602885 2:0.24031443 3:0.31575655 
1.0 1:0.2199192 2:0.17488971 3:0.30133513 
1.0 1:0.63453338 2:0.2155469 3:0.35739249 
1.0 1:0.59784478 2:0.22199607 3:0.32170155 
1.0 1:0.57537734 2:0.28290623 3:0.38214242 
1.0 1:0.58786127 2:0.21641843 3:0.35278236 
1.0 1:0.5242348 2:0.22951763 3:0.33167914 
1.0 1:0.25170503 2:0.28210368 3:0.33021501 
1.0 1:0.55401925 2:0.27226982 3:0.37876907 
1.0 1:0.70410711 2:0.41097164 3:0.44527009 
1.0 1:0.23293176 2:0.25792436 3:0.32476505 
1.0 1:0.21614093 2:0.22750132 3:0.27919449 
1.0 1:0.30219232 2:0.2623691 3:0.36341357 
1.0 1:0.55501 2:0.33847709 3:0.42402104 
1.0 1:0.45810316 2:0.18311993 3:0.25909178 
1.0 1:0.6211476 2:0.3932843 3:0.46023889 
1.0 1:0.49906334 2:0.16404842 3:0.31821422 
1.0 1:0.53036449 2:0.28559931 3:0.26439255 
1.0 1:0.5363883 2:0.18548909 3:0.31190829 
1.0 1:0.21905503 2:0.40326531 3:0.43502594 
1.0 1:0.20825224 2:0.23229014 3:0.30237381 
1.0 1:0.52064258 2:0.17405858 3:0.314593 
1.0 1:0.50647419 2:0.35114669 3:0.35741956 
1.0 1:0.7198764 2:0.38108742 3:0.44198009 
1.0 1:0.69285031 2:0.26852511 3:0.3768131 
1.0 1:0.7047741 2:0.3909858 3:0.44198009 
1.0 1:0.20382756 2:0.48757132 3:0.35948753 
1.0 1:0.63002652 2:0.33704169 3:0.42079908 
1.0 1:0.28964968 2:0.60416446 3:0.54980445 
1.0 1:0.51906175 2:0.22387186 3:0.33545763 
1.0 1:0.24616645 2:0.50733487 3:0.50830631 
1.0 1:0.15811908 2:0.24124767 3:0.2937362 
1.0 1:0.9917923 2:0.99197854 3:0.83423852 
1.0 1:0.28301172 2:0.26577657 3:0.33696519 
1.0 1:0.54175219 2:0.34447973 3:0.40706676 
1.0 1:0.53441412 2:0.2893918 3:0.39801497 
1.0 1:0.30204604 2:0.3117988 3:0.39625802 
1.0 1:0.65344933 2:0.1829902 3:0.27919449 
1.0 1:0.7133976 2:0.32368883 3:0.39594869 
1.0 1:0.2507091 2:0.26922927 3:0.31180304 
1.0 1:0.6098956 2:0.22724314 3:0.36299192 
1.0 1:0.51936716 2:0.14145311 3:0.26697621 
1.0 1:0.57094179 2:0.17387019 3:0.32334015 
1.0 1:1.10099442 2:1.04361777 3:0.89175541 
1.0 1:0.52354647 2:0.28210368 3:0.38101732 
1.0 1:0.43187302 2:0.42759021 3:0.48751113 
1.0 1:0.5881044 2:0.24233837 3:0.36549097 
1.0 1:0.53428056 2:0.33428571 3:0.37136361 
1.0 1:0.14334175 2:0.29028127 3:0.36721188 
1.0 1:0.50878494 2:0.26529026 3:0.34070548 
1.0 1:0.83953532 2:0.91838246 3:0.82443278 
1.0 1:0.51603031 2:0.25750758 3:0.3182503 
1.0 1:0.61291906 2:0.23541006 3:0.32578057 
1.0 1:0.51882822 2:0.2171229 3:0.34269224 
1.0 1:0.47850058 2:0.30577584 3:0.38221142 
1.0 1:0.30453992 2:0.38734694 3:0.45624672 
1.0 1:0.64366597 2:0.1801894 3:0.33305462 
1.0 1:0.51773293 2:0.23739269 3:0.26904196 
1.0 1:0.62666881 2:0.36421234 3:0.43252248 
1.0 1:0.68326236 2:0.37455647 3:0.4357581 
1.0 1:0.54789213 2:0.17804452 3:0.28427076 
1.0 1:0.26775904 2:0.30460251 3:0.3775116 
1.0 1:0.60461328 2:0.22731184 3:0.28800667 
1.0 1:0.6098956 2:0.42064156 3:0.48882912 
1.0 1:0.49691808 2:0.32773691 3:0.42596578 
1.0 1:1.10081079 2:0.94957075 3:0.82743095 
1.0 1:0.12152961 2:0.23808402 3:0.25372269 
1.0 1:0.47400567 2:0.19813826 3:0.27547931 
1.0 1:0.65182228 2:0.22816327 3:0.32892205 
1.0 1:0.16734501 2:0.17869992 3:0.26862105 
1.0 1:0.57356031 2:0.37144615 3:0.4349388 
1.0 1:0.75341953 2:0.24646466 3:0.37213872 
1.0 1:0.67931461 2:0.35295212 3:0.4355903 
1.0 1:0.20215123 2:0.25101121 3:0.35708251 
1.0 1:0.6148541 2:0.34328219 3:0.4404302 
1.0 1:0.3707584 2:0.68114205 3:0.63202161 
1.0 1:0.48274947 2:0.2702841 3:0.37006069 
1.0 1:0.71679957 2:0.24292479 3:0.25280865 
1.0 1:0.41282725 2:0.23571767 3:0.3042517 
1.0 1:0.64902985 2:0.31798129 3:0.41235334 
1.0 1:0.22278146 2:0.29391813 3:0.24289044 
1.0 1:0.66315833 2:0.37273259 3:0.43604476 
1.0 1:0.36581495 2:0.36200557 3:0.43269172 
1.0 1:0.51694955 2:0.21259747 3:0.19435241 
1.0 1:1.03702474 2:1.00963421 3:0.47246148 
1.0 1:0.50894578 2:0.19782309 3:0.30352741 
1.0 1:0.54481016 2:0.26922927 3:0.16827466 
1.0 1:1.13846926 2:0.93342871 3:0.84689648 
1.0 1:0.60047326 2:0.23665665 3:0.29846783 
1.0 1:0.72394111 2:0.42064156 3:0.43075041 
1.0 1:0.66998412 2:0.3979354 3:0.45265157 
1.0 1:1.03026104 2:0.97554666 3:0.63560093 
1.0 1:0.72174301 2:0.35724234 3:0.43269172 
1.0 1:1.02250451 2:1.0300303 3:0.86172388 
1.0 1:0.66494665 2:0.43723766 3:0.47698767 
1.0 1:0.31016973 2:0.30440092 3:0.36378785 
1.0 1:1.03157503 2:1.05241654 3:0.77824079 
1.0 1:0.99799964 2:1.06089836 3:0.92656449 
1.0 1:0.60945019 2:0.29361113 3:0.38731932 
1.0 1:0.57336701 2:0.33710083 3:0.41127731 
1.0 1:0.5127064 2:0.26212109 3:0.38071976 
1.0 1:0.67462014 2:0.35357651 3:0.41711926 
1.0 1:0.60804377 2:0.28103064 3:0.35490444 
1.0 1:0.39122615 2:0.43765116 3:0.49264282 
1.0 1:0.55885363 2:0.21225494 3:0.2174694 
1.0 1:1.084799 2:1.04385384 3:0.92056136 
1.0 1:0.5638109 2:0.28091735 3:0.36231572 
1.0 1:0.55765587 2:0.22560131 3:0.33079258 
1.0 1:0.60064614 2:0.18843867 3:0.33388748 
1.0 1:0.76167139 2:0.32328098 3:0.41235334 
1.0 1:0.57004173 2:0.26444423 3:0.37250119 
1.0 1:0.2683779 2:0.20336344 3:0.30954169 
1.0 1:0.53859311 2:0.18817318 3:0.24478017 
1.0 1:0.58942299 2:0.19304305 3:0.30977736 
1.0 1:0.56423397 2:0.19799287 3:0.30469904 
1.0 1:0.62526278 2:0.3188962 3:0.36877124 
1.0 1:0.74895743 2:0.40603021 3:0.36732006 
1.0 1:0.62968433 2:0.2554647 3:0.3455727 
1.0 1:1.04337995 2:1.0128713 3:0.79092719 
1.0 1:0.44298963 2:0.22733536 3:0.25650655 
1.0 1:0.58927502 2:0.19306406 3:0.31222856 
1.0 1:0.72774442 2:0.31499446 3:0.37719984 
1.0 1:1.06059853 2:1.10783254 3:0.86296479 
1.0 1:0.6182636 2:0.14837043 3:0.29949955 
1.0 1:0.54711607 2:0.15899065 3:0.21674983 
1.0 1:0.39916267 2:0.23196674 3:0.34797387 
1.0 1:0.56109796 2:0.27046474 3:0.34821247 
1.0 1:0.5428656 2:0.29674086 3:0.3756435 
1.0 1:0.21371222 2:0.39795918 3:0.41911036 
1.0 1:0.22762454 2:0.54517073 3:0.31724465 
1.0 1:0.41786173 2:0.19152061 3:0.25517884 
1.0 1:0.60907983 2:0.35020408 3:0.43502594 
1.0 1:1.04595719 2:1.08643608 3:0.94101146 
1.0 1:0.82434015 2:0.28344318 3:0.3106162 
1.0 1:0.32302904 2:0.40148225 3:0.44048366 
1.0 1:0.22236635 2:0.26085478 3:0.34199452 
1.0 1:0.28085904 2:0.59150081 3:0.5162336 
1.0 1:0.59040036 2:0.24947569 3:0.27554883 
1.0 1:0.30856505 2:0.31173916 3:0.38604186 
1.0 1:0.59305142 2:0.20693878 3:0.33422725 
1.0 1:0.57168019 2:0.29714286 3:0.3766688 
1.0 1:0.1197488 2:0.42043972 3:0.46396516 
1.0 1:0.55501 2:0.19702398 3:0.26174138 
1.0 1:0.53551808 2:0.2320781 3:0.35815203 
1.0 1:0.33731007 2:0.43705985 3:0.49072854 
1.0 1:0.47032904 2:0.3530608 3:0.42773379 
1.0 1:0.50756653 2:0.2122449 3:0.32361686 
1.0 1:0.2683779 2:0.20832352 3:0.24357379 
1.0 1:0.52889053 2:0.28512579 3:0.38180466 
1.0 1:0.75226316 2:0.25489282 3:0.38218089 
1.0 1:0.25491569 2:0.25084675 3:0.26689426 
1.0 1:0.50067285 2:0.26355243 3:0.33607655 
1.0 1:0.73503389 2:0.31429023 3:0.42693383 
1.0 1:0.95512583 2:0.96635213 3:0.85714397 
1.0 1:0.64467694 2:0.38612811 3:0.44530958 
1.0 1:0.23246761 2:0.24651198 3:0.30237381 
1.0 1:0.67320618 2:0.26974069 3:0.29069651 
1.0 1:0.23677675 2:0.23264163 3:0.27930745 
1.0 1:0.60413744 2:0.27500395 3:0.39258283 
1.0 1:0.98212503 2:0.98017136 3:0.86502666 
1.0 1:0.15942001 2:0.28374861 3:0.32338383 
1.0 1:1.0415761 2:1.11676502 3:0.9134419 
1.0 1:0.12559817 2:0.2059838 3:0.30072053 
1.0 1:0.48105472 2:0.44640754 3:0.44147749 
1.0 1:0.47333822 2:0.19459104 3:0.33167914 
1.0 1:0.39497124 2:0.28272478 3:0.36536068 
1.0 1:0.20099122 2:0.2411988 3:0.33114659 
1.0 1:0.11219892 2:0.2122449 3:0.2864805 
1.0 1:0.63070371 2:0.25750758 3:0.35741956 
1.0 1:0.76456071 2:0.25564865 3:0.3871752 
1.0 1:0.62321334 2:0.33260338 3:0.40216233 
1.0 1:0.22670115 2:0.21284234 3:0.33009062 
1.0 1:0.24630013 2:0.21760996 3:0.32488086 
1.0 1:0.47355351 2:0.41578504 3:0.48244014 
1.0 1:0.59954137 2:0.42255974 3:0.43619417 
1.0 1:1.05173782 2:1.06142982 3:0.76975441 
1.0 1:0.619124 2:0.36938174 3:0.43201001 
1.0 1:0.66818226 2:0.28445382 3:0.32578057 
1.0 1:0.46839809 2:0.17821297 3:0.14843653 
1.0 1:1.10596075 2:1.10367347 3:0.93371422 
1.0 1:1.18018043 2:1.00193856 3:0.83724309 
1.0 1:0.58927502 2:0.2871209 3:0.39924307 
1.0 1:1.13239985 2:1.02066639 3:0.9057893 
1.0 1:0.66051168 2:0.23140176 3:0.35921873 
1.0 1:0.65381516 2:0.32710244 3:0.41142666 
1.0 1:0.79318061 2:0.37728144 3:0.46248668 
1.0 1:1.12843653 2:1.04293531 3:0.8724228 
1.0 1:0.60047326 2:0.26563501 3:0.36313586 
1.0 1:0.59247925 2:0.16386846 3:0.27908103 
1.0 1:0.66315833 2:0.26974069 3:0.37590066 
1.0 1:0.14074293 2:0.18793588 3:0.25381317 
1.0 1:0.70266868 2:0.32328098 3:0.37534727 
1.0 1:0.60872307 2:0.28995843 3:0.3914706 
1.0 1:1.13586755 2:1.03399917 3:0.88685566 
1.0 1:0.5827755 2:0.38254134 3:0.4560928 
1.0 1:0.60942117 2:0.15346117 3:0.30199155 
1.0 1:0.5881044 2:0.22255564 3:0.28427076 
1.0 1:1.03097127 2:1.03357556 3:0.88516229 
1.0 1:1.09313199 2:1.03168436 3:0.88096703 
1.0 1:0.46313726 2:0.17817074 3:0.23877086 
1.0 1:0.76129057 2:0.24768802 3:0.32087251 
1.0 1:0.69759653 2:0.32305496 3:0.42596578 
1.0 1:0.62296692 2:0.3089757 3:0.39093668 
1.0 1:0.2844034 2:0.28995843 3:0.33347496 
1.0 1:1.10023996 2:1.03972776 3:0.92220961 
1.0 1:0.77073362 2:0.23090079 3:0.33583826 
1.0 1:0.59321343 2:0.31437326 3:0.38407467 
1.0 1:0.59085518 2:0.33184305 3:0.40646971 
1.0 1:0.67355546 2:0.15826179 3:0.28427076 
1.0 1:0.97708849 2:0.97027064 3:0.79848615 
1.0 1:0.43998523 2:0.20885287 3:0.31570827 
1.0 1:0.85468396 2:0.75087578 3:0.71798172 
1.0 1:0.57336701 2:0.38392038 3:0.45534273 
1.0 1:0.25553043 2:0.57152179 3:0.47512844 
1.0 1:0.24679039 2:0.25246838 3:0.33782106 
1.0 1:0.5972573 2:0.29964518 3:0.38679651 
1.0 1:0.48550095 2:0.3132793 3:0.3768131 
1.0 1:0.67471857 2:0.36238875 3:0.43735154 
1.0 1:0.67373595 2:0.26391714 3:0.29781355 
1.0 1:0.58118478 2:0.31499446 3:0.39731716 
1.0 1:1.0751627 2:1.03345408 3:0.64936015 
1.0 1:0.65147626 2:0.48897235 3:0.50007009 
1.0 1:0.22105278 2:0.19127067 3:0.30573253 
1.0 1:0.21569789 2:0.2219029 3:0.33114659 
1.0 1:0.42749345 2:0.4368522 3:0.47254074 
1.0 1:0.27086675 2:0.25572582 3:0.3227661 
1.0 1:0.72269064 2:0.80717329 3:0.72925302 
1.0 1:0.20259007 2:0.16887337 3:0.22030215 
1.0 1:0.21385706 2:0.20712777 3:0.29838517 
1.0 1:0.25774282 2:0.51186599 3:0.42246382 
1.0 1:0.65381516 2:0.29865875 3:0.32715855 
1.0 1:0.54988743 2:0.30230508 3:0.37592858 
1.0 1:0.42481333 2:0.27847049 3:0.28006379 
1.0 1:0.16624751 2:0.2029427 3:0.32501231 
1.0 1:0.82699128 2:0.35588809 3:0.30868457 
1.0 1:0.71842152 2:0.30407133 3:0.40597271 
1.0 1:0.54181953 2:0.27280461 3:0.34506286 
1.0 1:0.72062705 2:0.46792567 3:0.52390356 
1.0 1:0.53388007 2:0.16430977 3:0.2948112 
1.0 1:0.29138775 2:0.26483632 3:0.25561245 
1.0 1:0.62120386 2:0.3334252 3:0.40308173 
1.0 1:0.72815306 2:0.39600478 3:0.46659576 
1.0 1:1.05910165 2:0.98006801 3:0.87945104 
1.0 1:0.63728923 2:0.38591808 3:0.43988129 
1.0 1:0.63980102 2:0.23759145 3:0.35040389 
1.0 1:0.91605249 2:1.00134396 3:0.87106881 
1.0 1:0.38113873 2:0.36735298 3:0.41221639 
1.0 1:0.19764885 2:0.28467225 3:0.37206586 
1.0 1:0.66494665 2:0.44215044 3:0.506191 
1.0 1:0.20136403 2:0.22271343 3:0.33021501 
1.0 1:0.6104928 2:0.2705786 3:0.34385427 
1.0 1:0.55141285 2:0.24158803 3:0.26411995 
1.0 1:0.54847555 2:0.40529609 3:0.44549991 
1.0 1:1.0680549 2:1.00941304 3:0.86058225 
1.0 1:0.6182636 2:0.22255564 3:0.34010965 
1.0 1:0.55412221 2:0.41758653 3:0.42831546 
1.0 1:0.67016472 2:0.2975692 3:0.33160006 
1.0 1:0.48890277 2:0.27569953 3:0.36732006 
1.0 1:0.20382756 2:0.23318628 3:0.34891436 
1.0 1:0.55617605 2:0.2463161 3:0.31836569 
1.0 1:1.00339227 2:1.02534834 3:0.81276229 
1.0 1:0.63434431 2:0.33393337 3:0.40730469 
1.0 1:0.19348973 2:0.5001378 3:0.52348276 
1.0 1:0.63367073 2:0.34311747 3:0.34797387 
1.0 1:0.59316921 2:0.17848711 3:0.26195178 
1.0 1:0.53273828 2:0.27969629 3:0.32715855 
1.0 1:0.14216452 2:0.20260699 3:0.30149167 
1.0 1:0.26177324 2:0.30684961 3:0.3606964 
1.0 1:0.51851237 2:0.33159555 3:0.39117778 
1.0 1:0.72069904 2:0.41673838 3:0.4767007 
1.0 1:0.21741373 2:0.17369832 3:0.24967577 
1.0 1:1.07997767 2:1.05802381 3:0.61370757 
1.0 1:0.23247391 2:0.23132405 3:0.34199452 
1.0 1:1.14604959 2:1.06332141 3:0.91372743 
1.0 1:0.52883656 2:0.28217054 3:0.35317656 
1.0 1:0.56885338 2:0.24745937 3:0.3606964 
1.0 1:0.58158968 2:0.24863437 3:0.3768131 
1.0 1:0.60310032 2:0.34295264 3:0.4083832 
1.0 1:0.20654994 2:0.26729038 3:0.36056053 
1.0 1:0.67960359 2:0.3513923 3:0.44198009 
1.0 1:0.16119919 2:0.30459253 3:0.35530714 
1.0 1:0.33157917 2:0.53948138 3:0.54630895 
1.0 1:0.53205969 2:0.32202511 3:0.26814414 
1.0 1:0.56109796 2:0.25114583 3:0.31339123 
1.0 1:1.0463948 2:1.02066639 3:0.85193156 
1.0 1:0.3261206 2:0.41012104 3:0.45039551 
1.0 1:0.24965248 2:0.19549603 3:0.32760979 
1.0 1:0.71185612 2:0.24768802 3:0.35490444 
1.0 1:0.6452691 2:0.32698075 3:0.41053569 
1.0 1:0.64003277 2:0.24641979 3:0.36378785 
1.0 1:0.17304838 2:0.26943375 3:0.32147363 
1.0 1:0.67716688 2:0.37411741 3:0.41711311 
1.0 1:0.4923329 2:0.28024212 3:0.34883766 
1.0 1:0.52389736 2:0.18668574 3:0.3212366 
1.0 1:0.68926606 2:0.25125155 3:0.38372143 
1.0 1:0.24668945 2:0.57947261 3:0.4367484 
1.0 1:0.53904495 2:0.2029427 3:0.25899418 
1.0 1:0.40225496 2:0.1667126 3:0.30885483 
1.0 1:0.71185612 2:0.35724234 3:0.38893638 
1.0 1:0.6396466 2:0.4158066 3:0.45978976 
1.0 1:0.99139317 2:1.00995268 3:0.8819559 
1.0 1:0.59784728 2:0.30407133 3:0.39594869 
1.0 1:0.11858931 2:0.46802048 3:0.42102189 
1.0 1:0.74646024 2:0.34295264 3:0.44241513 
1.0 1:0.17356784 2:0.28812255 3:0.272209 
1.0 1:0.56927177 2:0.32173842 3:0.39103043 
1.0 1:0.59002714 2:0.30208223 3:0.20617667 
1.0 1:0.3375108 2:0.1424707 3:0.21415773 
1.0 1:0.52944028 2:0.15919121 3:0.31631913 
1.0 1:0.24411188 2:0.25489282 3:0.31848408 
1.0 1:0.28659083 2:0.28467225 3:0.30842301 
1.0 1:0.54847555 2:0.18334823 3:0.26925819 
1.0 1:0.64123674 2:0.34952572 3:0.38604186 
1.0 1:0.37553281 2:0.46319553 3:0.50424715 
1.0 1:0.26137973 2:0.1829902 3:0.21320307 
1.0 1:0.23040457 2:0.27014266 3:0.36080151 
1.0 1:0.49370472 2:0.13364519 3:0.28946409 
1.0 1:0.56885338 2:0.21776424 3:0.32005455 
1.0 1:0.49930496 2:0.23058506 3:0.35242871 
1.0 1:0.45297959 2:0.24947569 3:0.35209017 
1.0 1:0.66834438 2:0.30339936 3:0.40151276 
1.0 1:0.6380387 2:0.31388008 3:0.41599673 
1.0 1:0.95770744 2:0.98501798 3:0.86402002 
1.0 1:0.22762454 2:0.57835504 3:0.57004899 
1.0 1:0.39143978 2:0.39217413 3:0.44237857 
1.0 1:0.81422555 2:0.21879824 3:0.35644482 
1.0 1:0.57075494 2:0.30781812 3:0.36249116 
1.0 1:0.20654994 2:0.28708967 3:0.2640725 
1.0 1:0.16177342 2:0.42450989 3:0.46953621 
1.0 1:0.61699079 2:0.24366168 3:0.33607655 
1.0 1:0.46129394 2:0.16959002 3:0.24318274 
1.0 1:1.06373858 2:0.85819637 3:0.78582443 
1.0 1:0.31008045 2:0.28495392 3:0.37805926 
1.0 1:0.14959856 2:0.21755102 3:0.30770128 
1.0 1:0.56397535 2:0.27164555 3:0.36435042 
1.0 1:0.29228251 2:0.2159322 3:0.28316699 
1.0 1:0.65459401 2:0.26218953 3:0.36721188 
1.0 1:0.52453806 2:0.21707892 3:0.34597405 
1.0 1:0.65443309 2:0.33654474 3:0.42165917 
1.0 1:0.70296491 2:0.25857974 3:0.36153689 
1.0 1:0.1981535 2:0.64893102 3:0.61067183 
1.0 1:0.26698615 2:0.31933087 3:0.38451047 
1.0 1:0.26757127 2:0.2762354 3:0.33293877 
1.0 1:0.99860991 2:1.02259461 3:0.89348123 
1.0 1:0.55291866 2:0.23739269 3:0.3198046 
1.0 1:0.98060579 2:1.08155171 3:0.9185736 
1.0 1:1.18655343 2:0.96708547 3:0.79311163 
1.0 1:0.50450605 2:0.17043244 3:0.25315302 
1.0 1:0.50983139 2:0.19778302 3:0.29654918 
1.0 1:0.46824856 2:0.17463298 3:0.21431575 
1.0 1:0.64808655 2:0.27954944 3:0.38592467 
1.0 1:0.35786241 2:0.602997 3:0.43988129 
1.0 1:0.52445899 2:0.26775054 3:0.3402638 
1.0 1:0.55381364 2:0.30685886 3:0.37461381 
1.0 1:0.51584476 2:0.2734978 3:0.38190517 
1.0 1:1.08731983 2:1.04923702 3:0.89620413 
1.0 1:0.70708898 2:0.34132428 3:0.43125445 
1.0 1:0.81943498 2:0.903102 3:0.79602994 
1.0 1:0.13856369 2:0.318373 3:0.36721188 
1.0 1:0.61277811 2:0.1013035 3:0.22735437 
1.0 1:0.68005907 2:0.31441809 3:0.37964325 
1.0 1:0.71592276 2:0.37231721 3:0.4474056 
1.0 1:0.17090213 2:0.2077186 3:0.3198046 
1.0 1:0.63434431 2:0.30937944 3:0.40239741 
1.0 1:0.59406848 2:0.31429023 3:0.38276826 
1.0 1:0.43771061 2:0.33928694 3:0.40822048 
1.0 1:0.60438078 2:0.43186441 3:0.46380799 
1.0 1:0.41847752 2:0.64925529 3:0.50957452 
1.0 1:0.52053941 2:0.2116369 3:0.34199452 
1.0 1:0.57934738 2:0.29203949 3:0.2945424 
1.0 1:0.64688393 2:0.34452519 3:0.42246382 
1.0 1:0.59040036 2:0.26943375 3:0.28065158 
1.0 1:0.66193853 2:0.38899606 3:0.38214242 
1.0 1:0.74843 2:0.31895427 3:0.3914706 
1.0 1:0.52955083 2:0.25259485 3:0.33502897 
1.0 1:0.74151679 2:0.30008356 3:0.38893638 
1.0 1:0.37364064 2:0.22603703 3:0.17639118 
1.0 1:0.26477541 2:0.1667126 3:0.28791552 
1.0 1:0.55765587 2:0.39725447 3:0.4560928 
1.0 1:0.59788776 2:0.30879702 3:0.39654387 
1.0 1:0.54963149 2:0.28812255 3:0.3810926 
1.0 1:0.37547181 2:0.1801894 3:0.24318274 
1.0 1:0.79263053 2:0.97889266 3:0.7372106 
1.0 1:0.7024444 2:0.75505986 3:0.71536423 
1.0 1:0.55124587 2:0.24863437 3:0.36662896 
1.0 1:1.0404924 2:1.00891892 3:0.85788853 
1.0 1:0.6581344 2:0.33349758 3:0.29570852 
1.0 1:0.61271143 2:0.16887337 3:0.30842301 
1.0 1:0.70247552 2:0.23624584 3:0.33193586 
1.0 1:0.35538612 2:0.32763915 3:0.41724342 
1.0 1:0.56865808 2:0.16401518 3:0.28172172 
1.0 1:0.06616556 2:0.543857 3:0.53578939 
1.0 1:0.53441412 2:0.2544652 3:0.37760395 
1.0 1:0.29903572 2:0.28943856 3:0.38551394 
1.0 1:0.523901 2:0.37211331 3:0.44463328 
1.0 1:0.11275117 2:0.11095145 3:0.16310205 
1.0 1:0.50881813 2:0.361337 3:0.44181361 
1.0 1:0.30551009 2:0.18186829 3:0.30362 
1.0 1:0.65443309 2:0.20786587 3:0.33529524 
1.0 1:0.60556947 2:0.39620438 3:0.37873804 
1.0 1:0.6581344 2:0.38254134 3:0.44105677 
1.0 1:0.47859131 2:0.21779216 3:0.30977736 
1.0 1:1.04718989 2:1.07183673 3:0.73211683 
1.0 1:0.72815306 2:0.23559778 3:0.33753736 
1.0 1:0.54181953 2:0.32736553 3:0.42625412 
1.0 1:0.67456949 2:0.32169718 3:0.4267394 
1.0 1:0.20149898 2:0.27511583 3:0.33583826 
1.0 1:0.6396466 2:0.21273826 3:0.35331214 
1.0 1:0.69746253 2:0.41840897 3:0.47527624 
1.0 1:0.32382189 2:0.3174137 3:0.41157942 
1.0 1:0.40779277 2:0.43705985 3:0.45147026 
1.0 1:0.54871698 2:0.22766262 3:0.32005455 
1.0 1:0.25905751 2:0.25970212 3:0.3380831 
1.0 1:0.5827755 2:0.25012319 3:0.37590066 
1.0 1:0.70482701 2:0.31429023 3:0.37295369 
1.0 1:0.57393549 2:0.30738192 3:0.40706676 
1.0 1:1.18655343 2:1.0381947 3:0.91207838 
1.0 1:0.74804506 2:0.27351412 3:0.39545734 
1.0 1:0.64971348 2:0.40592955 3:0.45042808 
1.0 1:0.54394617 2:0.20296478 3:0.25592505 
1.0 1:0.2521025 2:0.25438503 3:0.36477411 
1.0 1:0.57413707 2:0.25655413 3:0.33869194 
1.0 1:0.55291866 2:0.22255564 3:0.34010965 
1.0 1:0.43502318 2:0.57635097 3:0.50561729 
1.0 1:0.57427211 2:0.18668574 3:0.33097104 
1.0 1:0.22439783 2:0.23877551 3:0.27587011 
1.0 1:0.60907983 2:0.22816327 3:0.32361686 
1.0 1:0.58800532 2:0.1447486 3:0.283945 
1.0 1:0.2569435 2:0.25572253 3:0.26925819 
1.0 1:0.36197056 2:0.14021385 3:0.26135418 
1.0 1:0.71339645 2:0.23848597 3:0.37006069 
1.0 1:0.45324606 2:0.33260338 3:0.42227045 
1.0 1:0.58820212 2:0.30701584 3:0.41573739 
1.0 1:0.50537807 2:0.22640227 3:0.35205318 
1.0 1:1.02260735 2:1.01694602 3:0.8760998 
1.0 1:0.28301172 2:0.255933 3:0.34702385 
1.0 1:0.29660672 2:0.30008356 3:0.35004274 
1.0 1:0.7223719 2:0.39436248 3:0.44587771 
1.0 1:0.18634428 2:0.52437906 3:0.46513505 
1.0 1:1.0578755 2:1.13020408 3:0.90188305 
1.0 1:0.39002481 2:0.2122449 3:0.32361686 
1.0 1:0.5827755 2:0.37273259 3:0.43604476 
1.0 1:0.25211571 2:0.30008356 3:0.29656399 
1.0 1:0.60310032 2:0.30961002 3:0.4083832 
1.0 1:0.65995223 2:0.23759145 3:0.34532558 
1.0 1:0.36172273 2:0.59342952 3:0.49618887 
1.0 1:0.41469873 2:0.52213217 3:0.48374655 
1.0 1:0.65543082 2:0.3169198 3:0.3951406 
1.0 1:0.20876523 2:0.19197208 3:0.2460369 
1.0 1:0.32153131 2:0.35801946 3:0.41098472 
1.0 1:0.37929761 2:0.17404406 3:0.3106162 
1.0 1:0.53648841 2:0.22699719 3:0.34821247 
1.0 1:0.22550234 2:0.21225494 3:0.28666421 
1.0 1:0.60804377 2:0.28103064 3:0.35490444 
1.0 1:0.37679578 2:0.57086435 3:0.57583104 
1.0 1:0.59572281 2:0.28990564 3:0.38870483 
1.0 1:0.40568528 2:0.22055962 3:0.29782708 
1.0 1:0.54175219 2:0.28618316 3:0.3383412 
1.0 1:0.17115942 2:0.2326118 3:0.2794127 
1.0 1:0.22670115 2:0.2029427 3:0.2945424 
1.0 1:0.16183365 2:0.29836124 3:0.36153689 
1.0 1:0.26177324 2:0.22271343 3:0.30989409 
1.0 1:0.89619108 2:0.90348977 3:0.80935169 
1.0 1:0.57272765 2:0.35311509 3:0.42100874 
1.0 1:0.13891294 2:0.22285714 3:0.29178569 
1.0 1:0.31569376 2:0.18692019 3:0.29315035 
1.0 1:0.26757127 2:0.58992644 3:0.57774669 
1.0 1:0.52010933 2:0.27569953 3:0.37724763 
1.0 1:0.6449561 2:0.28507388 3:0.35382106 
1.0 1:0.62468761 2:0.30193913 3:0.39610875 
1.0 1:0.44209293 2:0.26567409 3:0.36732006 
1.0 1:0.54258409 2:0.34330633 3:0.42602074 
1.0 1:0.34213655 2:0.27559275 3:0.3726717 
1.0 1:0.64235875 2:0.40529609 3:0.47487353 
1.0 1:0.35881843 2:0.18702796 3:0.2263199 
1.0 1:0.57789752 2:0.3318416 3:0.42627869 
1.0 1:0.3052464 2:0.26574684 3:0.35382106 
1.0 1:0.34624477 2:0.3283733 3:0.37690759 
1.0 1:0.70385901 2:0.22320377 3:0.36028622 
1.0 1:0.13409708 2:0.24378566 3:0.33305462 
1.0 1:0.56409233 2:0.21781586 3:0.30199155 
1.0 1:0.52453806 2:0.15919121 3:0.28666421 
1.0 1:0.67692455 2:0.34427645 3:0.42352875 
1.0 1:0.42818534 2:0.79095801 3:0.72521595 
1.0 1:0.53516751 2:0.33063244 3:0.25736124 
1.0 1:0.68463769 2:0.31674799 3:0.38101732 
1.0 1:0.45413847 2:0.20163265 3:0.30770128 
1.0 1:0.19687648 2:0.27529447 3:0.32334015 
1.0 1:0.55878518 2:0.26725611 3:0.30989409 
1.0 1:0.53924473 2:0.24602278 3:0.27183675 
1.0 1:0.63579386 2:0.38204082 3:0.33953244 
1.0 1:0.66749307 2:0.36938174 3:0.44690691 
1.0 1:0.56927177 2:0.22274198 3:0.33516894 
1.0 1:0.45100469 2:0.18331109 3:0.30643416 
1.0 1:0.44833524 2:0.32424366 3:0.36990881 
1.0 1:0.25746639 2:0.19078878 3:0.31719488 
1.0 1:1.012842 2:0.84322783 3:0.72969412 
1.0 1:0.18773591 2:0.24908535 3:0.32248146 
1.0 1:0.53205969 2:0.18942653 3:0.23835035 
1.0 1:0.61507056 2:0.31288059 3:0.36185718 
1.0 1:0.15942001 2:0.3126044 3:0.26458677 
1.0 1:0.64339626 2:0.24233837 3:0.36041471 
1.0 1:0.62093831 2:0.37421353 3:0.42352875 
1.0 1:0.59313093 2:0.32146926 3:0.41117734 
1.0 1:0.65978656 2:0.40097919 3:0.47090209 
1.0 1:0.72107328 2:0.27799685 3:0.3971353 
1.0 1:0.61991363 2:0.30339936 3:0.38664192 
1.0 1:0.38145344 2:0.66699058 3:0.61515586 
